tree
version=v3
num_class=1
num_tree_per_iteration=1
label_index=0
max_feature_idx=58
objective=binary sigmoid:1
feature_names=count_mcc_category_1 count_mcc_category_2 count_mcc_category_4 count_mcc_category_10 count_mcc_category_13 count_mcc_category_15 count_mcc_category_19 count_mcc_category_20 count_mcc_category_25 mean_mcc_category_2 mean_mcc_category_3 mean_mcc_category_4 mean_mcc_category_5 mean_mcc_category_6 mean_mcc_category_9 mean_mcc_category_10 mean_mcc_category_11 mean_mcc_category_12 mean_mcc_category_13 mean_mcc_category_15 mean_mcc_category_20 mean_mcc_category_21 mean_mcc_category_22 mean_mcc_category_26 mean_day_of_week_3 mean_day_of_week_4 count_operation_type_2 count_operation_type_4 count_operation_type_6 count_operation_type_8 count_operation_type_10 mean_operation_type_2 mean_operation_type_3 mean_operation_type_4 mean_operation_type_5 mean_operation_type_8 mean_operation_type_9 mean_operation_type_10 mean_operation_type_14 mean_operation_type_15 amnt_median hour_diff_mean count_mcc_category_3 mean_mcc_category_1 mean_mcc_category_7 count_operation_type_3 count_operation_type_11 mean_operation_type_1 hour_diff_var days_before_min days_before_median count_operation_type_20 count_mcc_category_7 count_mcc_category_9 product count_operation_type_5 days_before_max hour_diff_max hour_diff_median
feature_infos=[0:1885] [0:1837] [0:1436] [0:742] [0:1492] [0:457] [0:311] [0:733] [0:766] [0:0.73354259923567378] [0:0.70384716683495729] [0:0.69106540554142293] [0:0.69585832209490328] [0:0.74150220775267206] [0:0.77489821725099284] [0:0.73745819482092101] [0:0.85713815442795172] [0:0.72730929170034508] [0:0.79582901783479365] [0:0.77848738101455917] [0:0.78690776893649172] [0:0.75301869579349545] [0:0.7960037970269831] [0:0.8154421827071946] [0:0.73670581066774754] [0:0.73064640432909844] [0:5431] [0:1021] [0:1222] [0:726] [0:2171] [0:0.83962730360040705] [0:0.74290785929559811] [0:0.78046778058585242] [0:0.71130415134808522] [0:0.72752796788321494] [0:0.74414075061136653] [0:0.72108785000286257] [0:0.77524212449746832] [0:0.76999613689651125] [0:0.73043481839594493] [-0.1666666666666666:1424] [0:1765] [0:0.67726643086324445] [0:0.83962730360040705] [0:830] [0:2169] [0:0.76677887427556712] [0.10000000000000001:10528472.566666666] [1:355] [1:358] [0:126] [0:410] [0:393] [0:4] [0:1177] [2:359] [0:8453] [0:1522.5]
tree_sizes=993 1014 1012 1015 1011 1011 1008 1013 1014 1013 1009 1002 1012 1018 1012 1012 1012 1009 1008 1013 1008 1016 1017 1011 1011 1016 1011 1017 1013 1021 1022 1008 1016 1012 1023 1018 1018 1022 1015 1010 1020 1017 1012 1015 1012 1015 1017 1020 1008 1011 1014 1012 1019 1021 1025 1005 1024 1015 1014 1018 1022 1001 1004 1019 1023 1014 1023 1013 1025 1020 1025 1020 1026 1024 1013 1014 1000 1024 1024 1014 1027 1022 1015 1021 1018 1011 1015 1011 1009 1001 1020 1025 1024 1010 1018 1003 1017 1018 1018 1006 1012 1011 1018 1017 1024 1007 1018 1026 1026 1028 1021 1010 1001 1016 1004 1008 1016 1020 1022 1015 997 1018 1017 1009 1017 1011 1021 1021 1019 1014 1012 1013 1021 1012 1016 1028 1012 1020 1002 1010 1010 1012 1021 1018 1020 1024 1021 1020 1020 1002 1015 1005 1006 1018 1016 1016 1009 1022 1024 1021 1002 1017 1012 1003 1007 1010 1007 1024 1016 1026 1015 1019 1020 1016 1005 1024 1026 1018 1021 1008 1020 998 1020 1010 1010 1019 1015 999 1025 1008 1011 1015 1013 1017 1006 1031 1018 1024 1033 1024 1003 1024 1020 1009 1017 1022 1026 1022 1018 1018 1009 1023 1003 1015 1021 1006 1007 1022 1016 1015 1022 1014 1010 1005 1023 1023 1015 1020 1021 1005 1014 1014 1012 1004 1013 1015 1019 1019 1009 1013 1023 1022 1019 1015 1017 1007 1005 1014 1011 1021 1021 1025 1024 1007 1020 1023 1019 1021 1018 1014 1017 1012 1021 1019 1010 1020 1018 1016 1015 1016 1012 1013 1017 1003 1019 1012 1018 1015 1018 1023 1006 1008 1028 1003 1013 1019 1022 1019 1016 1027 1012 1024 1025 1002 1016 1015 1013 1013 1018 1015 1002 1008 1015 1011 1018 1017 1023 1009 1023 1011 1021 1015 1018 1016 1003 1010 1013 1010 1011 1021 1016 1007 1001 1020 1017 1015 1029 1027 1010 1024 1008 1004 1015 1022 1012 1023 1009 1006 1017 1025 1014 1012 1038 1004 1020 1014 1008 1022 1008 1003 1013 1007 1004 1008 1022 1011 1029 1011 1024 1006 1030 1023 1023 1004 1011 1017 1007 902 1018 1020 1010 1022 1016 1023 1021 1005 1005 1008 1023 1018 1007 1018 1017 1019 1002 1020 1000 1003 1006 999 1008 1015 1023 1015 1001 1011 1021 1029 1011 1011 1018 1002 1014 1024 1024 1001 1025 1032 1014 1022 1023 1020 1001 1014 1014 1020 1025 1015 1007 998 1019 1006 1017 1020 1004 1010 1006 1011 1018 1008 1015 1028 1026 1021 1010 1007 1015 1001 998 1000 1008 1028 1000 1019 1007 1010 1001 1022 1004 1021 1023 1011 1023 1027 1019 1026 1018 1018 1027 1000 1016 1002 1001 1013 1009 1012 1020 1013 1001 999 1006 1017 1026 890 1023 1019 1004 1013 1010 1011 1016 1004 1015 1018 1000 1015 1010 1018 892 1004 1022 1011 1022 1009 1013 1020 1018 1016 895 1029 1000 1022 1000 1036 1010 993 1005 1014 1012 1006 1022 1031 1021 1017 1011 1015 1009 1015 1004 1012 1003 1012 1023 1020 1018 1010 1004 1009 1000 1010 1005 1005 1013 1024 1015 1015 1017 1013 1006 1014 1009 998 997 681 1004 1023 1015 1022 1022 904 1014 1013 1006 1025 1017 1021 1024 1002 1012 1014 1007 1012 1011 679 1019 1005 1001 1023 1033 1022 996 1021 999 1013 1011 1011 688 1001 1016 1020 1019 1029 1000 1008 1014 1021 1022 1010 1025 1005 1020 913 691 1023 1012 997 1018 1000 1002 1024 1027 1002 688 1012 1020 1028 1024 1025 1007 1025 1011 1011 1025 1025 1007 1001 1006 1006 1020 1013 1025 1010 1018 1023 1021 1017 694 1015 1013 1003 1012 1006 1016 1021 1017 1014 1022 1009 1031 1024 912 1015 1004 1024 1009 1012 682 1011 1021 1007 1025 1020 998 993 1014 1014 692 999 1018 1029 1013 1022 1015 1014 1004 1022 677 1020 1017 1030 1013 1025 1007 909 686 1008 1014 1002 1000 994 1013 676 1034 1011 1016 1010 1011 1026 1011 1004 1017 1022 674 1002 1013 1006 1025 1012 1023 1031 1020 1023 1009 1021 1012 1013 1018 1014 1024 1019 1022 1012 1002 995 1016 675 1015 672 995 1015 1018 1016 1018 1017 1008 1027 1011 1003 1004 1005 1006 1017 1012 1016 1008 1013 1016 1020 1006 1003 1020 1028 1008 1016 1019 1022 1011 1008 1006 1010 1031 1014 1012 1022 1006 1007 1024 1005 676 1012 684 1005 1010 674 1033 1023 1001 692 1027 1022 1020 1011 1007 999 1017 1004 1026 672 1008 1020 1015 1013 1020 1016 1012 1022 1030 1022 1021 1009 1001 1004 1013 1013 1015 1026 1024 1007 1006 1014 1025 1021 1014 1009 1024 1026 1004 1021 1021 995 1013 1007 1002 672 1035 1019 1022 1017 1028 1018 1020 1015 991 986 1010 1012 676 672 1015 1016 1005 998 1010 1015 1013 1006 901 1013 1005 1005 1010 1020 998 674 1009 1011 1008 1002 1013 1009 1003 672 993 1005 1018 1008 1004 1023 1016 1029 1011 1011 1000 1020 1009 1021 1006 1005 1018 675 984 1015 1017 1016 1020 1007 1014 1002 1016 907 1018 1012 1003 1015 1008 675 993 675 1016 1033 1015 1036 1008 1028 1016 1028 1015 1001 996 1014 1002 1015 999 674 1021 1018 1019 1021 1020 1027 991 672 1026 1013 1026 1021 1019 1007 1018 1009 1018 998 994 991 982 1009 1019 1019 998 1008 675 1001 1005 1021 1019 1014 1001 990 1009 1026 1018 1009 1013 1022 1024 1017 1015 1028 1010 1027 1023 1025 1003 886 673 1014 1026 1034 1000 1022 1026 1021 1008 1004 1022 1004 1023 1014 1019 1012 996 1009 1010 1009 880 1030 1006 1012 1016 1012 1015 1003 1007 1015 1013 1016 1017 997 676 793 1010 1028 675 1003 1026 1028 1026 1016 1026

Tree=0
num_leaves=8
num_cat=0
split_feature=40 58 43 52 58 52 44
split_gain=3013.56 1416.32 1317.22 1207.68 1077.71 514.025 222.542
threshold=0.31005578497137176 3.7500000000000004 0.33099473196986501 10.500000000000002 9.7500000000000018 4.5000000000000009 0.35423951747439236
decision_type=2 2 2 2 2 2 2
left_child=1 3 4 -1 -2 -3 -4
right_child=2 5 6 -5 -6 -7 -8
leaf_value=-3.3783187142687057 -3.5351814543806315 -3.5027303426190226 -3.5756228011548687 -3.5136517541746475 -3.5697840249351049 -3.5555502092386129 -3.5919548569333344
leaf_weight=315.75291236490011 3526.9267713800073 782.27435347624123 3934.0903128087521 345.82078653760254 6212.3017567042261 1118.8682455308735 4445.3246408477426
leaf_count=11772 131492 29165 146672 12893 231609 41714 165732
internal_value=-3.56258 -3.51184 -3.56976 -3.44888 -3.55725 -3.5338 -3.58429
internal_weight=0 2562.72 18118.6 661.574 9739.23 1901.14 8379.41
internal_count=771049 95544 675505 24665 363101 70879 312404
is_linear=0
shrinkage=1


Tree=1
num_leaves=8
num_cat=0
split_feature=43 58 56 51 50 55 55
split_gain=2766.35 2845.34 1292.86 662.669 481.445 329.75 219.217
threshold=0.31050480288176158 4.7500000000000009 324.50000000000006 1.0000000180025095e-35 127.25000000000001 6.5000000000000009 12.500000000000002
decision_type=2 2 2 2 2 2 2
left_child=1 2 -1 -3 5 -2 -6
right_child=4 3 -4 -5 6 -7 -8
leaf_value=0.13615302956263073 -0.0074022644492827798 -0.00013383094133060356 0.047557271934110745 0.045125829655686178 -0.025125576021376057 0.030622401433980286 -0.0053524287738137902
leaf_weight=604.26662706770003 2532.9266778230667 5644.1292141079903 1294.3195058703423 943.01716593466699 7195.5788370650262 734.69656550511718 1741.5750818699598
leaf_count=21004 95284 209427 46101 34877 271290 27552 65514
internal_value=0 0.0218995 0.0758116 0.00635142 -0.0152693 0.001154 -0.0212734
internal_weight=0 8485.73 1898.59 6587.15 12204.8 3267.62 8937.15
internal_count=771049 311409 67105 244304 459640 122836 336804
is_linear=0
shrinkage=0.05


Tree=2
num_leaves=8
num_cat=0
split_feature=43 58 52 54 53 58 55
split_gain=2513.77 2294.15 1374.35 668.21 347.201 540.652 214.647
threshold=0.31824937608105891 4.7500000000000009 10.500000000000002 1.5000000000000002 4.5000000000000009 13.250000000000002 22.500000000000004
decision_type=2 2 2 2 2 2 2
left_child=1 2 -1 -3 5 -2 -6
right_child=4 3 -4 -5 6 -7 -8
leaf_value=0.096485597711569615 0.015124394176117923 -0.0042357017921773347 0.020939101455994789 0.029446866150581091 -0.030173628803027631 -0.019174453035025404 -0.0024559201821397923
leaf_weight=1256.8469484020025 1715.7998173329979 5712.653169658035 1155.9903230518103 1982.6957610938698 4576.7179824672639 3473.0767852254212 824.45696983672678
leaf_count=40635 65022 211488 40087 73018 175877 133787 31135
internal_value=0 0.0177861 0.0603149 0.00444526 -0.0170712 -0.00783216 -0.0259439
internal_weight=0 10108.2 2412.84 7695.35 10590.1 5188.88 5401.17
internal_count=771049 365228 80722 284506 405821 198809 207012
is_linear=0
shrinkage=0.05


Tree=3
num_leaves=8
num_cat=0
split_feature=43 58 52 51 50 55 44
split_gain=2264.58 1982.86 1471.38 461.765 337.49 250.889 164.647
threshold=0.31824937608105891 6.7500000000000009 7.5000000000000009 1.0000000180025095e-35 132.25000000000003 5.5000000000000009 0.34900399920592945
decision_type=2 2 2 2 2 2 2
left_child=1 2 -1 -3 5 -2 -6
right_child=4 3 -4 -5 6 -7 -8
leaf_value=0.081595015379608712 -0.011028394964136002 -0.0051280545283018154 0.01800418350498385 0.033432759977794969 -0.014376589446675102 0.021562506134000958 -0.02937502740864914
leaf_weight=1619.4739749897271 2274.7203273400664 5689.5554710589349 2075.4586360678077 898.0253446623683 3464.2633342221379 796.44539977237582 3885.9494872335345
leaf_count=50818 87836 211412 71089 31909 134642 29654 153689
internal_value=0 0.0165783 0.0458903 0.000132869 -0.0164934 -0.00257233 -0.022309
internal_weight=0 10282.5 3694.93 6587.58 10421.4 3071.17 7350.21
internal_count=771049 365228 121907 243321 405821 117490 288331
is_linear=0
shrinkage=0.05


Tree=4
num_leaves=8
num_cat=0
split_feature=43 58 52 44 58 54 55
split_gain=2046.31 1819.97 900.953 518.681 448.084 269.067 230.03
threshold=0.30427270609852658 10.750000000000002 7.5000000000000009 0.33703988853128269 12.750000000000002 1.5000000000000002 24.500000000000004
decision_type=2 2 2 2 2 2 2
left_child=1 2 -1 4 -2 -3 -5
right_child=3 5 -4 6 -6 -7 -8
leaf_value=0.071794292027547016 0.013631225875756523 -0.0090360810800613096 0.020574535336727429 -0.024358361728847689 -0.01445729436848521 0.018700565141835511 0.0039876610747526737
leaf_weight=1795.3798233699054 2723.1797863151878 3147.7255945447832 1646.6650379020721 6415.0914504658431 2964.4400221668184 1209.5111295618117 805.28506013005972
leaf_count=54224 99986 117440 55571 253740 115960 43447 30681
internal_value=0 0.0201345 0.047304 -0.0123022 -0.00100874 -0.00133423 -0.0211968
internal_weight=0 7799.28 3442.04 12908 5687.62 4357.24 7220.38
internal_count=771049 270682 109795 500367 215946 160887 284421
is_linear=0
shrinkage=0.05


Tree=5
num_leaves=8
num_cat=0
split_feature=43 58 52 50 53 58 55
split_gain=1866.31 1507.25 888.274 463.107 335.971 482.213 205.733
threshold=0.31824937608105891 5.7500000000000009 10.500000000000002 110.25000000000001 4.5000000000000009 13.250000000000002 12.500000000000002
decision_type=2 2 2 2 2 2 2
left_child=1 2 -1 -3 5 -2 -6
right_child=4 3 -4 -5 6 -7 -8
leaf_value=0.064334974889778615 0.015293196843058117 0.025144370016995155 0.01316711667762905 -0.0053653832050320951 -0.030404999789216999 -0.017406740226837344 -0.0075586639958844515
leaf_weight=1922.3779838811606 1711.4937226567417 1602.9038647860289 1518.4348771926016 5538.5648452509195 3782.6330197211355 3299.2174613848329 1333.501465909183
leaf_count=52978 65022 57621 50844 203785 155113 133787 51899
internal_value=0 0.0145847 0.0417649 0.0014851 -0.0154411 -0.0062367 -0.0244528
internal_weight=0 10582.3 3440.81 7141.47 10126.8 5010.71 5116.13
internal_count=771049 365228 103822 261406 405821 198809 207012
is_linear=0
shrinkage=0.05


Tree=6
num_leaves=8
num_cat=0
split_feature=56 54 51 31 58 55 47
split_gain=1735.27 1042.92 940.043 596.753 531.802 417.495 310.826
threshold=310.50000000000006 1.5000000000000002 1.0000000180025095e-35 0.32793819462431389 6.7500000000000009 5.5000000000000009 0.30822573785556751
decision_type=2 2 2 2 2 2 2
left_child=1 5 3 -2 -3 -1 -4
right_child=2 4 6 -5 -6 -7 -8
leaf_value=0.0024138907936033347 -0.0018364552601010807 0.10203076488552623 0.057122214414031605 -0.022067045630042408 0.037492650941632205 0.047130861370557116 0.012089513429981491
leaf_weight=2452.0670714620501 7435.6972889732569 558.67409406788647 581.55368249677122 7149.9107435643673 747.41608907468617 662.17298984900117 1121.7920376006514
leaf_count=88715 272081 15239 18527 286095 26686 22320 41386
internal_value=0 0.0276707 -0.00764925 -0.0117544 0.0651555 0.011934 0.027489
internal_weight=0 4420.33 16289 14585.6 1306.09 3114.24 1703.35
internal_count=771049 152960 618089 558176 41925 111035 59913
is_linear=0
shrinkage=0.05


Tree=7
num_leaves=8
num_cat=0
split_feature=9 58 50 56 18 51 51
split_gain=1622.5 1334.28 666.379 519.14 456.837 309.382 279.644
threshold=0.43762686916330235 3.7500000000000004 129.25000000000003 353.50000000000006 0.28681157530448215 1.0000000180025095e-35 1.0000000180025095e-35
decision_type=2 2 2 2 2 2 2
left_child=1 3 5 -1 -3 -2 -4
right_child=2 4 6 -5 -6 -7 -8
leaf_value=0.10020579312406641 0.0020506153298908733 0.023785964689538173 -0.018963184091286653 0.034635474158195463 -0.0071679829864857479 0.04245317369808338 0.0088550975429896751
leaf_weight=626.49747130647302 4002.4383686184883 2659.1814079806209 9139.6304163541645 584.76540466398001 2159.0476698838174 536.4676907826215 1001.9089820459485
leaf_count=16198 146405 95562 361878 18543 79244 17448 35771
internal_value=0 0.0217161 -0.0090882 0.0686049 0.0099169 0.00683422 -0.0162143
internal_weight=0 6029.49 14680.4 1211.26 4818.23 4538.91 10141.5
internal_count=771049 209547 561502 34741 174806 163853 397649
is_linear=0
shrinkage=0.05


Tree=8
num_leaves=8
num_cat=0
split_feature=43 58 52 53 58 53 55
split_gain=1521.98 1221.65 1004.47 309.949 424.983 213.991 198.21
threshold=0.31824937608105891 13.750000000000002 5.5000000000000009 4.5000000000000009 13.250000000000002 1.5000000000000002 12.500000000000002
decision_type=2 2 2 2 2 2 2
left_child=1 2 -1 4 -2 -3 -5
right_child=3 5 -4 6 -6 -7 -8
leaf_value=0.05249663843779271 0.014413287157725777 0.00074910458589413367 0.010720255938143998 -0.02930839837034678 -0.016317656879428887 -0.022673603866634594 -0.0065576494910669254
leaf_weight=2461.2993316743523 1733.7462851125747 3607.4185991175473 3463.3164565712214 3603.9169509522617 3200.0738757140934 1335.3313743602484 1304.4793798606843
leaf_count=68682 65022 133698 112551 155113 133787 50297 51899
internal_value=0 0.0127714 0.0280816 -0.0143699 -0.00551806 -0.00558207 -0.0232646
internal_weight=0 10867.4 5924.62 9842.22 4933.82 4942.75 4908.4
internal_count=771049 365228 181233 405821 198809 183995 207012
is_linear=0
shrinkage=0.05


Tree=9
num_leaves=8
num_cat=0
split_feature=50 9 58 43 55 44 30
split_gain=1390.4 891.791 730.602 616.293 491.2 186.663 83.7131
threshold=127.25000000000001 0.45281581568053014 9.2500000000000018 0.33857915528651511 6.5000000000000009 0.30382452403523946 3.5000000000000004
decision_type=2 2 2 2 2 2 2
left_child=1 2 -1 4 -2 -3 -5
right_child=3 5 -4 6 -6 -7 -8
leaf_value=0.061669576662761065 -0.0081230728988637476 0.016998463839472084 0.010274381524694443 -0.026548550672407197 0.018266221448860229 -0.0061371514282499715 -0.0049515361696690421
leaf_weight=1642.3178437910974 7338.8908483702689 1414.0960706826299 1194.6091368962079 4021.9743071459234 2319.9738788977265 2270.0974452905357 505.59721676073968
leaf_count=44957 271231 48524 44025 175418 80973 84457 21464
internal_value=0 0.0189729 0.0400387 -0.00891913 -0.00178336 0.00274514 -0.0241384
internal_weight=0 6521.12 2836.93 14186.4 9658.86 3684.19 4527.57
internal_count=771049 221963 88982 549086 352204 132981 196882
is_linear=0
shrinkage=0.05


Tree=10
num_leaves=8
num_cat=0
split_feature=44 58 18 58 52 53 54
split_gain=1325.03 1243.63 725.022 386.683 416.677 274.897 238.976
threshold=0.32541163745439766 13.750000000000002 0.25897595578919524 4.7500000000000009 20.500000000000004 4.5000000000000009 1.5000000000000002
decision_type=2 2 2 2 2 2 2
left_child=1 2 -1 4 -2 -5 -3
right_child=3 6 -4 5 -6 -7 -8
leaf_value=0.050249115183382279 0.020649519275600516 -0.01093151658181425 0.01297334216658199 -0.010338683368089734 -0.018006962300976231 -0.030054376313430178 0.012708430506673968
leaf_weight=2313.5098439976573 1475.5145998876542 4049.2176559232175 2991.4891024883837 3785.6567694228142 1319.5899491161108 3318.9846829436719 1451.5008947458118
leaf_count=66249 49171 160601 96887 150395 53596 140846 53304
internal_value=0 0.0119656 0.0292357 -0.0133545 0.00239959 -0.0195519 -0.00469235
internal_weight=0 10805.7 5305 9899.75 2795.1 7104.64 5500.72
internal_count=771049 377041 163136 394008 102767 291241 213905
is_linear=0
shrinkage=0.05


Tree=11
num_leaves=8
num_cat=0
split_feature=51 56 47 44 54 58 55
split_gain=1281.47 870.4 508.885 469.769 424.28 256.544 112.123
threshold=1.0000000180025095e-35 317.50000000000006 0.30733289133530672 0.33930061103832526 1.5000000000000002 4.7500000000000009 22.500000000000004
decision_type=2 2 2 2 2 2 2
left_child=1 4 5 -3 -1 -2 -4
right_child=2 3 6 -5 -6 -7 -8
leaf_value=0.0050551489950657526 0.09525213691378176 -0.00307990974946847 0.010117003472451787 -0.021695801962074216 0.039954524219143056 0.04180716286795344 0.049786657946753785
leaf_weight=3018.6780072599649 363.97342849895358 8252.8675851263106 1297.3518660049886 5749.4914603382349 1223.2048491220921 591.77759142406285 205.65110018663108
leaf_count=105127 8277 306431 45512 245522 35370 17743 7067
internal_value=0 -0.00471385 0.0337313 -0.0107248 0.0151259 0.0622386 0.0155744
internal_weight=0 18244.2 2458.75 14002.4 4241.88 955.751 1503
internal_count=771049 692450 78599 551953 140497 26020 52579
is_linear=0
shrinkage=0.05


Tree=12
num_leaves=8
num_cat=0
split_feature=9 58 52 50 53 55 53
split_gain=1188.55 858.56 567.405 515.631 345.384 258.094 202.798
threshold=0.43762686916330235 5.7500000000000009 13.500000000000002 138.25000000000003 3.5000000000000004 7.5000000000000009 4.5000000000000009
decision_type=2 2 2 2 2 2 2
left_child=1 2 -1 5 -3 -2 -5
right_child=3 4 -4 6 -6 -7 -8
leaf_value=0.058221474266002382 -0.0010625888000023451 0.013987573350768535 0.0086573093590408597 -0.0087881473621750448 -0.017462094446883056 0.027177076165326282 -0.023907462275652786
leaf_weight=1618.5633960217237 4346.1164203230292 2488.2455221414566 897.98615736886859 5064.748371841386 1343.5416859071702 993.15247642807662 3947.4548060763627
leaf_count=38390 158018 90376 29249 199836 51532 34006 169642
internal_value=0 0.0178627 0.0405458 -0.00811826 0.00295868 0.00419435 -0.0154125
internal_weight=0 6348.34 2516.55 14351.5 3831.79 5339.27 9012.2
internal_count=771049 209547 67639 561502 141908 192024 369478
is_linear=0
shrinkage=0.05


Tree=13
num_leaves=8
num_cat=0
split_feature=43 58 52 53 44 58 55
split_gain=1118.96 858.232 936.453 253.575 184.702 145.81 98.9633
threshold=0.33141412550018157 13.750000000000002 7.5000000000000009 1.5000000000000002 0.35423951747439236 5.7500000000000009 50.500000000000007
decision_type=2 2 2 2 2 2 2
left_child=1 2 -1 -3 5 -2 -6
right_child=4 3 -4 -5 6 -7 -8
leaf_value=0.036678628848835687 0.0096894117889812191 0.00059707759807899161 0.0020057168866178077 -0.022163368262236142 -0.025968390103057501 -0.013885887769614431 0.012343669424596929
leaf_weight=3840.3243241235614 873.66502028331161 4023.7145760376006 3949.856570309028 1757.5268505830318 3451.4478744845837 2622.6681371815503 176.64453274570405
leaf_count=101709 34638 151464 133502 71528 158488 112347 7373
internal_value=0 0.00827023 0.0191009 -0.00632485 -0.0161981 -0.0079938 -0.0241002
internal_weight=0 13571.4 7790.18 5781.24 7124.43 3496.33 3628.09
internal_count=771049 458203 235211 222992 312846 146985 165861
is_linear=0
shrinkage=0.05


Tree=14
num_leaves=8
num_cat=0
split_feature=51 44 58 47 58 51 12
split_gain=1075.09 735.841 597.318 367.406 228.438 152.341 116.954
threshold=1.0000000180025095e-35 0.32929361384201489 9.7500000000000018 0.30231195880395317 3.7500000000000004 5.5000000000000009 0.35928751598248104
decision_type=2 2 2 2 2 2 2
left_child=1 2 -1 5 -3 -2 -5
right_child=3 4 -4 6 -6 -7 -8
leaf_value=0.01862245727816516 0.047991520095195271 0.0017264867762432487 -0.0059705861386503889 0.026900734712064941 -0.019783860206007333 0.11013468471689614 -0.00023082689510137871
leaf_weight=4316.3259423337877 785.4382849317044 1522.0067745465785 5766.2865582406521 1008.5283457227051 6524.5754124298692 112.82012945786119 654.81548509187996
leaf_count=125965 19562 57750 227159 32619 281576 2762 23656
internal_value=0 -0.00444046 0.0045584 0.0301582 -0.0157155 0.0559104 0.016226
internal_weight=0 18129.2 10082.6 2561.6 8046.58 898.258 1663.34
internal_count=771049 692450 353124 78599 339326 22324 56275
is_linear=0
shrinkage=0.05


Tree=15
num_leaves=8
num_cat=0
split_feature=9 58 57 53 50 37 55
split_gain=997.748 799.06 517.456 441.91 335.888 174.081 155.839
threshold=0.45143046717694119 5.7500000000000009 247.50000000000003 2.5000000000000004 130.25000000000003 0.33198620721831468 5.5000000000000009
decision_type=2 2 2 2 2 2 2
left_child=1 2 -1 -3 6 -6 -2
right_child=4 3 -4 -5 5 -7 -8
leaf_value=-0.0019162620902472363 -0.0028672365068319102 0.012725603065542004 0.043081190022713198 -0.016396599483756019 -0.019672386313422167 -0.002428280728134528 0.021229558243547289
leaf_weight=854.99529462121427 3123.0466538257897 3147.2282150797546 2525.9866961222142 2221.0717991925776 6026.934318440035 1933.2521690614522 853.49649370461702
leaf_count=24892 114022 114914 63881 87841 257126 79673 28700
internal_value=0 0.0126686 0.0317049 0.00067582 -0.00955773 -0.0154852 0.00230876
internal_weight=0 8749.28 3380.98 5368.3 11936.7 7960.19 3976.54
internal_count=771049 291528 88773 202755 479521 336799 142722
is_linear=0
shrinkage=0.05


Tree=16
num_leaves=8
num_cat=0
split_feature=44 58 51 55 53 53 54
split_gain=945.82 843.532 446.791 435.213 290.323 283.122 162.948
threshold=0.30881923754279778 18.750000000000004 1.5000000000000002 6.5000000000000009 4.5000000000000009 9.5000000000000018 1.5000000000000002
decision_type=2 2 2 2 2 2 2
left_child=1 2 -1 4 -2 -5 -3
right_child=3 6 -4 5 -6 -7 -8
leaf_value=0.021372475044056871 -0.0072936995429929612 -0.010802552795287969 0.075362120851635711 0.01751161205233687 -0.026423165440661919 -0.010419832989996341 0.011332507146077309
leaf_weight=4488.3284636568278 4295.6402405574918 2990.8208141047508 418.23681372404099 1977.9240703824908 3685.5250577796251 1674.3987258505076 1150.502555122599
leaf_count=130092 168321 121168 9723 70593 162665 67075 41412
internal_value=0 0.0119653 0.025989 -0.00958798 -0.0161295 0.00470716 -0.00465195
internal_weight=0 9047.89 4906.57 11633.5 7981.17 3652.32 4141.32
internal_count=771049 302395 139815 468654 330986 137668 162580
is_linear=0
shrinkage=0.05


Tree=17
num_leaves=8
num_cat=0
split_feature=50 9 30 58 18 47 12
split_gain=910.411 509.699 433.098 397.363 341.34 162.346 132.282
threshold=130.25000000000003 0.45662570428099669 2.5000000000000004 3.7500000000000004 0.2905638453195804 0.32695330540951878 0.37142748437180534
decision_type=2 2 2 2 2 2 2
left_child=1 3 4 -1 -2 -4 -3
right_child=2 6 5 -5 -6 -7 -8
leaf_value=0.05533974956800615 -0.0025714480182820426 0.0077578785926740281 0.026584177217651779 0.017536114642301773 -0.019919690004758784 -0.0014939583681855561 -0.012364259131121783
leaf_weight=949.23390000499785 5396.262071615085 2482.5245283991098 1079.7866044137627 2595.6064168438315 5974.6135451085865 982.88057069480419 1215.997511934489
leaf_count=18610 208083 86273 34448 81834 253321 41463 47017
internal_value=0 0.0141268 -0.007864 0.0276719 -0.0116877 0.0132104 0.00114058
internal_weight=0 7243.36 13433.5 3544.84 11370.9 2062.67 3698.52
internal_count=771049 233734 537315 100444 461404 75911 133290
is_linear=0
shrinkage=0.05


Tree=18
num_leaves=8
num_cat=0
split_feature=43 50 30 37 53 55 58
split_gain=863.567 660.58 403.414 289.41 126.73 139.721 118.518
threshold=0.33734604675209162 142.25000000000003 3.5000000000000004 0.25897237458612082 1.5000000000000002 50.500000000000007 20.250000000000004
decision_type=2 2 2 2 2 2 2
left_child=1 2 -1 -3 6 -6 -2
right_child=4 3 -4 -5 5 -7 -8
leaf_value=0.013509171324556006 0.0099521927881266632 -0.0088198992279033724 0.05125109556414327 0.012208554895050051 -0.023362147726005492 0.018562683137489756 -0.016041090232876254
leaf_weight=5711.4078246839345 745.97477179765701 6011.975006217137 807.4883440118283 2246.9285573195666 3877.4865068420768 208.74541586264968 1061.2782541234046
leaf_count=173156 29812 226894 21687 76653 185690 8673 48484
internal_value=0 0.00629388 0.0181914 -0.00309808 -0.0163411 -0.0212164 -0.00531235
internal_weight=0 14777.8 6518.9 8258.9 5893.48 4086.23 1807.25
internal_count=771049 498390 194843 303547 272659 194363 78296
is_linear=0
shrinkage=0.05


Tree=19
num_leaves=8
num_cat=0
split_feature=51 18 58 55 12 58 37
split_gain=829.255 608.814 669.124 345.62 245.032 173.324 48.0901
threshold=1.0000000180025095e-35 0.2905638453195804 15.750000000000002 8.5000000000000018 0.35221365524448289 4.2500000000000009 0.21981346813826047
decision_type=2 2 2 2 2 2 2
left_child=1 2 -1 -3 5 -2 -6
right_child=4 3 -4 -5 6 -7 -8
leaf_value=0.019950644320832222 0.057365012890463078 -0.019583782624714188 -0.0073065892252372547 0.0022600958824792331 -0.0079268824728762708 0.024924586644216352 0.015627783374783204
leaf_weight=4119.5049445386976 624.84490610286593 6347.3687818236649 4963.2126083076 2533.2417678292841 438.02513343095779 1213.1368107628077 426.97976961545646
leaf_count=122468 13012 268212 206124 95646 15466 35982 14139
internal_value=0 -0.0040448 0.00505688 -0.0133531 0.0256554 0.0359783 0.00370468
internal_weight=0 17963.3 9082.72 8880.61 2702.99 1837.98 865.005
internal_count=771049 692450 328592 363858 78599 48994 29605
is_linear=0
shrinkage=0.05


Tree=20
num_leaves=8
num_cat=0
split_feature=54 54 55 30 53 58 39
split_gain=806.96 1039.89 638.922 404.808 385.622 174.516 114.037
threshold=1.5000000000000002 2.5000000000000004 4.5000000000000009 9.5000000000000018 2.5000000000000004 9.2500000000000018 0.34627703049911834
decision_type=2 2 2 2 2 2 2
left_child=2 5 4 -4 -1 -2 -3
right_child=1 6 3 -5 -6 -7 -8
leaf_value=-0.0039955608503287349 0.055256423909244304 -0.0060500355427525821 0.0043056837735745935 0.050461236309936153 -0.022947623989936588 0.027503447182383945 0.049104408595806476
leaf_weight=6040.9805949609727 1209.361751832068 2508.9612572640181 4371.1802443340421 532.01150731928647 4829.820943582803 1071.9374246634543 96.358672605827451
leaf_count=229320 24541 93389 159838 16542 207160 36625 3634
internal_value=0 0.0175924 -0.00565929 0.00932297 -0.0124172 0.0422336 -0.00399207
internal_weight=0 4886.62 15774 4903.19 10870.8 2281.3 2605.32
internal_count=771049 158189 612860 176380 436480 61166 97023
is_linear=0
shrinkage=0.05


Tree=21
num_leaves=8
num_cat=0
split_feature=12 58 53 14 30 53 55
split_gain=766.639 758.613 603.94 275.005 169.144 135.013 57.051
threshold=0.35928751598248104 13.750000000000002 5.5000000000000009 0.34415966801127407 2.5000000000000004 3.5000000000000004 13.500000000000002
decision_type=2 2 2 2 2 2 2
left_child=1 2 -1 -3 5 -2 -6
right_child=4 3 -4 -5 6 -7 -8
leaf_value=0.02883920142484114 -0.0093207741290337581 0.0020699700811763764 0.00056156317591244613 -0.019137255005003871 -0.0049423608479056726 -0.025089867929919907 0.019008224569856902
leaf_weight=4475.6706572175026 2507.1134732980281 3838.4160241149366 3265.6422951873392 2539.205252468586 672.59790757484734 2963.6247228756547 393.18425229564309
leaf_count=117601 99793 149795 111425 114253 26658 137604 13920
internal_value=0 0.0063933 0.016912 -0.00637521 -0.0143167 -0.0178663 0.00390293
internal_weight=0 14118.9 7741.31 6377.62 6536.52 5470.74 1065.78
internal_count=771049 493074 229026 264048 277975 237397 40578
is_linear=0
shrinkage=0.05


Tree=22
num_leaves=8
num_cat=0
split_feature=44 58 58 52 51 53 54
split_gain=717.958 596.963 362.308 471.129 310.596 174.86 106.076
threshold=0.30881923754279778 23.750000000000004 9.7500000000000018 9.5000000000000018 1.5000000000000002 3.5000000000000004 1.5000000000000002
decision_type=2 2 2 2 2 2 2
left_child=1 4 3 -2 -1 -4 -3
right_child=2 6 5 -5 -6 -7 -8
leaf_value=0.01622048819058072 0.016607611038963157 -0.011996539144206902 -0.010537283936271536 -0.011464116056990277 0.056456985126743756 -0.029331693619878398 0.0074227280483610443
leaf_weight=5334.0479425862432 2439.636053333059 2445.1675926633179 2905.6570485271513 3855.2330558020622 526.28770811110735 2157.1615532897413 986.16094443388283
leaf_count=154677 74278 101762 125825 159449 11040 109102 34916
internal_value=0 0.0101465 -0.00859307 -0.000583743 0.0198429 -0.0185494 -0.00641492
internal_weight=0 9291.66 11357.7 6294.87 5860.34 5062.82 3431.33
internal_count=771049 302395 468654 233727 165717 234927 136678
is_linear=0
shrinkage=0.05


Tree=23
num_leaves=8
num_cat=0
split_feature=18 58 58 51 52 54 52
split_gain=691.543 735.115 404.098 288.615 247.392 184.058 156.764
threshold=0.2905638453195804 15.750000000000002 3.7500000000000004 1.5000000000000002 22.500000000000004 1.5000000000000002 13.500000000000002
decision_type=2 2 2 2 2 2 2
left_child=1 3 4 -1 -2 -3 -4
right_child=2 5 6 -5 -6 -7 -8
leaf_value=0.018510725336165636 0.021505007373668339 -0.0097984945283813487 -0.01032825363548278 0.06019206164631094 -0.010262819156469228 0.010943978335123946 -0.025716765750727684
leaf_weight=4744.2015923205763 1425.2758786622435 3937.9909895900637 5085.0918179489672 454.48828676715493 1073.7533379066736 1467.1657274477184 2454.445170740597
leaf_count=132636 40756 170204 209670 9036 44275 53243 111229
internal_value=0 0.00874367 -0.0095656 0.0221655 0.00785674 -0.00416721 -0.0153406
internal_weight=0 10603.8 10038.6 5198.69 2499.03 5405.16 7539.54
internal_count=771049 365119 405930 141672 85031 223447 320899
is_linear=0
shrinkage=0.05


Tree=24
num_leaves=8
num_cat=0
split_feature=12 58 5 14 55 4 57
split_gain=658.722 590.581 528.777 199.724 182.426 174.38 122.913
threshold=0.351270223370025 17.750000000000004 1.5000000000000002 0.34415966801127407 24.500000000000004 2.5000000000000004 437.50000000000006
decision_type=2 2 2 2 2 2 2
left_child=1 2 -1 -3 5 -2 -6
right_child=4 3 -4 -5 6 -7 -8
leaf_value=0.024175138419914279 -0.0083745196667949391 0.0003174792026610132 -0.0026482270048907362 -0.020499115803250433 -0.00027799973636236824 -0.025071154401365838 0.046264981435019142
leaf_weight=5311.7757542645559 4020.4017940228805 3384.177328016609 2808.3656059447676 1746.1051569888368 621.8284213822335 2559.9632601290941 182.76709987781942
leaf_count=145571 166381 133263 94402 82101 23992 118963 6376
internal_value=0 0.00650933 0.014899 -0.00677012 -0.012125 -0.0148728 0.0103387
internal_weight=0 13250.4 8120.14 5130.28 7384.96 6580.37 804.596
internal_count=771049 455337 239973 215364 315712 285344 30368
is_linear=0
shrinkage=0.05


Tree=25
num_leaves=8
num_cat=0
split_feature=50 9 58 43 37 55 55
split_gain=621.014 346.984 334.844 294.275 258.575 82.4331 47.0744
threshold=138.25000000000003 0.47805599528719828 4.7500000000000009 0.3465339635766157 0.25897237458612082 75.500000000000014 15.500000000000002
decision_type=2 2 2 2 2 2 2
left_child=1 2 -1 4 -2 -3 -5
right_child=3 5 -4 6 -6 -7 -8
leaf_value=0.033889050350463933 -0.008332692999475538 -0.0046904333095428245 0.0083611197348744167 -0.024657708733299488 0.01012959203046441 0.086598994198615498 -0.0081494144655764947
leaf_weight=2000.5271238200366 6712.0420502116904 2840.5123000759631 3588.6441152393818 2287.5021639792249 2642.3219783036038 23.947614770382643 533.86510955169797
leaf_count=39589 263857 107226 120935 123864 90028 769 24781
internal_value=0 0.0102519 0.0175027 -0.00738704 -0.00311714 -0.00389728 -0.021538
internal_weight=0 8453.63 5589.17 12175.7 9354.36 2864.46 2821.37
internal_count=771049 268519 160524 502530 353885 107995 148645
is_linear=0
shrinkage=0.05


Tree=26
num_leaves=8
num_cat=0
split_feature=54 54 55 58 53 51 39
split_gain=600.819 737.1 541.117 335.347 327.664 113.761 99.5096
threshold=1.5000000000000002 2.5000000000000004 4.5000000000000009 3.7500000000000004 2.5000000000000004 4.5000000000000009 0.34627703049911834
decision_type=2 2 2 2 2 2 2
left_child=2 5 4 -4 -1 -2 -3
right_child=1 6 3 -5 -6 -7 -8
leaf_value=-0.0037168456224026718 0.031735911932905814 -0.0058242615445197633 0.027740505961302855 -0.0002361920649706148 -0.021461910328713113 0.079999961793796204 0.044622306755752371
leaf_weight=6000.0091842822731 2351.8694537663832 2494.3644333137199 1565.1460609845817 3388.8053518002853 4592.4056591391563 128.33385016210377 100.74759757425636
leaf_count=229320 58832 93389 47960 128420 207160 2334 3634
internal_value=0 0.0147792 -0.00503256 0.00860655 -0.0114116 0.0342645 -0.00384939
internal_weight=0 5075.32 15546.4 4953.95 10592.4 2480.2 2595.11
internal_count=771049 158189 612860 176380 436480 61166 97023
is_linear=0
shrinkage=0.05


Tree=27
num_leaves=8
num_cat=0
split_feature=18 58 55 19 58 14 56
split_gain=580.575 555.552 331.877 269.203 188.229 146.578 138.089
threshold=0.2905638453195804 17.750000000000004 8.5000000000000018 0.25842804425798921 2.2500000000000004 0.37652793902915921 353.50000000000006
decision_type=2 2 2 2 2 2 2
left_child=1 3 6 -1 -4 -3 -2
right_child=2 5 4 -5 -6 -7 -8
leaf_value=0.02672799677912386 -0.0070392490153625437 0.00070549913415635709 0.029474800840156162 0.0043177117010310398 -0.0014484942488703285 -0.018926341743545558 -0.02137237824686752
leaf_weight=3634.8551886510104 3010.6489455830306 3701.4829209567979 615.03811542317271 2122.9613585704938 2445.6596849402413 1278.4125326247886 3806.239049484022
leaf_count=92315 118031 147674 19888 63837 90103 61293 177908
internal_value=0 0.00789175 -0.00890369 0.0184673 0.00477305 -0.00433707 -0.0150442
internal_weight=0 10737.7 9877.59 5757.82 3060.7 4979.9 6816.89
internal_count=771049 365119 405930 156152 109991 208967 295939
is_linear=0
shrinkage=0.05


Tree=28
num_leaves=8
num_cat=0
split_feature=51 44 55 44 58 40 58
split_gain=562.593 429.658 342.275 153.608 118.393 117.015 82.3112
threshold=1.0000000180025095e-35 0.33930061103832526 6.5000000000000009 0.27179339375979578 13.250000000000002 0.38767726018950549 4.7500000000000009
decision_type=2 2 2 2 2 2 2
left_child=1 2 -1 5 -3 -2 -5
right_child=3 4 -4 6 -6 -7 -8
leaf_value=-0.0023828861888253732 0.050753963405689585 -0.0083893003175470413 0.018330901263330274 0.024894409826853398 -0.022432536398928338 0.0098614825654409557 0.0045716785783627588
leaf_weight=8911.364697938785 580.42487025819719 3729.5183366024867 2568.2647961247712 847.93366347067058 2512.8620367888361 251.04457982257009 1207.4651378560811
leaf_count=323612 11604 159601 76021 20780 133216 7283 38932
internal_value=0 -0.00348863 0.00225247 0.0203103 -0.0140451 0.038434 0.0129636
internal_weight=0 17722 11479.6 2886.87 6242.38 831.469 2055.4
internal_count=771049 692450 399633 78599 292817 18887 59712
is_linear=0
shrinkage=0.05


Tree=29
num_leaves=8
num_cat=0
split_feature=12 58 53 55 52 14 57
split_gain=541.993 449.174 416.303 179.089 188.354 141.784 118.368
threshold=0.34293825429482977 18.250000000000004 5.5000000000000009 23.500000000000004 4.5000000000000009 0.34415966801127407 437.50000000000006
decision_type=2 2 2 2 2 2 2
left_child=1 2 -1 4 -2 -3 -5
right_child=3 5 -4 6 -6 -7 -8
leaf_value=0.022931864382156542 -0.0028102654673054644 9.5850898749185587e-05 -0.001232778769377255 0.00014028838728548016 -0.019183650722216401 -0.018856720217512949 0.040210271259509198
leaf_weight=4809.8785942960531 2911.3207237366587 3184.7788392258808 2831.1047654282302 766.14650732278824 4428.4196373168379 1428.8298984337598 241.68692136183381
leaf_count=121685 116906 125852 95670 28289 204051 70805 7791
internal_value=0 0.00654187 0.0139795 -0.00997664 -0.0126904 -0.00577656 0.00977974
internal_weight=0 12254.6 7640.98 8347.57 7339.74 4613.61 1007.83
internal_count=771049 414012 217355 357037 320957 196657 36080
is_linear=0
shrinkage=0.05


Tree=30
num_leaves=8
num_cat=0
split_feature=15 58 58 19 52 52 54
split_gain=518.724 479.814 331.672 323.282 243.655 142.159 118.339
threshold=0.30416744319408456 23.750000000000004 3.7500000000000004 0.20564855162658682 28.500000000000004 13.500000000000002 1.0000000180025095e-35
decision_type=2 2 2 2 2 2 2
left_child=1 3 4 -1 -2 -4 -3
right_child=2 6 5 -5 -6 -7 -8
leaf_value=0.023918313015176666 0.017912998519711912 -0.015613977229946507 -0.0092249466666698369 0.0017837728925673953 -0.015176775842404292 -0.024339192774569789 0.001753575413985922
leaf_weight=4224.1725599169731 1696.7844659108669 1887.9033620776609 4942.6877051508054 2706.4406851250678 826.56691787485033 2270.9801109908149 2039.8310909895226
leaf_count=117556 47745 85530 204324 91192 35323 107789 81590
internal_value=0 0.00736452 -0.00852851 0.0152762 0.00707216 -0.0139859 -0.00659616
internal_weight=0 10858.3 9737.02 6930.61 2523.35 7213.67 3927.73
internal_count=771049 375868 395181 208748 83068 312113 167120
is_linear=0
shrinkage=0.05


Tree=31
num_leaves=8
num_cat=0
split_feature=37 54 54 46 56 58 57
split_gain=495.505 437.989 397.48 246.918 239.664 176.754 129.475
threshold=1.0000000180025095e-35 1.5000000000000002 2.5000000000000004 10.500000000000002 353.50000000000006 2.7500000000000004 300.50000000000006
decision_type=2 2 2 2 2 2 2
left_child=1 3 -3 -1 5 -2 -6
right_child=4 2 -4 -5 6 -7 -8
leaf_value=-0.011809372518190213 0.051995960731308771 0.026130243068769918 -0.0065931203317196587 0.023207551338907118 -0.011138489569722687 0.017264072500087831 0.010097518375742479
leaf_weight=10415.39335889183 432.47141385264695 1853.8032763265073 1856.48051664792 528.08517243806273 1116.859633310698 2381.1405543163419 2004.5018610619009
leaf_count=435618 8532 45909 71405 20441 43148 74378 71618
internal_value=0 -0.00508452 0.00975939 -0.0101176 0.0120391 0.0226192 0.00249789
internal_weight=0 14653.8 3710.28 10943.5 5934.97 2813.61 3121.36
internal_count=771049 573373 117314 456059 197676 82910 114766
is_linear=0
shrinkage=0.05


Tree=32
num_leaves=8
num_cat=0
split_feature=12 55 54 58 30 53 8
split_gain=477.682 389.533 334.296 264.372 130.344 109.019 47.8118
threshold=0.35928751598248104 4.5000000000000009 1.5000000000000002 2.2500000000000004 2.5000000000000004 3.5000000000000004 1.0000000180025095e-35
decision_type=2 2 2 2 2 2 2
left_child=1 2 -1 -3 5 -2 -6
right_child=4 3 -4 -5 6 -7 -8
leaf_value=-0.0064331709269366977 -0.0074393142088013831 0.0452877253617378 0.013428495384346435 0.011902474703558954 0.009270420804256805 -0.022129222274006988 -0.017638320124734902
leaf_weight=7133.1854745475575 2399.7304965844378 709.34206400625408 3012.4132814751938 3598.3613880947232 856.93910658825189 2668.8356564063579 203.44396819546819
leaf_count=279670 99793 15873 86817 110714 31977 137604 8601
internal_value=0 0.00481388 -0.000535138 0.0174092 -0.0118425 -0.0151771 0.00409598
internal_weight=0 14453.3 10145.6 4307.7 6128.95 5068.57 1060.38
internal_count=771049 493074 366487 126587 277975 237397 40578
is_linear=0
shrinkage=0.05


Tree=33
num_leaves=8
num_cat=0
split_feature=4 58 55 57 53 58 56
split_gain=467.88 532.443 257.575 232.621 226.971 128.152 96.5866
threshold=1.5000000000000002 9.2500000000000018 8.5000000000000018 247.50000000000003 2.5000000000000004 2.2500000000000004 352.50000000000006
decision_type=2 2 2 2 2 2 2
left_child=1 3 6 -1 -3 -4 -2
right_child=2 4 5 -5 -6 -7 -8
leaf_value=-0.0065998573879547861 -0.0076647762227872052 0.0020840055699980751 0.02313011659819985 0.022510434322054722 -0.018129159217169934 -0.0032044193460597625 -0.021887862993781482
leaf_weight=812.19931904505938 1926.7863766178489 5858.2477994188666 599.10549230128527 4411.5513718696311 1819.289968107827 2006.1635754257441 3142.5595626020804
leaf_count=21747 73909 233271 18563 108195 90253 74079 151032
internal_value=0 0.00567123 -0.00991883 0.0179839 -0.0027075 0.002858 -0.0164844
internal_weight=0 12901.3 7674.62 5223.75 7677.54 2605.27 5069.35
internal_count=771049 453466 317583 129942 323524 92642 224941
is_linear=0
shrinkage=0.05


Tree=34
num_leaves=8
num_cat=0
split_feature=9 44 58 53 10 55 58
split_gain=447.172 271.452 197.059 192.5 182.434 171.993 80.8267
threshold=0.45143046717694119 0.30031513134027382 9.7500000000000018 9.5000000000000018 1.0000000180025095e-35 6.5000000000000009 2.2500000000000004
decision_type=2 2 2 2 2 2 2
left_child=1 4 -3 5 -1 -2 -5
right_child=3 2 -4 6 -6 -7 -8
leaf_value=-0.0016285879554282338 -0.0066821543583087317 0.0075304346150748842 -0.013294649731026007 -0.0016501163207266448 0.022202097874669292 0.011558346874612017 -0.023804096566032752
leaf_weight=1043.2042084038258 7143.7051703594625 3012.8880162723362 1822.1031381478533 521.11762365233153 3486.5262669203803 1576.7678305068985 1962.8021871242672
leaf_count=35785 297922 85460 82658 22729 87625 55285 103585
internal_value=0 0.00792125 -0.000318783 -0.00688184 0.0167147 -0.0033831 -0.0191588
internal_weight=0 9364.72 4834.99 11204.4 4529.73 8720.47 2483.92
internal_count=771049 291528 168118 479521 123410 353207 126314
is_linear=0
shrinkage=0.05


Tree=35
num_leaves=8
num_cat=0
split_feature=51 31 50 18 30 40 55
split_gain=437.044 345.091 235.309 119.395 94.8026 80.697 58.7268
threshold=1.0000000180025095e-35 0.35506716961968399 126.25000000000001 1.0000000180025095e-35 10.500000000000002 0.39789901567840408 22.500000000000004
decision_type=2 2 2 2 2 2 2
left_child=1 2 -1 5 -3 -2 -5
right_child=3 4 -4 6 -6 -7 -8
leaf_value=0.0096428476586173529 0.034815200973767869 -0.017125163519282987 -0.0041977649951486984 0.003883676071457301 0.016133863482648694 0.0055578287604199162 0.028788055409446761
leaf_weight=4839.5169686656445 1069.7431902093813 4107.8584082862362 8399.1443617027253 1330.7876361496747 225.28582603763789 302.74606433324516 287.04829619266093
leaf_count=140472 22741 205561 337918 39511 8499 9002 7345
internal_value=0 -0.00314688 0.000862147 0.0175276 -0.0153927 0.0283703 0.00831745
internal_weight=0 17571.8 13238.7 2990.33 4333.14 1372.49 1617.84
internal_count=771049 692450 478390 78599 214060 31743 46856
is_linear=0
shrinkage=0.05


Tree=36
num_leaves=8
num_cat=0
split_feature=15 58 58 5 57 52 54
split_gain=420.147 368.41 277.108 258.31 238.852 110.032 97.4506
threshold=0.30416744319408456 23.750000000000004 5.7500000000000009 1.5000000000000002 259.50000000000006 10.500000000000002 1.0000000180025095e-35
decision_type=2 2 2 2 2 2 2
left_child=1 3 4 -1 -2 -4 -3
right_child=2 6 5 -5 -6 -7 -8
leaf_value=0.018716921929995009 -0.015043175113701016 -0.014296064160198558 -0.010700940994709234 -0.003382393687311744 0.0094136684954522019 -0.026436102282087599 0.001601735479063415
leaf_weight=5369.6532588489354 1497.2741508884355 1822.2542453110218 3432.9972534691915 1753.8029295941815 2990.7837893608958 1643.5553855793551 2044.8667064839974
leaf_count=147790 59857 85530 154383 60958 94844 86097 81590
internal_value=0 0.00653211 -0.00779854 0.0132763 0.00125302 -0.0157995 -0.00589134
internal_weight=0 10990.6 9564.61 7123.46 4488.06 5076.55 3867.12
internal_count=771049 375868 395181 208748 154701 240480 167120
is_linear=0
shrinkage=0.05


Tree=37
num_leaves=8
num_cat=0
split_feature=37 53 54 57 58 58 8
split_gain=395.828 337.768 217.761 194.314 237.2 150.207 80.6962
threshold=0.25614314096714424 3.5000000000000004 1.0000000180025095e-35 305.50000000000006 3.7500000000000004 5.7500000000000009 1.0000000180025095e-35
decision_type=2 2 2 2 2 2 2
left_child=1 2 -1 6 -5 -3 -2
right_child=3 5 -4 4 -6 -7 -8
leaf_value=-0.0068222083098613308 0.0015297760379691862 -0.0055959279871206245 0.0087329320920342887 0.036668786317751521 0.0095467850001262188 -0.022065907226700487 -0.026399326860734963
leaf_weight=4257.9022123971954 1318.4460326237604 2628.4688618127257 4768.8367005232722 1070.7784421537071 3257.4487220561132 2925.8340231068432 320.71564499009401
leaf_count=165946 42676 97568 157557 22620 115617 155173 13892
internal_value=0 -0.00457398 0.00139565 0.0107121 0.0162635 -0.0142742 -0.00394755
internal_weight=0 14581 9026.74 5967.39 4328.23 5554.3 1639.16
internal_count=771049 576244 323503 194805 138237 252741 56568
is_linear=0
shrinkage=0.05


Tree=38
num_leaves=8
num_cat=0
split_feature=9 19 58 58 56 55 55
split_gain=385.218 333.995 326.755 249.198 83.5374 77.5456 57.0243
threshold=0.4870146693024891 0.25306492402272052 22.250000000000004 4.2500000000000009 338.50000000000006 84.500000000000014 12.500000000000002
decision_type=2 2 2 2 2 2 2
left_child=1 2 -1 -3 5 -2 -6
right_child=4 3 -4 -5 6 -7 -8
leaf_value=0.016902043558946117 -0.0033818262831510253 0.0076301682102981432 -0.0034986367731778493 -0.013350845211415403 -0.018432559201378016 0.13816160878695824 -0.0027265584704555105
leaf_weight=5997.5496331779286 1906.2443512594327 2334.0609084200114 2916.9442416736856 3592.1435578847304 3074.6665381062776 8.7261872589588148 712.11245378479362
leaf_count=165981 72038 64840 125192 155166 157414 230 30188
internal_value=0 0.00411168 0.010227 -0.00508749 -0.0111776 -0.00266506 -0.0154805
internal_weight=0 14840.7 8914.49 5926.2 5701.75 1914.97 3786.78
internal_count=771049 511179 291173 220006 259870 72268 187602
is_linear=0
shrinkage=0.05


Tree=39
num_leaves=8
num_cat=0
split_feature=4 58 14 57 55 10 57
split_gain=381.67 428.801 223.879 214.102 190.871 84.1579 64.8966
threshold=2.5000000000000004 9.2500000000000018 0.3837173529649443 247.50000000000003 9.5000000000000018 0.30811065786545649 318.50000000000006
decision_type=2 2 2 2 2 2 2
left_child=1 3 -3 -1 6 -6 -2
right_child=4 2 -4 -5 5 -7 -8
leaf_value=-0.0070242008898313765 -0.02720213858126504 0.0023313512799686574 -0.014988788844061407 0.017567540066201575 0.0098689091917360285 -0.01157101461224617 -0.013165455233572375
leaf_weight=1054.056428167969 1251.7824357179925 5589.0452896216884 2799.4954893961549 5504.547010938637 1170.4072283105925 750.25771645922214 2415.728345349431
leaf_count=30274 61401 222719 141550 135947 36982 32513 109663
internal_value=0 0.00403825 -0.00344997 0.0136148 -0.0112768 0.0014923 -0.0179625
internal_weight=0 14947.1 8388.54 6558.6 5588.18 1920.66 3667.51
internal_count=771049 530490 364269 166221 240559 69495 171064
is_linear=0
shrinkage=0.05


Tree=40
num_leaves=8
num_cat=0
split_feature=50 44 55 4 40 42 37
split_gain=361.152 195.171 185.7 183.999 187.752 129.034 114.708
threshold=142.25000000000003 0.29502559548888996 6.5000000000000009 1.5000000000000002 0.39904470717360424 1.5000000000000002 0.28985247313893509
decision_type=2 2 2 2 2 2 2
left_child=1 5 -3 4 -2 -1 -5
right_child=3 2 -4 6 -6 -7 -8
leaf_value=0.0034009960150159974 0.0056774458611192746 -0.0056538606179241755 0.014222245487455624 -0.019540682946942063 -0.011689528619966432 0.022232156616668473 -0.0029046568680561589
leaf_weight=1410.6856749802828 4151.8020063424483 3562.8932046694681 1752.2502898843959 3023.58186054416 2487.9793206099421 2562.5067617911845 1576.7457231786102
leaf_count=45053 156135 135691 49650 153487 110056 57729 63248
internal_value=0 0.00716723 0.000900164 -0.00615623 -0.000830879 0.0155487 -0.0138406
internal_weight=0 9288.34 5315.14 11240.1 6639.78 3973.19 4600.33
internal_count=771049 288123 185341 482926 266191 102782 216735
is_linear=0
shrinkage=0.05


Tree=41
num_leaves=8
num_cat=0
split_feature=51 15 55 55 44 40 28
split_gain=347.012 279.327 220.772 182.948 86.4278 69.5314 57.8892
threshold=1.0000000180025095e-35 0.30416744319408456 1.5000000000000002 5.5000000000000009 0.2621627362192403 0.42800273429869468 1.5000000000000002
decision_type=2 2 2 2 2 2 2
left_child=1 2 -1 -3 5 -2 -6
right_child=4 3 -4 -5 6 -7 -8
leaf_value=-0.0024940382248145646 0.03690902919925463 -0.015786999094596237 0.013677437513543819 -0.00033323656621038369 0.0032810533886421427 0.0017989688251967566 0.019458854510357476
leaf_weight=6229.8800924737006 642.52794332057238 4868.8726530717686 3190.583838192746 3156.5047464268282 1278.6417157296091 180.71804498601705 974.00153845362365
leaf_count=239165 11872 234967 99300 119018 36118 5191 25418
internal_value=0 -0.00285554 0.00298389 -0.00970959 0.0153564 0.0292132 0.0102816
internal_weight=0 17445.8 9420.46 8025.38 3075.89 823.246 2252.64
internal_count=771049 692450 338465 353985 78599 17063 61536
is_linear=0
shrinkage=0.05


Tree=42
num_leaves=8
num_cat=0
split_feature=43 39 4 57 38 44 55
split_gain=338.486 295.208 251.452 75.6898 58.5654 58.0544 32.7157
threshold=0.35056149171066137 0.28151813287152133 1.5000000000000002 197.50000000000003 1.0000000180025095e-35 0.36888948206301131 129.50000000000003
decision_type=2 2 2 2 2 2 2
left_child=1 2 -1 -3 5 -2 -6
right_child=4 3 -4 -5 6 -7 -8
leaf_value=0.0055390290492572476 -0.010403280276347219 -0.0020542554063377153 -0.0078061510645295127 0.034437178058368413 0.0014860439653642105 -0.024120842173182829 0.10013020247988746
leaf_weight=10656.229352447204 1732.177882656455 169.43134052027017 5276.8495462276042 876.42376669682562 403.35018638893962 1393.488415999338 7.585092006251215
leaf_count=343515 88551 5890 203059 24285 21667 83791 291
internal_value=0 0.00280902 0.00111905 0.0285292 -0.0141922 -0.0165246 0.00354548
internal_weight=0 16978.9 15933.1 1045.86 3536.6 3125.67 410.935
internal_count=771049 576749 546574 30175 194300 172342 21958
is_linear=0
shrinkage=0.05


Tree=43
num_leaves=8
num_cat=0
split_feature=12 55 54 58 30 57 22
split_gain=325.065 255.904 233.114 168.675 96.9753 84.886 38.9286
threshold=0.35928751598248104 4.5000000000000009 1.5000000000000002 2.2500000000000004 2.5000000000000004 338.50000000000006 0.46159487518751158
decision_type=2 2 2 2 2 2 2
left_child=1 2 -1 -3 5 -2 -6
right_child=4 3 -4 -5 6 -7 -8
leaf_value=-0.0056251343495179133 -0.023188416066752246 0.034737509535106535 0.010798391520630212 0.0093041002542585526 0.007481386106224959 -0.0087108512605453322 -0.019554255438321247
leaf_weight=6999.2059268485755 1453.4342528823763 789.06404348928481 3124.199581717141 3736.4042573720217 913.75196154136211 3339.8332696054131 154.85384808667004
leaf_count=279670 75407 15873 86817 110714 33575 161990 7003
internal_value=0 0.0038627 -0.000556079 0.0137454 -0.0100687 -0.0131047 0.00354898
internal_weight=0 14648.9 10123.4 4525.47 5861.87 4793.27 1068.61
internal_count=771049 493074 366487 126587 277975 237397 40578
is_linear=0
shrinkage=0.05


Tree=44
num_leaves=8
num_cat=0
split_feature=53 58 58 57 52 15 58
split_gain=316.826 359.864 258.39 213.601 140.551 130.793 48.6386
threshold=5.5000000000000009 17.750000000000004 4.2500000000000009 264.50000000000006 29.500000000000004 0.3118801626888113 12.250000000000002
decision_type=2 2 2 2 2 2 2
left_child=1 3 4 -1 -2 -3 -4
right_child=2 5 6 -5 -6 -7 -8
leaf_value=-0.0085177107711924948 0.0089986096732066877 -0.0012532897440206412 -0.014047112006762048 0.014366045039664339 -0.01387005323537208 -0.019054789698819002 -0.026352744520061977
leaf_weight=1196.3878882527351 2018.6736665470526 4631.0196281336248 2160.66395446565 6882.6259181704372 1005.8221275154501 1326.706908245571 1282.3937082542107
leaf_count=34123 61292 196807 99150 184005 46035 69318 80319
internal_value=0 0.0041023 -0.00927201 0.0109766 0.00139137 -0.00521998 -0.0186368
internal_weight=0 14036.7 6467.55 8079.01 3024.5 5957.73 3443.06
internal_count=771049 484253 286796 218128 107327 266125 179469
is_linear=0
shrinkage=0.05


Tree=45
num_leaves=8
num_cat=0
split_feature=50 46 19 31 46 30 56
split_gain=299.667 182.421 189.915 156.986 123.684 52.0653 42.8465
threshold=142.25000000000003 6.5000000000000009 0.26278138932810824 0.35974910753127048 24.500000000000004 5.5000000000000009 347.50000000000006
decision_type=2 2 2 2 2 2 2
left_child=1 2 -1 4 -2 -5 -3
right_child=3 6 -4 5 -6 -7 -8
leaf_value=0.01010394344189023 -0.0031261696481928373 0.05053007063971221 -0.0052660172809492686 -0.019152870225958851 0.048274918435985546 0.0026893715854242909 0.022160755141507005
leaf_weight=5745.7690699910745 8431.5772714028135 235.81838365271688 3089.9369751131162 2255.7803974309936 117.68295462336391 310.09039903897792 310.66592652350664
leaf_count=166665 336503 6309 105003 130024 3920 12479 10146
internal_value=0 0.00646489 0.00472892 -0.00566919 -0.00241306 -0.0165132 0.0344726
internal_weight=0 9382.19 8835.71 11115.1 8549.26 2565.87 546.484
internal_count=771049 288123 271668 482926 340423 142503 16455
is_linear=0
shrinkage=0.05


Tree=46
num_leaves=8
num_cat=0
split_feature=37 54 54 46 57 58 8
split_gain=295.396 258.133 245.584 202.766 147.241 155.92 66.9437
threshold=0.25614314096714424 1.5000000000000002 2.5000000000000004 6.5000000000000009 311.50000000000006 3.7500000000000004 1.0000000180025095e-35
decision_type=2 2 2 2 2 2 2
left_child=1 3 -3 -1 6 -6 -2
right_child=4 2 -4 -5 5 -7 -8
leaf_value=-0.010217122400107656 0.0013429898374020944 0.018880275331165809 -0.0062652427275734952 0.014709180203935288 0.029951731002835248 0.0084020528117044885 -0.02420158349212018
leaf_weight=9604.7872654004022 1394.6097995555028 2049.3508019568399 1843.7963949777186 890.71891903970391 1129.2735998574644 3266.7808842919767 313.25239992700517
leaf_count=422684 44618 46324 71753 35483 22034 113920 14233
internal_value=0 -0.00402191 0.0069728 -0.00810051 0.00910391 0.0139434 -0.00335376
internal_weight=0 14388.7 3893.15 10495.5 6103.92 4396.05 1707.86
internal_count=771049 576244 118077 458167 194805 135954 58851
is_linear=0
shrinkage=0.05


Tree=47
num_leaves=8
num_cat=0
split_feature=18 58 58 5 57 52 56
split_gain=286.888 238.205 193.985 182.059 153.485 89.9627 55.0924
threshold=0.2905638453195804 32.250000000000007 5.7500000000000009 1.5000000000000002 237.50000000000003 13.500000000000002 163.50000000000003
decision_type=2 2 2 2 2 2 2
left_child=1 3 4 -1 -2 -4 -3
right_child=2 6 5 -5 -6 -7 -8
leaf_value=0.013638295215161451 -0.013682962492409577 0.017558722775261378 -0.0096996535485583003 -0.0048536192834843532 0.0067860507853547917 -0.025706324663901506 -0.0084447911831269772
leaf_weight=6409.6696842052042 1281.9690664373338 218.50055512133986 3707.3972791405395 1679.2583639631048 3199.3517368203029 1150.2521812887862 2839.0823708865792
leaf_count=176793 54838 7342 180267 56641 102680 68145 124343
internal_value=0 0.00530572 -0.00657408 0.00979926 0.000928745 -0.0134944 -0.0065814
internal_weight=0 11146.5 9338.97 8088.93 4481.32 4857.65 3057.58
internal_count=771049 365119 405930 233434 157518 248412 131685
is_linear=0
shrinkage=0.05


Tree=48
num_leaves=8
num_cat=0
split_feature=9 19 45 58 55 22 56
split_gain=281.74 247.802 238 200.711 69.2831 65.1824 34.3453
threshold=0.48812499140985594 0.20564855162658682 1.5000000000000002 3.7500000000000004 50.500000000000007 0.43786548377766016 318.50000000000006
decision_type=2 2 2 2 2 2 2
left_child=1 2 -1 -3 5 -2 -6
right_child=4 3 -4 -5 6 -7 -8
leaf_value=-0.0046228791215645786 -0.0086815576970741357 0.0099591672846531566 0.013586577607658273 -0.010192113120016381 0.079053212171141918 -0.024561483595126658 0.012315046245812521
leaf_weight=2465.6951732197776 4436.4032331993803 1728.4993617180735 6585.9699527081102 4327.2902520606294 21.060299715027213 756.01344102434814 157.98421862535179
leaf_count=89185 203186 44623 200871 182529 524 43926 6205
internal_value=0 0.0033889 0.00862632 -0.00443965 -0.00994239 -0.010998 0.0205607
internal_weight=0 15107.5 9051.67 6055.79 5371.46 5192.42 179.045
internal_count=771049 517208 290056 227152 253841 247112 6729
is_linear=0
shrinkage=0.05


Tree=49
num_leaves=8
num_cat=0
split_feature=8 39 4 30 58 57 22
split_gain=274.698 276.113 206.546 73.6567 49.5667 50.0191 23.2224
threshold=1.0000000180025095e-35 1.0000000180025095e-35 1.5000000000000002 8.5000000000000018 2.2500000000000004 259.50000000000006 0.45008513246187448
decision_type=2 2 2 2 2 2 2
left_child=1 2 -1 -3 5 -2 -6
right_child=4 3 -4 -5 6 -7 -8
leaf_value=0.0036175448867803851 -0.020051957556154319 0.01594642425793711 -0.0080825673016059595 0.041760794426992313 -0.020341517754516536 0.021493624222361341 -0.037293606374963775
leaf_weight=11818.681921997108 153.87156602926552 1060.8801543070003 5539.0522619606927 373.9483759207651 1144.7294620871544 135.12825572490692 247.0767547339201
leaf_count=408267 7268 33897 238478 8484 55258 4462 14935
internal_value=0 0.00162671 -0.000116346 0.0226986 -0.0194655 -0.000619271 -0.0233755
internal_weight=0 18792.6 17357.7 1434.83 1680.81 289 1391.81
internal_count=771049 689126 646745 42381 81923 11730 70193
is_linear=0
shrinkage=0.05


Tree=50
num_leaves=8
num_cat=0
split_feature=51 44 34 52 51 44 12
split_gain=266.312 219.258 192.507 75.7493 72.536 47.1427 36.461
threshold=1.0000000180025095e-35 0.34948705512928108 0.32426419613812668 5.5000000000000009 5.5000000000000009 0.25727838965856342 0.33513121543552232
decision_type=2 2 2 2 2 2 2
left_child=1 2 -1 -3 5 -2 -6
right_child=4 3 -4 -5 6 -7 -8
leaf_value=-0.0049928973712704758 0.021567879428676037 -0.0046243325990566004 0.0073531213837514991 -0.01748564370663409 0.044287383505466064 0.0066033800646301492 0.011423758063288195
leaf_weight=6649.1490723602474 705.26977590098977 2045.2081067254767 6010.7607209626585 2602.3248706506565 258.53526953328401 2071.8075720462948 126.36877174023539
leaf_count=253253 14266 96109 193897 149191 4713 56337 3283
internal_value=0 -0.00254104 0.00086895 -0.0118281 0.0132373 0.0104102 0.0335554
internal_weight=0 17307.4 12659.9 4647.53 3161.98 2777.08 384.904
internal_count=771049 692450 447150 245300 78599 70603 7996
is_linear=0
shrinkage=0.05


Tree=51
num_leaves=8
num_cat=0
split_feature=12 40 44 55 57 56 56
split_gain=249.682 212.481 237.861 128.337 124.188 68.236 57.7774
threshold=0.34293825429482977 0.40238656177388166 0.26641126917705132 31.500000000000004 338.50000000000006 355.50000000000006 163.50000000000003
decision_type=2 2 2 2 2 2 2
left_child=1 2 -1 4 -2 -5 -3
right_child=3 6 -4 5 -6 -7 -8
leaf_value=0.020936568958860962 -0.019579684154714852 0.013872395829996602 0.0031438614050002152 0.036924179595572114 -0.0049558267160508575 0.0029516791652058872 -0.009385895845274066
leaf_weight=2564.886803150177 2034.3764797309414 294.3216744242236 7011.95292157121 211.9934295816347 5066.7808676408604 483.61235722154379 2795.5504292268306
leaf_count=61167 101598 8445 226651 5898 230734 18807 117749
internal_value=0 0.0042326 0.00791083 -0.00713949 -0.00914751 0.0133433 -0.00716669
internal_weight=0 12666.7 9576.84 7796.76 7101.16 695.606 3089.87
internal_count=771049 414012 287818 357037 332332 24705 126194
is_linear=0
shrinkage=0.05


Tree=52
num_leaves=8
num_cat=0
split_feature=37 53 42 46 56 32 30
split_gain=248.094 218.418 164.46 121.262 120.838 99.9529 66.086
threshold=0.25614314096714424 3.5000000000000004 4.5000000000000009 10.500000000000002 353.50000000000006 0.31847227719367416 33.500000000000007
decision_type=2 2 2 2 2 2 2
left_child=1 2 -1 -3 5 -2 -6
right_child=4 3 -4 -5 6 -7 -8
leaf_value=-0.0052075285356618425 -0.0056466448594832677 -0.013912453769637742 0.0083053618281874238 0.016645071231124488 -0.00021180322214548868 0.019305120262692155 0.033998386904245552
leaf_weight=4925.9100848054513 475.56951619684696 4864.6264718910679 4145.8267493601888 347.04392469860613 2994.0100408662111 2557.5412364443764 147.15371978562325
leaf_count=191602 15290 238589 131901 14152 109552 65992 3971
internal_value=0 -0.00371844 0.000968161 -0.0118748 0.00827567 0.0153923 0.00140115
internal_weight=0 14283.4 9071.74 5211.67 6174.27 3033.11 3141.16
internal_count=771049 576244 323503 252741 194805 81282 113523
is_linear=0
shrinkage=0.05


Tree=53
num_leaves=8
num_cat=0
split_feature=8 34 54 58 58 57 22
split_gain=241.737 247.047 236.584 178.197 46.5409 44.2408 22.3197
threshold=1.0000000180025095e-35 0.31677626365642386 1.0000000180025095e-35 2.7500000000000004 2.2500000000000004 259.50000000000006 0.45008513246187448
decision_type=2 2 2 2 2 2 2
left_child=1 2 -1 -3 5 -2 -6
right_child=4 3 -4 -5 6 -7 -8
leaf_value=-0.012765177580016033 -0.019042287961191427 0.023305005708736747 0.0032818695130638498 0.0042499336461566178 -0.01944603203546795 0.020140651790993697 -0.036481717199467426
leaf_weight=4377.0490320874378 149.12941760849208 1442.9766036774963 4831.0817238269374 8167.6964022805914 1113.2791429497302 137.49631468765438 233.89745085500181
leaf_count=192828 7268 33257 171489 291552 55258 4462 14935
internal_value=0 0.00150586 -0.00434659 0.00711305 -0.0185387 -0.000241291 -0.0224286
internal_weight=0 18818.8 9208.13 9610.67 1633.8 286.626 1347.18
internal_count=771049 689126 364317 324809 81923 11730 70193
is_linear=0
shrinkage=0.05


Tree=54
num_leaves=8
num_cat=0
split_feature=15 42 53 55 57 54 52
split_gain=240.465 208.193 217.919 192.91 117.003 77.8558 76.3169
threshold=0.30416744319408456 1.5000000000000002 2.5000000000000004 4.5000000000000009 430.50000000000006 1.0000000180025095e-35 12.500000000000002
decision_type=2 2 2 2 2 2 2
left_child=1 5 -3 6 -5 -1 -2
right_child=3 2 -4 4 -6 -7 -8
leaf_value=-0.011692382392591613 -0.0085469415094725516 0.017375235538787708 -0.00017776661002032938 -0.0040773251475316316 0.013783083573126296 0.0022145626442298702 -0.021859053439264857
leaf_weight=1889.1873690504581 3549.3598153041676 4140.971977930516 3085.2795888176188 2696.7902156617492 1388.1555133583024 2151.824618646875 1546.0504985246807
leaf_count=80079 157201 114305 106047 102298 46115 75437 89567
internal_value=0 0.00479984 0.00988192 -0.00610092 0.00199393 -0.00428827 -0.0125896
internal_weight=0 11267.3 7226.25 9180.36 4084.95 4041.01 5095.41
internal_count=771049 375868 220352 395181 148413 155516 246768
is_linear=0
shrinkage=0.05


Tree=55
num_leaves=8
num_cat=0
split_feature=9 57 58 55 55 56 34
split_gain=224.057 210.121 279.99 73.2383 50.2353 44.555 21.912
threshold=0.502200197145525 247.50000000000003 13.750000000000002 12.500000000000002 50.500000000000007 109.50000000000001 0.50088309168067058
decision_type=2 2 2 2 2 2 2
left_child=1 3 -3 -1 5 -2 -6
right_child=4 2 -4 -5 6 -7 -8
leaf_value=-0.018862591231835351 0.011411601478518022 0.0105558726939258 -0.0035247357977056339 -7.5962618607348562e-05 0.03834736958629989 -0.013574202353988769 -0.00053030255163535075
leaf_weight=1400.924658767879 187.48702008556575 8335.8598892679438 6123.2367206132039 823.52808554843068 67.253129038959742 3427.1782356174663 77.220082219690084
leaf_count=54226 5611 221146 282886 27859 2417 173950 2954
internal_value=0 0.00239203 0.00459309 -0.0119106 -0.0111187 -0.0122754 0.0177067
internal_weight=0 16683.5 14459.1 2224.45 3759.14 3614.67 144.473
internal_count=771049 586117 504032 82085 184932 179561 5371
is_linear=0
shrinkage=0.05


Tree=56
num_leaves=8
num_cat=0
split_feature=5 58 57 55 14 10 6
split_gain=222.999 221.651 217.996 139.668 91.1835 78.3875 48.9105
threshold=1.5000000000000002 23.750000000000004 315.50000000000006 24.500000000000004 0.38875702088593728 0.30981256992027056 1.0000000180025095e-35
decision_type=2 2 2 2 2 2 2
left_child=1 2 -1 5 -3 -2 -5
right_child=3 4 -4 6 -6 -7 -8
leaf_value=-0.0064430807916732533 -0.0075642348902350059 -0.0028077878257027553 0.010717540138096809 0.019313425294958764 -0.020756029163694137 -0.021398031659561376 -0.0035700729419198291
leaf_weight=2378.8308198838495 2904.8470560335554 3416.3963644737378 8324.8659139610827 505.19440910033882 891.64676119107753 1582.1582063185051 432.9637256115675
leaf_count=78913 114123 146725 253375 15491 52602 93507 16313
internal_value=0 0.00304916 0.00690345 -0.00877783 -0.00652654 -0.0124458 0.00876004
internal_weight=0 15011.7 10703.7 5425.16 4308.04 4487.01 938.158
internal_count=771049 531615 332288 239434 199327 207630 31804
is_linear=0
shrinkage=0.05


Tree=57
num_leaves=8
num_cat=0
split_feature=4 58 0 14 55 10 57
split_gain=217.785 219.009 146.656 142.706 134.737 54.135 47.9101
threshold=2.5000000000000004 14.750000000000002 1.5000000000000002 0.38194597262262209 9.5000000000000018 0.30811065786545649 318.50000000000006
decision_type=2 2 2 2 2 2 2
left_child=1 2 -1 -3 6 -6 -2
right_child=4 3 -4 -5 5 -7 -8
leaf_value=-0.021119663344913376 -0.023503226122067313 0.00097126517230417334 0.0097593625204346474 -0.01495638927602802 0.0082457482760228858 -0.0091885303717446805 -0.010734286249072713
leaf_weight=402.8207303872332 1088.0261388546787 4685.6397981615737 8073.3645698884502 2008.3183253095485 1197.2890416411683 707.55469612125307 2269.1333461222239
leaf_count=7583 61401 195302 212689 114916 36982 32513 109663
internal_value=0 0.00295112 0.00828955 -0.00380886 -0.00885306 0.00176836 -0.0148784
internal_weight=0 15170.1 8476.19 6693.96 5262 1904.84 3357.16
internal_count=771049 530490 220272 310218 240559 69495 171064
is_linear=0
shrinkage=0.05


Tree=58
num_leaves=8
num_cat=0
split_feature=56 29 45 30 46 47 22
split_gain=211.572 222.732 152.682 123.181 110.057 96.1097 40.6949
threshold=353.50000000000006 1.5000000000000002 1.5000000000000002 8.5000000000000018 23.500000000000004 1.0000000180025095e-35 0.45581301896948256
decision_type=2 2 2 2 2 2 2
left_child=1 2 -1 4 -2 -3 -5
right_child=3 5 -4 6 -6 -7 -8
leaf_value=-0.0088742904888714554 -0.008430129478338903 0.011294527106934325 0.0053748764321586108 0.016074972155607176 0.030328746608544416 0.035199928870281554 -0.019649569126805599
leaf_weight=2583.8158607417718 8157.7503903331235 1049.4068463137373 6893.1943422653712 765.67871947120875 186.40013359766454 702.19646493252367 88.115799301303923
leaf_count=98293 370521 34534 215602 22454 6240 19829 3576
internal_value=0 0.00451782 0.00148945 -0.00570962 -0.00756076 0.0208925 0.0123693
internal_weight=0 11228.6 9477.01 9197.95 8344.15 1751.6 853.795
internal_count=771049 368258 313895 402791 376761 54363 26030
is_linear=0
shrinkage=0.05


Tree=59
num_leaves=8
num_cat=0
split_feature=15 40 58 44 57 52 47
split_gain=209.476 170.479 167.74 153.219 147.381 48.1893 36.6969
threshold=0.30416744319408456 0.44834032334030849 13.250000000000002 0.27887624362671409 259.50000000000006 5.5000000000000009 0.42790659936771808
decision_type=2 2 2 2 2 2 2
left_child=1 3 4 -1 -2 -4 -3
right_child=2 6 5 -5 -6 -7 -8
leaf_value=0.015435342033591183 -0.014002328390677632 -0.0054341785549236405 -0.011519974699988654 0.0021723801534139706 0.002716886529093653 -0.026225048605159375 -0.025086825610744885
leaf_weight=3655.3605090416968 1794.4676200947724 2012.8513654377311 1437.124259930104 5385.0763718141243 4956.8762808279134 912.1179198436439 268.49909511394799
leaf_count=95964 84119 82484 77403 185215 172624 61035 12205
internal_value=0 0.00445414 -0.00573356 0.00753617 -0.0017284 -0.0172381 -0.00775714
internal_weight=0 11321.8 9100.59 9040.44 6751.34 2349.24 2281.35
internal_count=771049 375868 395181 281179 256743 138438 94689
is_linear=0
shrinkage=0.05


Tree=60
num_leaves=8
num_cat=0
split_feature=8 39 32 13 58 50 23
split_gain=203.001 212.845 169.124 51.876 44.8419 40.9568 16.8333
threshold=1.0000000180025095e-35 1.0000000180025095e-35 1.0000000180025095e-35 0.32910925670272656 3.7500000000000004 98.250000000000014 0.34893641055944996
decision_type=2 2 2 2 2 2 2
left_child=1 2 -1 -3 5 -2 -6
right_child=4 3 -4 -5 6 -7 -8
leaf_value=-0.011725579299870184 0.031120338147447177 0.026677368517500973 0.0019127900271063356 0.0074114376143794257 -0.020273358605815243 -0.010642286117551795 -0.037031921340782759
leaf_weight=2689.2351369149983 66.584914323873818 933.44389375019819 14659.373023735359 559.68242028309032 879.44676766777411 446.81488072313368 182.35910036787391
leaf_count=111758 1724 22763 534987 19618 47520 20524 12155
internal_value=0 0.00135764 -0.000201869 0.0194655 -0.0173215 -0.00517595 -0.0231837
internal_weight=0 18841.7 17348.6 1493.13 1575.21 513.4 1061.81
internal_count=771049 689126 646745 42381 81923 22248 59675
is_linear=0
shrinkage=0.05


Tree=61
num_leaves=8
num_cat=0
split_feature=51 46 52 1 51 29 56
split_gain=196.3 175.586 181.267 64.7939 58.1564 45.2848 29.0232
threshold=1.0000000180025095e-35 11.500000000000002 4.5000000000000009 65.500000000000014 5.5000000000000009 2.5000000000000004 107.50000000000001
decision_type=2 2 2 2 2 2 2
left_child=1 2 -1 -3 5 -2 -6
right_child=4 3 -4 -5 6 -7 -8
leaf_value=0.0016311557874908401 0.006002467667516955 0.00071347262815290365 -0.0089038710398753728 0.031358337173051913 0.1169382524098553 0.023666596585582476 0.026784545735108023
leaf_weight=8698.6931227492169 2417.9328609276563 259.77504405006766 7693.6175608513877 512.61992750223726 8.2397998906671983 426.19471940305084 396.2892284616828
leaf_count=321032 59210 10801 344770 15847 99 11393 7897
internal_value=0 -0.00221541 -0.00331363 0.021066 0.0111863 0.00865684 0.0289047
internal_weight=0 17164.7 16392.3 772.395 3248.66 2844.13 404.529
internal_count=771049 692450 665802 26648 78599 70603 7996
is_linear=0
shrinkage=0.05


Tree=62
num_leaves=8
num_cat=0
split_feature=30 54 54 46 22 39 55
split_gain=194.717 203.396 200.943 188.16 68.9536 62.6181 11.8774
threshold=3.5000000000000004 1.5000000000000002 2.5000000000000004 6.5000000000000009 0.45635792862912011 0.28151813287152133 238.00000000000003
decision_type=2 2 2 2 2 2 2
left_child=1 3 -3 -1 5 -2 -6
right_child=4 2 -4 -5 6 -7 -8
leaf_value=-0.0073371493913909781 0.010006006735535146 0.015735804569382398 -0.0046684223018130166 0.014823191388376886 -0.016895654071459081 0.028748951486225579 0.095725440410497104
leaf_weight=11474.252060181927 2248.6507406681776 2679.4927463494241 2193.8141577164643 1044.2033962132409 211.75322863273323 555.52741654030979 1.3869875743985165
leaf_count=503982 64531 55134 85817 40000 8891 12644 50
internal_value=0 -0.00211404 0.00655137 -0.00548765 0.0116434 0.013728 -0.0157192
internal_weight=0 17391.8 4873.31 12518.5 3017.32 2804.18 213.14
internal_count=771049 684933 140951 543982 86116 77175 8941
is_linear=0
shrinkage=0.05


Tree=63
num_leaves=8
num_cat=0
split_feature=31 20 34 58 32 53 35
split_gain=191.032 164.39 171.575 65.0216 56.3461 48.6726 25.5983
threshold=0.3715490185791297 0.20289213629495109 0.31159121830518366 3.7500000000000004 0.35802273874067692 11.500000000000002 0.39544992805005441
decision_type=2 2 2 2 2 2 2
left_child=1 2 -1 -3 6 -6 -2
right_child=4 3 -4 -5 5 -7 -8
leaf_value=-0.0011325656323583129 -0.029294407524622097 0.002608812275944155 0.0097635255846025212 -0.014434159022650758 -0.0042353742792184384 -0.019497893812807469 0.0071650839737041677
leaf_weight=7467.5324659827165 495.48134981421754 796.9010334610939 6997.7878311867826 1876.5082995076664 2010.3514116699807 705.14340811083093 52.924268031027168
leaf_count=281005 28360 22476 218089 77557 95917 44820 2825
internal_value=0 0.00203361 0.00413887 -0.00935484 -0.0111626 -0.00820437 -0.0257692
internal_weight=0 17138.7 14465.3 2673.41 3263.9 2715.49 548.406
internal_count=771049 599127 499094 100033 171922 140737 31185
is_linear=0
shrinkage=0.05


Tree=64
num_leaves=8
num_cat=0
split_feature=6 34 54 58 55 58 57
split_gain=187.573 212.517 179.62 127.009 72.9953 45.9679 45.6007
threshold=1.0000000180025095e-35 0.31677626365642386 1.0000000180025095e-35 6.7500000000000009 11.500000000000002 3.2500000000000004 578.50000000000011
decision_type=2 2 2 2 2 2 2
left_child=1 2 -1 -3 6 -6 -2
right_child=4 3 -4 -5 5 -7 -8
leaf_value=-0.010877932707358845 -0.020335748982214883 0.014014525859765859 0.003538728684804779 0.0012658616446305955 0.0084339190414398062 -0.0093537319559882474 -0.0056758976899066761
leaf_weight=4034.221315802075 1582.6758237197064 4270.7853371012025 4649.8070337078534 3600.51918103965 667.72540898341686 794.03310610633343 799.13413356430829
leaf_count=183850 80427 105004 164090 150104 21004 31276 35294
internal_value=0 0.00223414 -0.00315911 0.00818389 -0.0100254 -0.00122819 -0.0154216
internal_weight=0 16555.3 8684.03 7871.3 3843.57 1461.76 2381.81
internal_count=771049 603048 347940 255108 168001 52280 115721
is_linear=0
shrinkage=0.05


Tree=65
num_leaves=8
num_cat=0
split_feature=5 42 52 55 54 10 52
split_gain=188.052 178.34 228.536 114.2 90.3453 57.7781 40.9012
threshold=1.5000000000000002 3.5000000000000004 4.5000000000000009 20.500000000000004 1.0000000180025095e-35 0.31284840847213852 39.500000000000007
decision_type=2 2 2 2 2 2 2
left_child=1 4 -3 5 -1 -2 -5
right_child=3 2 -4 6 -6 -7 -8
leaf_value=-0.010501060958260372 -0.0079353041966259315 0.015348327946528718 -0.000457688981955183 0.010611500013069378 0.0018918295873105344 -0.020527077364735996 -0.012695452671181415
leaf_weight=2801.6334947696887 2849.1436318517663 4408.091133877635 4751.2166473409161 913.6149913482368 3093.729758716654 1339.9863565508276 236.1164925172925
leaf_count=125562 115682 121472 173450 28946 111131 84942 9864
internal_value=0 0.00278441 0.0071501 -0.00813657 -0.00399838 -0.011967 0.00581816
internal_weight=0 15054.7 9159.31 5338.86 5895.36 4189.13 1149.73
internal_count=771049 531615 294922 239434 236693 200624 38810
is_linear=0
shrinkage=0.05


Tree=66
num_leaves=8
num_cat=0
split_feature=15 42 55 53 58 57 58
split_gain=177.241 164.732 160.738 156.162 102.158 80.4804 72.571
threshold=0.27842394191923187 3.5000000000000004 4.5000000000000009 2.5000000000000004 2.2500000000000004 614.50000000000011 1.0000000180025095e-35
decision_type=2 2 2 2 2 2 2
left_child=1 6 5 -3 -4 -2 -1
right_child=2 3 4 -5 -6 -7 -8
leaf_value=-0.029260726373824722 -0.015727162584124647 0.017653385954335205 0.016890990518504217 0.00061215531016375706 -0.0016878294076924849 -0.0034327086690185771 -0.00080613193202462964
leaf_weight=234.36765712499619 3186.4359626662917 3169.7041142275557 932.15776946488768 2334.0533562181517 3572.1197172207758 2286.7709266319871 4672.8853677404113
leaf_count=4100 157486 79944 25306 77820 132810 108033 185550
internal_value=0 0.00448984 -0.00483555 0.0104279 0.00215994 -0.010592 -0.00217079
internal_weight=0 10411 9977.48 5503.76 4504.28 5473.21 4907.25
internal_count=771049 347414 423635 157764 158116 265519 189650
is_linear=0
shrinkage=0.05


Tree=67
num_leaves=8
num_cat=0
split_feature=47 57 37 49 32 55 54
split_gain=174.94 171.963 166.635 74.3745 45.5406 33.4739 18.3467
threshold=0.36546938518042554 311.50000000000006 0.25614314096714424 4.5000000000000009 0.39366774239657326 49.500000000000007 1.0000000180025095e-35
decision_type=2 2 2 2 2 2 2
left_child=1 3 -3 -1 6 -6 -2
right_child=4 2 -4 -5 5 -7 -8
leaf_value=-0.010300188180920477 -0.03542520420702059 0.00074239528371863308 0.012791234885134057 0.012582471466413992 -0.01140795642426036 0.015538121887649038 -0.013767058190522494
leaf_weight=3381.9469820940867 275.01078336685896 10315.604336638935 3974.5253780614585 395.89456925308332 1764.5475522708148 122.44972737692297 154.37256478518248
leaf_count=128328 15634 396048 106323 12549 99822 4751 7594
internal_value=0 0.00158613 0.00409421 -0.00789953 -0.013006 -0.00965209 -0.0276887
internal_weight=0 18068 14290.1 3777.84 2316.38 1887 429.383
internal_count=771049 643248 502371 140877 127801 104573 23228
is_linear=0
shrinkage=0.05


Tree=68
num_leaves=8
num_cat=0
split_feature=8 39 35 7 58 57 57
split_gain=171.408 167.973 153.282 43.7853 39.7928 38.7231 16.2227
threshold=1.0000000180025095e-35 1.0000000180025095e-35 0.29754879350081825 1.0000000180025095e-35 3.7500000000000004 197.50000000000003 536.50000000000011
decision_type=2 2 2 2 2 2 2
left_child=1 2 -1 -3 5 -2 -6
right_child=4 3 -4 -5 6 -7 -8
leaf_value=-0.0029594732976948738 -0.022593846431783884 0.022330833139613426 0.0077698877537525461 0.0035734524699183633 -0.026561272976806521 0.0058888038492039127 -0.013269029318008616
leaf_weight=12822.550504145212 189.49094662303105 1105.938066765666 4494.7901307097636 433.34511084994301 658.60929276421666 318.63272648723796 357.48372209398076
leaf_count=478418 10532 28990 168327 13391 40115 11716 19560
internal_value=0 0.00123302 -0.000174334 0.0170559 -0.0161934 -0.00475654 -0.0219024
internal_weight=0 18856.6 17317.3 1539.28 1524.22 508.124 1016.09
internal_count=771049 689126 646745 42381 81923 22248 59675
is_linear=0
shrinkage=0.05


Tree=69
num_leaves=8
num_cat=0
split_feature=56 29 21 55 54 47 30
split_gain=168.849 156.373 118.874 122.179 92.0999 59.4563 21.9894
threshold=343.50000000000006 1.5000000000000002 0.51061563152723477 8.5000000000000018 1.0000000180025095e-35 1.0000000180025095e-35 34.500000000000007
decision_type=2 2 2 2 2 2 2
left_child=1 4 3 -2 -1 -3 -4
right_child=2 5 6 -5 -6 -7 -8
leaf_value=-0.0036105966460523373 -0.0055352670658569544 0.013769194329318847 -0.021605132606132366 0.0059205425573758338 0.0080826220013895892 0.037051221433157804 0.03217401401022723
leaf_weight=3121.2092553060502 8212.2971207811497 739.48620869964361 947.91236555622891 3246.9230698151514 3654.8485780786723 436.83541423687711 18.547792137600482
leaf_count=112491 373930 21092 54570 106122 91842 10380 622
internal_value=0 0.0056195 -0.00371022 -0.00228908 0.00269672 0.0224393 -0.0205408
internal_weight=0 7952.38 12425.7 11459.2 6776.06 1176.32 966.46
internal_count=771049 235805 535244 480052 204333 31472 55192
is_linear=0
shrinkage=0.05


Tree=70
num_leaves=8
num_cat=0
split_feature=53 32 9 58 54 52 58
split_gain=165.882 162.752 131.41 124.587 83.9226 64.7424 33.3695
threshold=9.5000000000000018 1.0000000180025095e-35 0.49150239222865849 4.2500000000000009 1.0000000180025095e-35 29.500000000000004 13.750000000000002
decision_type=2 2 2 2 2 2 2
left_child=1 4 -3 5 -1 -2 -5
right_child=3 2 -4 6 -6 -7 -8
leaf_value=-0.018185672250511983 0.0058920805557740701 0.0069217129308805862 -0.0047190667567134706 -0.014748985541278948 -0.00030985396452141555 -0.012116643291438613 -0.02996026785202064
leaf_weight=1317.7989234584384 1287.906730869785 10720.115790683776 3132.0780276758596 1292.102351221256 1307.6361160967499 813.42819521389902 501.94484577095136
leaf_count=61297 41734 330512 140837 69854 46095 41481 39239
internal_value=0 0.00212606 0.0042895 -0.00934562 -0.00928587 -0.00108156 -0.0190192
internal_weight=0 16477.6 13852.2 3895.38 2625.44 2101.33 1794.05
internal_count=771049 578741 471349 192308 107392 83215 109093
is_linear=0
shrinkage=0.05


Tree=71
num_leaves=8
num_cat=0
split_feature=18 58 42 52 44 58 53
split_gain=161.533 148.814 132.094 114.64 100.234 76.1591 53.6496
threshold=0.25501674139786407 9.7500000000000018 6.5000000000000009 22.500000000000004 0.25418338437745808 1.0000000180025095e-35 8.5000000000000018
decision_type=2 2 2 2 2 2 2
left_child=2 3 5 -2 -4 -1 -3
right_child=1 6 4 -5 -6 -7 -8
leaf_value=-0.028538221486091992 0.0037784027669150698 -0.010336856020424114 0.024192521764481816 -0.011061678231799023 0.0065844691045927025 0.00039655278957348753 -0.02693925878480451
leaf_weight=236.0076983878389 4732.876699461136 2708.3990285987966 1037.8115650322288 1793.7722026235424 3647.298079807777 5619.0944446516223 593.067435790319
leaf_count=4206 148583 143109 20352 91501 102074 214989 46235
internal_value=0 -0.00467764 0.00423276 -0.000301288 0.0104892 -0.000774425 -0.0133265
internal_weight=0 9828.12 10540.2 6526.65 4685.11 5855.1 3301.47
internal_count=771049 429428 341621 240084 122426 219195 189344
is_linear=0
shrinkage=0.05


Tree=72
num_leaves=8
num_cat=0
split_feature=6 34 54 30 58 57 57
split_gain=157.173 168.936 140.681 111.726 62.6769 45.968 36.0613
threshold=1.0000000180025095e-35 0.31677626365642386 1.0000000180025095e-35 8.5000000000000018 3.2500000000000004 442.50000000000006 125.50000000000001
decision_type=2 2 2 2 2 2 2
left_child=1 2 -1 -3 6 -6 -2
right_child=4 3 -4 -5 5 -7 -8
leaf_value=-0.0097978069773703227 -0.019440887747654376 0.0052403472184721807 0.0030270484007759091 0.024503897416956716 -0.019711872105347649 -0.0061472993791009938 0.0037270315961544019
leaf_weight=3931.0717473644763 199.48223275737837 7131.906881398987 4686.5638404935598 840.67346180044115 1425.3036620439962 1113.397160526365 1034.4055689312518
leaf_count=183850 10223 236871 164090 18237 72641 51012 34125
internal_value=0 0.00202921 -0.00282367 0.00727442 -0.00927611 -0.0137676 -3.12282e-05
internal_weight=0 16590.2 8617.64 7972.58 3772.59 2538.7 1233.89
internal_count=771049 603048 347940 255108 168001 123653 44348
is_linear=0
shrinkage=0.05


Tree=73
num_leaves=8
num_cat=0
split_feature=19 58 3 58 28 57 31
split_gain=153.395 140.957 142.974 140.272 89.6679 71.3466 55.0399
threshold=0.25306492402272052 31.250000000000004 3.5000000000000004 4.2500000000000009 1.5000000000000002 636.50000000000011 0.44082716347372325
decision_type=2 2 2 2 2 2 2
left_child=1 2 -1 4 -2 -5 -3
right_child=3 6 -4 5 -6 -7 -8
leaf_value=0.0096798871383903858 -0.007290729523903576 -0.0039966713758643772 -0.0051407152335673292 -0.015881700210557178 0.0092774018163087543 -0.0023588685907906027 -0.030055224106076556
leaf_weight=7351.8600619346835 1432.2013512738049 2950.7618360412307 2089.0917140725069 2966.9864141112193 1897.3704740847461 1453.4361925092526 216.62912034383044
leaf_count=206139 50725 133207 79934 153715 59651 75152 12526
internal_value=0 0.00333817 0.00640019 -0.00559988 0.00215064 -0.0114369 -0.00578783
internal_weight=0 12608.3 9440.95 7749.99 3329.57 4420.42 3167.39
internal_count=771049 431806 286073 339243 110376 228867 145733
is_linear=0
shrinkage=0.05


Tree=74
num_leaves=8
num_cat=0
split_feature=57 58 53 46 55 49 8
split_gain=148.923 168.746 145.742 133.432 59.3819 45.4175 33.8391
threshold=247.50000000000003 14.750000000000002 1.5000000000000002 6.5000000000000009 13.500000000000002 14.500000000000002 1.0000000180025095e-35
decision_type=2 2 2 2 2 2 2
left_child=4 3 -3 -2 5 -1 -6
right_child=1 2 -4 -5 6 -7 -8
leaf_value=-0.01844221089542316 0.0038913059791380977 0.0005049596891124298 -0.014864074994643912 0.023924474254462726 0.0031710490789711235 0.025803403725753338 -0.019751802829197904
leaf_weight=1607.3312251064926 9624.0198385128751 4904.7625652854331 2249.1530221952125 908.85061357682571 799.46575344074517 59.32516258303076 200.53933122102171
leaf_count=76133 277419 210012 143206 25217 27103 1730 10229
internal_value=0 0.00159728 -0.00432839 0.00562202 -0.011076 -0.0168527 -0.001441
internal_weight=0 17686.8 7153.92 10532.9 2666.66 1666.66 1000.01
internal_count=771049 655854 353218 302636 115195 77863 37332
is_linear=0
shrinkage=0.05


Tree=75
num_leaves=8
num_cat=0
split_feature=22 39 15 23 28 1 29
split_gain=145.732 158.682 140.196 40.0113 28.2136 27.7905 8.65155
threshold=0.46159487518751158 0.28151813287152133 0.27842394191923187 0.45394161158489382 3.5000000000000004 204.50000000000003 1.5000000000000002
decision_type=2 2 2 2 2 2 2
left_child=1 2 -1 -3 6 -6 -2
right_child=4 3 -4 -5 5 -7 -8
leaf_value=0.0037214557024201561 -0.030672611624490521 0.019935815068553592 -0.0051027527277450468 -0.018264552416931184 -0.013655977159648006 0.028139701476973963 -0.017118050017677088
leaf_weight=9782.6973924869671 382.25411385204643 1219.3448625840247 8335.5685726134107 71.869749519508332 336.49695698963478 44.140612491872162 176.9328453601338
leaf_count=326869 24414 32946 353322 3133 17266 1834 11265
internal_value=0 0.000869004 -0.000338306 0.0177971 -0.0192808 -0.00874811 -0.026422
internal_weight=0 19409.5 18118.3 1291.21 939.825 380.638 559.187
internal_count=771049 716270 680191 36079 54779 19100 35679
is_linear=0
shrinkage=0.05


Tree=76
num_leaves=8
num_cat=0
split_feature=51 46 53 7 49 29 33
split_gain=142.11 129.976 138.618 58.9919 38.1787 32.3335 23.177
threshold=1.5000000000000002 6.5000000000000009 2.5000000000000004 6.5000000000000009 16.500000000000004 2.5000000000000004 0.31207020576931083
decision_type=2 2 2 2 2 2 2
left_child=1 2 -1 -3 5 -2 -6
right_child=4 3 -4 -5 6 -7 -8
leaf_value=0.0015089613167757845 0.0086185972175849956 0.016100575403910283 -0.0075154965782246288 -0.015869486510331279 0.061481633514640477 0.028633478236011742 0.018991337413568218
leaf_weight=9516.4286576686427 1243.1003377228044 1360.5515404711477 7695.2571117291227 160.59519566083327 63.523340274579823 240.34942520456389 66.44605849403888
leaf_count=327397 25887 47130 355866 6684 1189 5380 1516
internal_value=0 -0.00128764 -0.00252603 0.0127171 0.0141729 0.0118785 0.0400696
internal_weight=0 18732.8 17211.7 1521.15 1613.42 1483.45 129.969
internal_count=771049 737077 683263 53814 33972 31267 2705
is_linear=0
shrinkage=0.05


Tree=77
num_leaves=8
num_cat=0
split_feature=37 52 42 58 23 32 58
split_gain=141.189 145.594 148.328 86.4959 81.662 57.856 23.5651
threshold=0.28157691933191614 4.5000000000000009 4.5000000000000009 9.7500000000000018 0.28539289602634488 0.31847227719367416 3.7500000000000004
decision_type=2 2 2 2 2 2 2
left_child=1 2 -1 -3 5 -2 -6
right_child=4 3 -4 -5 6 -7 -8
leaf_value=-0.0040535746498413256 -0.0055781943733331793 -0.0045389387045708957 0.0097615800396553421 -0.017288454530957498 -0.0013359690795839822 0.0099121283293689532 -0.02166980315072671
leaf_weight=4753.7765982011333 685.36517591262236 4116.6539726583287 3284.4291003909893 1965.1995535520837 276.74111392581835 4967.7545384061523 293.01049259398133
leaf_count=195099 23846 165400 96974 122469 10695 141861 14705
internal_value=0 -0.00282452 0.00159184 -0.00866079 0.00621479 0.00803348 -0.0118128
internal_weight=0 14120.1 8038.21 6081.85 6222.87 5653.12 569.752
internal_count=771049 579942 292073 287869 191107 165707 25400
is_linear=0
shrinkage=0.05


Tree=78
num_leaves=8
num_cat=0
split_feature=8 32 5 54 58 50 22
split_gain=136.511 137.957 124.859 83.1395 37.4139 28.6198 19.324
threshold=1.0000000180025095e-35 1.0000000180025095e-35 2.5000000000000004 1.0000000180025095e-35 2.2500000000000004 99.250000000000014 0.45008513246187448
decision_type=2 2 2 2 2 2 2
left_child=1 3 -3 -1 5 -2 -6
right_child=4 2 -4 -5 6 -7 -8
leaf_value=-0.018143070571026442 0.039436859294424059 0.0049761780972360546 -0.0061568030614388616 -0.00059327752929939372 -0.015778157174378776 -0.0050200769547001905 -0.033152596898665211
leaf_weight=1350.6914046774618 41.855964216403663 13056.142443798948 3119.4192653303035 1347.8293808563612 998.69797549163923 232.22422597324476 191.16122823255137
leaf_count=66745 961 438241 135860 48280 55258 10769 14935
internal_value=0 0.00108285 0.00282896 -0.00938095 -0.0147615 0.00188782 -0.018595
internal_weight=0 18874.1 16175.6 2698.52 1463.94 274.08 1189.86
internal_count=771049 689126 574101 115025 81923 11730 70193
is_linear=0
shrinkage=0.05


Tree=79
num_leaves=8
num_cat=0
split_feature=47 57 37 55 58 32 21
split_gain=133.857 135.664 124.923 40.4783 34.664 30.8867 22.1307
threshold=0.3674516604727292 169.50000000000003 0.28157691933191614 49.500000000000007 2.7500000000000004 0.39366774239657326 0.50313457467050016
decision_type=2 2 2 2 2 2 2
left_child=1 4 -3 5 -1 -2 -5
right_child=3 2 -4 6 -6 -7 -8
leaf_value=-0.0014825441108834206 -0.026414088228084422 -0.00035104891119474711 0.0090078360135875061 0.032538894479275597 -0.021388800961293961 -0.010606076202360893 -0.011424966790586829
leaf_weight=303.9164490159601 381.92789422627538 12068.787741936278 5059.7255465649068 75.349520662799478 780.34712960012257 1619.6546597410925 45.135576989501715
leaf_count=10702 22248 467770 136869 2727 33997 94805 1931
internal_value=0 0.00132784 0.00241391 -0.0119385 -0.0158156 -0.0136341 0.0161109
internal_weight=0 18212.8 17128.5 2122.07 1084.26 2001.58 120.485
internal_count=771049 649338 604639 121711 44699 117053 4658
is_linear=0
shrinkage=0.05


Tree=80
num_leaves=8
num_cat=0
split_feature=6 34 54 46 55 58 57
split_gain=131.987 141.73 118.676 91.5219 56.8351 35.7272 34.9317
threshold=1.0000000180025095e-35 0.31677626365642386 1.0000000180025095e-35 11.500000000000002 11.500000000000002 2.7500000000000004 578.50000000000011
decision_type=2 2 2 2 2 2 2
left_child=1 2 -1 -3 6 -6 -2
right_child=4 3 -4 -5 5 -7 -8
leaf_value=-0.0091139571728284016 -0.018068560451498083 0.0052831930970894652 0.0027055657282581578 0.028003179151119495 0.012235611375994982 -0.0055554887295500149 -0.0050156878928571975
leaf_weight=3867.1684296410531 1474.9807438938878 7576.7133026001975 4708.563197189942 469.88378508714959 382.84011783916503 1064.5342927458696 786.78618881991133
leaf_count=183850 80427 242679 164090 12429 11566 40714 35294
internal_value=0 0.00184731 -0.00262481 0.00661325 -0.00858274 -0.000844426 -0.0135322
internal_weight=0 16622.3 8575.73 8046.6 3709.14 1447.37 2261.77
internal_count=771049 603048 347940 255108 168001 52280 115721
is_linear=0
shrinkage=0.05


Tree=81
num_leaves=8
num_cat=0
split_feature=56 35 30 13 30 47 46
split_gain=129.461 149.475 92.1007 85.7947 79.8622 61.8018 43.3862
threshold=353.50000000000006 0.34259995291897333 4.5000000000000009 0.33060677694826096 33.500000000000007 1.0000000180025095e-35 9.5000000000000018
decision_type=2 2 2 2 2 2 2
left_child=1 2 -1 4 -2 -3 -5
right_child=3 5 -4 6 -6 -7 -8
leaf_value=-0.0012171676815445262 -0.0015315861354411532 0.0080288340365242197 0.014106556691919819 -0.012500365213731849 0.043244051465624767 0.024909210669620069 0.0078014501265675947
leaf_weight=8031.6729901675135 5439.1258861692622 1299.0509018776938 1115.9040571958758 3123.4484459017403 100.44317477848381 931.52866247901693 286.70178387081251
leaf_count=274247 212099 42891 25825 176513 2094 25295 12085
internal_value=0 0.003484 0.000653496 -0.00455354 -0.000712058 0.0150864 -0.0107917
internal_weight=0 11378.2 9147.58 8949.72 5539.57 2230.58 3410.15
internal_count=771049 368258 300072 402791 214193 68186 188598
is_linear=0
shrinkage=0.05


Tree=82
num_leaves=8
num_cat=0
split_feature=20 46 37 56 58 57 30
split_gain=128.237 130.455 128.422 77.8712 42.9468 33.3298 29.3711
threshold=0.28116624811030139 1.5000000000000002 0.28157691933191614 321.50000000000006 3.7500000000000004 601.50000000000011 14.500000000000002
decision_type=2 2 2 2 2 2 2
left_child=1 2 -1 -3 6 -6 -2
right_child=4 3 -4 -5 5 -7 -8
leaf_value=-0.0035655499036859246 -0.0045937917561164566 0.026416633429388544 0.0065850338666859944 0.0067508572859191311 -0.019311904022625257 -0.0039370891304382483 0.024264423434448238
leaf_weight=10302.054352037609 686.4603895843029 636.97622773656622 4465.9580374090001 2391.8540380834602 1248.5074923019856 491.85404547955841 100.14329909672961
leaf_count=415968 23833 16111 130623 98477 61554 22182 2301
internal_value=0 0.00144321 -0.000495699 0.010894 -0.0105914 -0.0149715 -0.00089368
internal_weight=0 17796.8 14768 3028.83 2526.97 1740.36 786.604
internal_count=771049 661179 546591 114588 109870 83736 26134
is_linear=0
shrinkage=0.05


Tree=83
num_leaves=8
num_cat=0
split_feature=31 57 29 55 45 55 33
split_gain=127.467 129.768 125.488 67.1821 38.7533 32.4729 13.6919
threshold=0.39328196825042999 315.50000000000006 1.0000000180025095e-35 22.500000000000004 1.5000000000000002 141.50000000000003 0.31207020576931083
decision_type=2 2 2 2 2 2 2
left_child=1 3 -3 -1 6 -6 -2
right_child=4 2 -4 -5 5 -7 -8
leaf_value=-0.010504374120518037 -0.0089507241651836447 0.00078504564109027836 0.011607786444449994 0.0050049539874674901 -0.0087101756559030321 0.066995205621174211 -0.028786547178291988
leaf_weight=2961.3635494229384 114.79264114331454 10845.621971767861 3555.7744317264296 912.91395113617182 1542.9464413444512 13.307269834913312 374.05283155571669
leaf_count=122187 5485 385916 121516 29174 81729 475 24567
internal_value=0 0.00127253 0.00345785 -0.00684949 -0.0118872 -0.00802023 -0.0241564
internal_weight=0 18275.7 14401.4 3874.28 2045.1 1556.25 488.845
internal_count=771049 658793 507432 151361 112256 82204 30052
is_linear=0
shrinkage=0.05


Tree=84
num_leaves=8
num_cat=0
split_feature=12 9 7 34 57 32 56
split_gain=124.137 119.863 95.0144 76.8088 87.5793 37.1423 30.5642
threshold=0.34293825429482977 0.50016790081992235 6.5000000000000009 0.39163416301057213 601.50000000000011 0.31847227719367416 96.500000000000014
decision_type=2 2 2 2 2 2 2
left_child=1 2 -1 5 -5 -2 -3
right_child=3 6 -4 4 -6 -7 -8
leaf_value=0.0056211332776638229 -0.021475162254849078 0.018264760877123355 -0.01985353673195564 -0.0051793076620170585 0.011525592069461668 -0.0080261696374708327 -0.011368934690535501
leaf_weight=10858.655245555565 613.73255302803591 91.312755919061601 377.83095801994205 2567.3627561125904 1128.73284988245 3133.7782173254527 1547.6148239290342
leaf_count=330878 35239 2388 13087 124650 46257 150891 67659
internal_value=0 0.00292025 0.00476285 -0.00519077 -7.61411e-05 -0.0102339 -0.00970776
internal_weight=0 12875.4 11236.5 7443.61 3696.1 3747.51 1638.93
internal_count=771049 414012 343965 357037 170907 186130 70047
is_linear=0
shrinkage=0.05


Tree=85
num_leaves=8
num_cat=0
split_feature=23 39 4 55 57 46 29
split_gain=121.833 129.445 112.017 42.7243 34.4347 22.7426 22.27
threshold=0.35905239966706498 0.28151813287152133 1.5000000000000002 24.500000000000004 675.50000000000011 23.500000000000004 1.5000000000000002
decision_type=2 2 2 2 2 2 2
left_child=1 2 -1 6 -3 -5 -2
right_child=3 4 -4 5 -6 -7 -8
leaf_value=0.0025017014731541329 -0.025459214278162029 0.011510907915960024 -0.0060652231736885069 -0.0027805160091076918 0.030411234373016717 0.048023413061447778 -0.0087118348372919839
leaf_weight=12248.158726811409 659.40180255426094 959.77468013344333 5541.1302853054367 276.51000380376354 321.99629280995578 22.928665193729103 285.85223589930683
leaf_count=415704 40403 26716 250914 11088 7981 687 17556
internal_value=0 0.000939153 -0.000166974 -0.0152002 0.0162789 0.00125655 -0.0204092
internal_weight=0 19071.1 17789.3 1244.69 1281.77 299.439 945.254
internal_count=771049 701315 666618 69734 34697 11775 57959
is_linear=0
shrinkage=0.05


Tree=86
num_leaves=8
num_cat=0
split_feature=21 35 30 56 36 50 50
split_gain=119.101 116.337 111.83 85.0339 19.3542 25.4965 12.6279
threshold=0.51061563152723477 1.0000000180025095e-35 3.5000000000000004 329.50000000000006 0.49550729065062316 141.25000000000003 212.25000000000003
decision_type=2 2 2 2 2 2 2
left_child=1 2 -1 -3 5 -2 -6
right_child=4 3 -4 -5 6 -7 -8
leaf_value=-0.0034544493650427183 0.00017402119957294542 0.018455017880550231 0.0083502346978822136 0.0035978457768894058 -0.028037091529092475 -0.018052838544097838 0.00093821032445136105
leaf_weight=11672.626181439031 311.77574586449191 1296.91718000127 2421.66726082284 3735.8175791171379 333.88365226425231 497.78692592773587 42.287158871069551
leaf_count=456157 12476 31189 64112 152709 21500 30153 2753
internal_value=0 0.000904509 -0.00142573 0.00742939 -0.0154193 -0.0110418 -0.024786
internal_weight=0 19127 14094.3 5032.73 1185.73 809.563 376.171
internal_count=771049 704167 520269 183898 66882 42629 24253
is_linear=0
shrinkage=0.05


Tree=87
num_leaves=8
num_cat=0
split_feature=22 39 15 7 28 1 1
split_gain=115.601 115.905 111.007 31.0158 27.1043 23.0604 6.82463
threshold=0.4642101003524628 0.28151813287152133 0.27842394191923187 2.5000000000000004 3.5000000000000004 229.50000000000003 14.500000000000002
decision_type=2 2 2 2 2 2 2
left_child=1 2 -1 -3 6 -6 -2
right_child=4 3 -4 -5 5 -7 -8
leaf_value=0.0032757951634817158 -0.042226126892311602 0.018001922578794727 -0.0045833640348679474 -0.0036564068501537452 -0.011573887181259374 0.031225011153489541 -0.023340913475341969
leaf_weight=9849.7874775598757 54.838737662881613 1152.2496569333598 8259.8859737641178 192.60229405853897 318.86498444527388 33.944451293442398 447.41411703824997
leaf_count=327160 3523 29854 354839 6490 16995 1334 30854
internal_value=0 0.000743199 -0.00030885 0.0148997 -0.0180305 -0.00737951 -0.0254827
internal_weight=0 19454.5 18109.7 1344.85 855.062 352.809 502.253
internal_count=771049 718343 681999 36344 52706 18329 34377
is_linear=0
shrinkage=0.05


Tree=88
num_leaves=8
num_cat=0
split_feature=51 31 57 49 29 32 48
split_gain=112.075 102.075 106.286 47.4384 40.5352 33.5671 25.9059
threshold=1.0000000180025095e-35 0.3943549540278517 233.50000000000003 14.500000000000002 2.5000000000000004 0.38767844922601025 23151.484028064475
decision_type=2 2 2 2 2 2 2
left_child=1 2 -1 4 -2 -3 -5
right_child=3 5 -4 6 -6 -7 -8
leaf_value=-0.012179923838144242 0.0037021070866524106 -0.027290384643816747 0.0010584678079600877 0.039413348183778618 0.01923616970010749 -0.0098023396115741041 0.011761594771381834
leaf_weight=1706.0131844906136 2530.6495404411107 346.18488864041865 13559.489883662201 173.71793941268697 502.70553503185511 1321.2667454457842 166.74255333933979
leaf_count=76367 58628 22422 516629 3538 12197 77032 4236
internal_value=0 -0.0017051 -0.000421704 0.00827332 0.00628199 -0.0134473 0.0259448
internal_weight=0 16933 15265.5 3373.82 3033.36 1667.45 340.46
internal_count=771049 692450 592996 78599 70825 99454 7774
is_linear=0
shrinkage=0.05


Tree=89
num_leaves=8
num_cat=0
split_feature=7 46 47 58 55 50 39
split_gain=110.23 126.302 112.087 60.1791 30.7341 15.0994 14.3023
threshold=4.5000000000000009 2.5000000000000004 0.37366901585272799 4.2500000000000009 64.500000000000014 174.25000000000003 0.60522598165677788
decision_type=2 2 2 2 2 2 2
left_child=1 2 -1 -3 6 -6 -2
right_child=4 3 -4 -5 5 -7 -8
leaf_value=0.00047013724409564856 -0.017829355436129259 0.019468995152080906 -0.013988228520868446 0.0043440592974005035 0.044197445675245951 -0.0165791813502515 0.12934049681239732
leaf_weight=15101.517833157908 1006.5784311085008 1158.0035082097165 1470.0454989168793 1522.1190520604141 30.056507052853703 14.584878273308275 0.66790152667090197
leaf_count=537153 45834 31559 87796 67227 921 523 36
internal_value=0 0.000815683 -0.000813215 0.0108839 -0.0157989 0.0244128 -0.0176036
internal_weight=0 19251.7 16571.6 2680.12 1051.89 44.6414 1007.25
internal_count=771049 723735 624949 98786 47314 1444 45870
is_linear=0
shrinkage=0.05


Tree=90
num_leaves=8
num_cat=0
split_feature=5 58 57 58 28 13 17
split_gain=109.262 116.958 121.422 82.6306 52.5697 47.5962 31.7488
threshold=1.5000000000000002 29.250000000000004 197.50000000000003 5.7500000000000009 1.5000000000000002 0.31742983062437691 0.20099700164387013
decision_type=2 2 2 2 2 2 2
left_child=1 2 -1 4 -2 -3 -5
right_child=3 5 -4 6 -6 -7 -8
leaf_value=-0.013757358308007709 -0.0087301845206412421 -0.0032524792979763588 0.0058622265767908875 -0.007329771672803978 0.0047376089668118839 -0.018463726406850296 -0.019515254574935883
leaf_weight=849.00945751974359 1253.6513216975145 2778.5863097766414 10925.250591508579 1005.5798645298928 1714.0362522816285 630.24430220434442 1144.728469569236
leaf_count=31726 51551 124415 338559 56529 59428 36915 71926
internal_value=0 0.00208525 0.00444646 -0.00636167 -0.000952666 -0.00606941 -0.0138228
internal_weight=0 15183.1 11774.3 5118 2967.69 3408.83 2150.31
internal_count=771049 531615 370285 239434 110979 161330 128455
is_linear=0
shrinkage=0.05


Tree=91
num_leaves=8
num_cat=0
split_feature=8 32 57 54 58 50 23
split_gain=108.048 113.444 101.329 68.1899 32.3781 27.4239 14.1835
threshold=1.0000000180025095e-35 0.31847227719367416 614.50000000000011 1.0000000180025095e-35 3.7500000000000004 98.250000000000014 0.34893641055944996
decision_type=2 2 2 2 2 2 2
left_child=1 3 -3 -1 5 -2 -6
