tree
version=v3
num_class=1
num_tree_per_iteration=1
label_index=0
max_feature_idx=58
objective=binary sigmoid:1
feature_names=count_mcc_category_1 count_mcc_category_2 count_mcc_category_4 count_mcc_category_10 count_mcc_category_13 count_mcc_category_15 count_mcc_category_19 count_mcc_category_20 count_mcc_category_25 mean_mcc_category_2 mean_mcc_category_3 mean_mcc_category_4 mean_mcc_category_5 mean_mcc_category_6 mean_mcc_category_9 mean_mcc_category_10 mean_mcc_category_11 mean_mcc_category_12 mean_mcc_category_13 mean_mcc_category_15 mean_mcc_category_20 mean_mcc_category_21 mean_mcc_category_22 mean_mcc_category_26 mean_day_of_week_3 mean_day_of_week_4 count_operation_type_2 count_operation_type_4 count_operation_type_6 count_operation_type_8 count_operation_type_10 mean_operation_type_2 mean_operation_type_3 mean_operation_type_4 mean_operation_type_5 mean_operation_type_8 mean_operation_type_9 mean_operation_type_10 mean_operation_type_14 mean_operation_type_15 amnt_median hour_diff_mean count_mcc_category_3 mean_mcc_category_1 mean_mcc_category_7 count_operation_type_3 count_operation_type_11 mean_operation_type_1 hour_diff_var days_before_min days_before_median count_operation_type_20 count_mcc_category_7 count_mcc_category_9 product count_operation_type_5 days_before_max hour_diff_max hour_diff_median
feature_infos=[0:1474] [0:1713] [0:1341] [0:827] [0:529] [0:690] [0:595] [0:782] [0:431] [0:0.74398370055691865] [0:0.70578031386678697] [0:0.69232467430225642] [0:0.83247109178723067] [0:0.81099813237491536] [0:0.80981155409305838] [0:0.73351384320349444] [0:0.72879655447506198] [0:0.75551136073747749] [0:0.72305744466641164] [0:0.77848738101455917] [0:0.73135913480179104] [0:0.75301869579349545] [0:0.74315218054386456] [0:0.75674846184124411] [0:0.73634699453060093] [0:0.75546316915207912] [0:3327] [0:1154] [0:794] [0:726] [0:1169] [0:0.7959225143594667] [0:0.74719508375001564] [0:0.78158727660145455] [0:0.70767760496804821] [0:0.76222625499046137] [0:0.72277215563887443] [0:0.73629085267520311] [0:0.77524212449746832] [0:0.75551136073747749] [0:0.72382556943224252] [-0.1666666666666666:1424] [0:1824] [0:0.61765447885006008] [0:0.79318299138017545] [0:1023] [0:2169] [0:0.73519577310048456] [0.1111111111111111:10528472.566666666] [1:354] [1:358] [0:165] [0:532] [0:875] [0:4] [0:1358] [1:359] [0:8393] [0:1535]
tree_sizes=989 1013 1012 1009 1019 1007 1010 1006 1009 1015 1014 1011 1011 1016 1014 1016 1014 1015 1011 1011 1017 1009 1021 1015 1015 1011 1012 1013 1018 1024 1015 1011 1020 1015 1012 1016 1007 1015 1014 1017 1014 1016 1015 1019 1014 1015 1012 1018 1016 1016 1017 1010 1022 1010 1017 1018 1015 1015 1016 1017 1017 1020 1015 1026 1016 1012 1022 1019 1014 999 1014 1014 998 1020 1025 1029 1021 1019 1005 1003 1015 1018 1008 1023 1004 1019 1025 1016 1021 1005 1008 1023 1012 1018 1020 1013 1006 1024 1025 1015 1006 1038 1020 1007 1009 1008 1019 1025 1013 1018 1019 1021 1016 1021 1007 1013 1024 1009 1021 1020 1015 1014 1020 1007 1006 1025 1014 1018 1018 1012 1019 1005 1020 1008 1017 1017 1006 1017 1020 1010 1006 1016 1012 1008 1011 1012 1013 1013 1021 1014 1025 1011 1017 1025 1020 1017 1013 1009 1006 1023 1019 1015 1011 1011 1001 1010 1017 1001 1027 1008 1025 1022 1008 1021 1027 1011 1013 1013 1017 1004 1012 1021 1010 1013 1005 1022 1009 1028 1017 1020 1019 1025 1013 1016 1029 1026 1001 1001 1007 1012 1011 1021 1024 1021 1017 1021 1016 1008 1013 1000 1021 1013 1017 1017 1027 1019 1013 1023 1017 1015 1020 1022 1006 913 1017 1023 1022 1013 1008 1025 996 1012 1009 1020 1024 1016 1006 1005 1001 1018 1019 1019 1011 1022 1020 1017 1001 1015 1009 1011 1020 1019 1024 1021 903 1020 1023 1011 1015 1013 1017 1018 1014 1003 1005 1027 1030 1005 1019 1008 1026 1011 1021 1015 1008 1028 1023 1011 1005 1005 999 1011 1024 1027 1016 1007 1016 1020 1021 1006 1010 1011 1013 1009 1005 1000 1020 1015 1017 1020 1018 1012 1005 1013 1012 1001 1020 1014 1023 1021 913 1008 1007 1014 1018 1029 1023 1018 1002 1012 1011 1006 1018 1023 1004 1009 1022 1020 1023 1012 1009 1018 1015 1020 1010 1029 1024 1016 1009 1010 1011 1016 1022 1027 1017 1031 1009 1008 1020 1015 1015 1020 1009 1023 1001 1009 1017 1014 1013 1021 1005 1013 1016 1018 1020 1018 1015 1007 1025 1009 1024 1011 905 1019 1020 1013 1013 1035 1008 1026 1026 1011 1001 1015 1002 1011 1012 1013 1012 1012 1005 993 1024 1006 1018 1005 998 1018 1024 1021 1016 1013 1007 1019 1019 1018 1012 1010 1017 1018 1023 1018 1015 1025 1019 1015 1026 1009 1009 1029 1010 1009 1014 1021 1007 996 1019 1012 1011 1009 1013 1011 1014 1012 1007 1013 1011 1018 1012 1015 1006 1001 1023 1012 1019 1018 1008 1021 1005 1003 1011 1007 1011 1020 1029 1010 1011 896 1020 1002 1019 1021 1003 1027 909 1024 1023 1027 1017 1010 1005 1013 1017 1025 1004 1006 1024 1016 1012 1014 1004 1015 1012 778 1005 1013 997 909 1020 1011 1021 1020 1011 1024 996 1030 1016 1013 1022 1019 1006 1012 1023 1019 1009 1008 1002 1020 1003 1010 1011 976 779 1018 1020 888 1012 1014 1018 1005 1014 1010 1007 1005 1015 1020 999 995 1005 1005 1016 1019 1012 1007 1019 1007 1000 1022 1014 1016 1029 1014 1013 1007 1011 1012 1009 1013 1025 1003 1017 1015 1017 1030 1025 898 1011 1021 1016 1015 1020 898 1019 1016 1011 1025 981 1016 1013 1034 1026 1011 1005 905 1025 1022 1007 1001 1012 1005 1003 1015 1025 1025 1016 1026 1024 1009 1010 988 1002 1010 1000 1016 1018 1014 1012 1023 1006 989 1018 1016 997 1018 1018 1024 1000 1022 1029 1016 1007 1025 1009 1025 1009 683 1006 1012 1035 1021 1014 984 1020 1018 988 1025 1019 1022 1015 1019 993 680 1011 1021 1004 906 682 1012 997 1004 1020 1020 1006 1010 681 1020 1023 1016 1017 1015 1014 1025 1020 1022 1034 1018 1019 685 883 1013 1012 1023 1021 994 1022 1009 1007 1023 1015 885 1021 1032 1028 1011 1009 1018 1001 682 1002 695 1015 1017 1017 1007 1015 880 1022 1015 1014 1003 1011 1008 1022 1019 1029 689 1014 1023 997 1015 1012 1015 1010 1002 1006 1013 1025 990 904 1017 676 685 1029 1013 1018 1012 1017 1023 1009 1027 1023 993 1006 1015 902 687 1011 1018 1012 1020 1003 1010 1000 885 678 994 1001 1002 988 1006 1011 1023 1027 1016 1027 1016 1028 1016 1007 1026 1018 682 1004 1017 1021 1028 1014 1017 1015 1020 1029 1008 1025 995 1016 1018 1007 1018 1017 1016 1016 1023 898 1019 1017 1001 1012 1021 1007 1020 1022 1010 1004 1025 996 687 680 998 1011 1018 1014 1018 1021 1020 1016 1017 1022 1023 998 1010 1020 1018 1015 1004 1008 993 902 1010 1023 999 976 989 997 1026 1004 1012 679 1009 1001 895 1010 1019 1016 573 1009 1008 1013 1025 1017 1015 1019 1025 992 694 985 1010 1037 1009 1001 889 673 1005 1019 1013 1003 986 1007 1021 991 1014 1002 1006 1003 1007 1017 1032 1020 1017 1021 684 1003 675 1008 1012 1020 1017 1005 1021 1025 1013 1016 1017 1004 988 1000 1025 1022 1024 1023 1027 1017 991 1020 1030 1016 1022 1015 1015 901 996 1030 1018 999 1009 1011 1022 685 999 989 1007 1017 1034 1013 1006 989 1000 1020 1015 1028 1032 1014 1029 1017 1019 681 990 999 1017 1003 1007 1007 1017 1013 675 897 1011 1009 998 1006 1010 996 1021 1001 1020 1023 1016 1026 1014 1020 1031 1003 1021 993 1002 1013 1023 1026 1013 990 1013 681 1014 1019 1013 1010 1025 1011 987 987 994 881 1014 1034 1018 1007 1016 684 998 986 673 889 1019 1029 1019 1004 1002 991 991 1011 1006 1014 1010 683 1012 1016 897 1015 1017 1009 673 996 1021 1026 1021 1017 1008 993 991

Tree=0
num_leaves=8
num_cat=0
split_feature=40 58 43 52 58 52 44
split_gain=3057.18 1419.85 1207.41 1197.97 1095.99 524.758 236.98
threshold=0.31311765310220657 3.7500000000000004 0.3312812027751752 10.500000000000002 4.7500000000000009 4.5000000000000009 0.34231752064033266
decision_type=2 2 2 2 2 2 2
left_child=1 3 4 -1 -2 -3 -4
right_child=2 5 6 -5 -6 -7 -8
leaf_value=-3.3864216271969134 -3.5228081307276229 -3.5060890761475392 -3.5741391974906858 -3.5154045535891667 -3.5669974227741297 -3.5565203379760941 -3.5916263111645828
leaf_weight=337.74888692423701 1710.6392882764339 866.92364858463407 3083.0741051584482 386.41602797433734 7785.5366091243923 1272.2866307012737 5220.7836356014013
leaf_count=12603 63832 32349 115044 14419 290515 47475 194812
internal_value=-3.5635 -3.51555 -3.57121 -3.45509 -3.55903 -3.53607 -3.58514
internal_weight=0 2863.38 17800 724.165 9496.18 2139.21 8303.86
internal_count=771049 106846 664203 27022 354347 79824 309856
is_linear=0
shrinkage=1


Tree=1
num_leaves=8
num_cat=0
split_feature=43 58 52 51 50 55 55
split_gain=2761.86 2861.11 1455.33 727.6 432.839 320.832 197.59
threshold=0.31543291293412895 4.7500000000000009 10.500000000000002 1.0000000180025095e-35 127.25000000000001 5.5000000000000009 22.500000000000004
decision_type=2 2 2 2 2 2 2
left_child=1 2 -1 -3 5 -2 -6
right_child=4 3 -4 -5 6 -7 -8
leaf_value=0.10969923322035767 -0.0098159391294152087 -0.0014060043240021311 0.027375343088139249 0.04441319312951339 -0.025379954781650865 0.028138016510123227 -0.0011466974328450093
leaf_weight=1128.9755003955215 2237.7851117122918 6249.9487030729651 1024.4223153926432 1004.8749790918082 7336.1790285166353 740.13040852919221 950.19780553132296
leaf_count=38998 84407 232410 36891 37307 277298 27868 35870
internal_value=0 0.0199713 0.0705667 0.00494572 -0.0167266 -0.000376593 -0.0226016
internal_weight=0 9408.22 2153.4 7254.82 11264.3 2977.92 8286.38
internal_count=771049 345606 75889 269717 425443 112275 313168
is_linear=0
shrinkage=0.05


Tree=2
num_leaves=8
num_cat=0
split_feature=43 58 52 54 50 55 43
split_gain=2485.73 2435.87 1174.01 574.677 462.535 345.261 226.191
threshold=0.31074501468161714 5.7500000000000009 7.5000000000000009 1.5000000000000002 127.25000000000001 5.5000000000000009 0.34850504122469161
decision_type=2 2 2 2 2 2 2
left_child=1 2 -1 -3 5 -2 -6
right_child=4 3 -4 -5 6 -7 -8
leaf_value=0.097786620936514024 -0.0082784498356919291 -0.0061087249067839598 0.030063963245935851 0.028554582695025713 -0.013509008306201095 0.029062714640095889 -0.029685588114117548
leaf_weight=1178.5800105538219 2415.7611266393214 4494.8630085885525 1401.7373686954379 1627.944938601926 4787.8215065561235 831.19055630080402 3942.4085311107337
leaf_count=37865 91600 166534 48923 60004 182237 30393 153493
internal_value=0 0.0202857 0.0610227 0.00311079 -0.014825 0.00128656 -0.0208166
internal_weight=0 8703.13 2580.32 6122.81 11977.2 3246.95 8730.23
internal_count=771049 313326 86788 226538 457723 121993 335730
is_linear=0
shrinkage=0.05


Tree=3
num_leaves=8
num_cat=0
split_feature=43 58 52 54 44 58 55
split_gain=2247.6 2045.9 1286.8 478.114 365.749 274.181 195.056
threshold=0.31815207753356584 6.7500000000000009 10.500000000000002 1.5000000000000002 0.33772973599795203 13.750000000000002 22.500000000000004
decision_type=2 2 2 2 2 2 2
left_child=1 2 -1 -3 5 -2 -6
right_child=4 3 -4 -5 6 -7 -8
leaf_value=0.072879419522407632 0.0097031196674481797 -0.008321278628371398 0.01361288895037825 0.02228810219593505 -0.027273068715543403 -0.01632198054892622 -0.00072396572962527298
leaf_weight=2038.3053784612566 1817.5952500812709 4825.6475520171225 1663.5128908175975 1733.0795865897089 5535.7191132940352 2281.0178271811455 790.68370637856424
leaf_count=63369 69240 180323 58478 62550 218035 88697 30357
internal_value=0 0.0165441 0.0462573 -0.000230884 -0.0164183 -0.00478118 -0.0239556
internal_weight=0 10260.5 3701.82 6558.73 10425 4098.61 6326.4
internal_count=771049 364720 121847 242873 406329 157937 248392
is_linear=0
shrinkage=0.05


Tree=4
num_leaves=8
num_cat=0
split_feature=43 58 52 53 58 51 55
split_gain=2027.32 1771.22 1191.96 406.783 655.502 352.426 239.017
threshold=0.31543291293412895 9.2500000000000018 6.5000000000000009 4.5000000000000009 13.250000000000002 1.0000000180025095e-35 22.500000000000004
decision_type=2 2 2 2 2 2 2
left_child=1 2 -1 4 -2 -3 -5
right_child=3 5 -4 6 -6 -7 -8
leaf_value=0.069392878556106305 0.019234018645640023 -0.007706417311370329 0.017006973807178426 -0.029165803375890333 -0.017849576468209696 0.029436717891782638 -0.00041626718145873368
leaf_weight=1921.4658464062959 1805.4856632985175 4757.1203169021755 2497.2476159147918 4613.0497755873948 3500.4623533003032 736.64588455297053 857.30321459472179
leaf_count=57504 69600 177174 84816 183571 139641 26112 32631
internal_value=0 0.0162343 0.0397974 -0.015095 -0.00522968 -0.00272153 -0.0246611
internal_weight=0 9912.48 4418.71 10776.3 5305.95 5493.77 5470.35
internal_count=771049 345606 142320 425443 209241 203286 216202
is_linear=0
shrinkage=0.05


Tree=5
num_leaves=8
num_cat=0
split_feature=40 50 54 54 51 55 30
split_gain=1846.31 972.079 757.751 802.415 517.623 496.91 361.044
threshold=0.31311765310220657 115.25000000000001 1.5000000000000002 2.5000000000000004 1.0000000180025095e-35 6.5000000000000009 4.5000000000000009
decision_type=2 2 2 2 2 2 2
left_child=2 5 6 -4 -3 -2 -1
right_child=1 4 3 -5 -6 -7 -8
leaf_value=0.010419035377680338 0.0062001235620005885 -0.016313166737376806 0.099143819143791334 0.0066905160045740352 0.01688970107301772 0.050289091394864531 0.073179049593661963
leaf_weight=1994.2410771250725 3197.3049084842205 12079.832888074219 714.92277685925364 349.37123867124319 1299.3407089915127 797.85675414279103 257.99219617620111
leaf_count=65999 119144 470030 21335 11330 47253 27776 8182
internal_value=0 -0.00662494 0.034081 0.0688293 -0.0130876 0.0150153 0.0176375
internal_weight=0 17374.3 3316.53 1064.29 13379.2 3995.16 2252.23
internal_count=771049 664203 106846 32665 517283 146920 74181
is_linear=0
shrinkage=0.05


Tree=6
num_leaves=8
num_cat=0
split_feature=43 58 56 54 44 58 55
split_gain=1754.26 1487.61 743.994 536.948 339.543 232.911 173.091
threshold=0.31856616123268683 4.7500000000000009 324.50000000000006 1.5000000000000002 0.33772973599795203 14.250000000000002 22.500000000000004
decision_type=2 2 2 2 2 2 2
left_child=1 2 -1 -3 5 -2 -6
right_child=4 3 -4 -5 6 -7 -8
leaf_value=0.082080552024608011 0.0090239902346536723 -0.0051799914669595527 0.02726372831631322 0.024138468861498445 -0.025960926642354033 -0.015257677018584222 -0.00077650858646185073
leaf_weight=916.32055872678757 1865.2650414779782 5745.1967418454587 1908.6732314284891 2143.508555913344 5232.1431601084769 2096.678873077035 784.61730400845408
leaf_count=24086 71090 212830 57287 73442 216982 85114 30218
internal_value=0 0.0139396 0.045067 0.00278843 -0.015194 -0.00382659 -0.0226774
internal_weight=0 10713.7 2824.99 7888.71 9978.7 3961.94 6016.76
internal_count=771049 367645 81373 286272 403404 156204 247200
is_linear=0
shrinkage=0.05


Tree=7
num_leaves=8
num_cat=0
split_feature=56 54 51 31 58 55 47
split_gain=1623.73 884.497 868.46 606.765 453.698 442.667 303.208
threshold=310.50000000000006 1.5000000000000002 1.0000000180025095e-35 0.33120618082395215 6.7500000000000009 6.5000000000000009 0.3082298462056548
decision_type=2 2 2 2 2 2 2
left_child=1 5 3 -2 -3 -1 -4
right_child=2 4 6 -5 -6 -7 -8
leaf_value=0.0025644749562754613 -0.0019530948762066327 0.093269180885947156 0.054687275383766047 -0.022468653194624558 0.03485594339422133 0.050141965560410097 0.010769239529680126
leaf_weight=2497.432252926752 7770.018415434286 588.83493533171713 598.77907834947109 6721.400975368917 766.30031638406217 606.93032511696219 1141.8735559750348
leaf_count=91022 285355 15369 18576 272725 26581 19995 41426
internal_value=0 0.0265998 -0.00746086 -0.0114695 0.0602878 0.0118794 0.0258996
internal_weight=0 4459.5 16232.1 14491.4 1355.14 3104.36 1740.65
internal_count=771049 152967 618082 558080 41950 111017 60002
is_linear=0
shrinkage=0.05


Tree=8
num_leaves=8
num_cat=0
split_feature=9 58 50 52 53 44 51
split_gain=1546.28 1228.26 615.184 484.02 425.65 315.332 265.976
threshold=0.43769709219080194 3.7500000000000004 129.25000000000003 14.500000000000002 3.5000000000000004 0.32365453466069288 1.0000000180025095e-35
decision_type=2 2 2 2 2 2 2
left_child=1 3 5 -1 -3 -2 -4
right_child=2 4 6 -5 -6 -7 -8
leaf_value=0.088395956702399275 0.019795252977741658 0.02211392898248634 -0.018604794360710185 0.022982340613070158 -0.0079363801898252508 -0.0065335927317892494 0.0083212965584484062
leaf_weight=803.91815068759024 2215.9555434789509 2843.555463956669 9024.7456797268242 437.33402195945382 2011.145971512422 2334.221849443391 1020.3053208738565
leaf_count=20191 76188 102284 361547 14583 73209 87272 35775
internal_value=0 0.0210204 -0.00896093 0.0653856 0.00966599 0.0062902 -0.0158693
internal_weight=0 6095.95 14595.2 1241.25 4854.7 4550.18 10045.1
internal_count=771049 210267 560782 34774 175493 163460 397322
is_linear=0
shrinkage=0.05


Tree=9
num_leaves=8
num_cat=0
split_feature=43 58 52 53 58 54 55
split_gain=1429.91 1196.69 954.578 324.122 471.575 212.228 204.274
threshold=0.31933176976207295 13.750000000000002 5.5000000000000009 4.5000000000000009 13.250000000000002 1.5000000000000002 22.500000000000004
decision_type=2 2 2 2 2 2 2
left_child=1 2 -1 4 -2 -3 -5
right_child=3 5 -4 6 -6 -7 -8
leaf_value=0.050344326855422887 0.016584902680079401 -0.012398944784620426 0.010225381536132776 -0.028066774581467797 -0.016499740304059422 0.010505617034620357 -0.00025647285629455777
leaf_weight=2539.5748381186277 1644.4501294754446 3626.4793758746237 3562.4124577660114 4007.9495653565973 3117.1655817199498 1401.4442253261805 790.524897294119
leaf_count=69870 63101 139316 115902 172373 131689 47971 30827
internal_value=0 0.0120473 0.0269279 -0.0143164 -0.00507269 -0.00601389 -0.0234862
internal_weight=0 11129.9 6101.99 9560.09 4761.62 5027.92 4798.47
internal_count=771049 373059 185772 397990 194790 187287 203200
is_linear=0
shrinkage=0.05


Tree=10
num_leaves=8
num_cat=0
split_feature=9 58 52 50 53 51 44
split_gain=1320.67 1093.71 515.838 493.402 424.353 243.03 225.37
threshold=0.4429176162421819 4.7500000000000009 14.500000000000002 129.25000000000003 3.5000000000000004 1.0000000180025095e-35 0.35355314340592464
decision_type=2 2 2 2 2 2 2
left_child=1 2 -1 5 -3 -2 -5
right_child=3 4 -4 6 -6 -7 -8
leaf_value=0.065104480648768837 0.00033709036922642148 0.015877385554130704 0.01345548248087459 -0.0096832114644321166 -0.014336220800061254 0.036938542170958676 -0.025758408332708593
leaf_weight=1397.973833527416 3816.1279959529638 3069.5500314105302 739.63822504132986 5778.9986966978759 1868.9156635627151 513.69840008206666 3502.4514697603881
leaf_count=33545 138648 110772 24693 224470 71039 16364 151518
internal_value=0 0.0173786 0.047248 -0.00924999 0.00444274 0.00468708 -0.0157515
internal_weight=0 7076.08 2137.61 13611.3 4938.47 4329.83 9281.45
internal_count=771049 240049 58238 531000 181811 155012 375988
is_linear=0
shrinkage=0.05


Tree=11
num_leaves=8
num_cat=0
split_feature=44 58 18 58 52 53 54
split_gain=1247.23 1184.36 658.072 403.998 469.753 271.879 234.939
threshold=0.32463136918351415 13.750000000000002 0.24283604000898262 4.7500000000000009 16.500000000000004 4.5000000000000009 1.5000000000000002
decision_type=2 2 2 2 2 2 2
left_child=1 2 -1 4 -2 -5 -3
right_child=3 6 -4 5 -6 -7 -8
leaf_value=0.049266587866542783 0.024893254275949336 -0.010970725655613141 0.013499894615066156 -0.01019043587808198 -0.015816183748299916 -0.029842142501883124 0.012273708575663235
leaf_weight=2219.8425292801112 1314.7290060725063 3986.2610963266343 3057.905213162303 3787.8150519225746 1534.7921090908349 3289.2032473012805 1493.6027927398682
leaf_count=62893 41968 159536 97672 152323 62091 141677 52889
internal_value=0 0.0116474 0.02855 -0.0129271 0.00296872 -0.0193269 -0.00463409
internal_weight=0 10757.6 5277.75 9926.54 2849.52 7077.02 5479.86
internal_count=771049 372990 160565 398059 104059 294000 212425
is_linear=0
shrinkage=0.05


Tree=12
num_leaves=8
num_cat=0
split_feature=51 56 31 47 58 58 12
split_gain=1197.46 847.274 468.62 445.618 415.903 171.175 142.898
threshold=1.0000000180025095e-35 323.50000000000006 0.34349016252160941 0.30232606756685393 8.7500000000000018 2.7500000000000004 0.35926114215890842
decision_type=2 2 2 2 2 2 2
left_child=1 4 -3 5 -1 -2 -5
right_child=3 2 -4 6 -6 -7 -8
leaf_value=0.030249043029217538 0.1150312925530783 -0.0037349681127324431 -0.022902858038422381 0.029012796893621684 -0.00040183841934075446 0.052112268150655873 -0.0010893686862806695
leaf_weight=2139.2702806461602 127.36759994737804 8727.034506553784 5024.0159862525761 995.11568281985819 2291.8298084922135 723.93837304413319 652.38703139312565
leaf_count=60167 2661 325731 218996 32667 87446 19729 23652
internal_value=0 -0.00461231 -0.0107392 0.0322956 0.0143994 0.0616498 0.0170993
internal_weight=0 18182.2 13751.1 2498.81 4431.1 851.306 1647.5
internal_count=771049 692340 544727 78709 147613 22390 56319
is_linear=0
shrinkage=0.05


Tree=13
num_leaves=8
num_cat=0
split_feature=43 58 51 53 58 55 56
split_gain=1109.28 889.563 452.102 437.143 620.951 242.858 162.952
threshold=0.30413463891394099 12.250000000000002 1.5000000000000002 5.5000000000000009 13.250000000000002 22.500000000000004 162.50000000000003
decision_type=2 2 2 2 2 2 2
left_child=1 2 -1 4 -2 -5 -3
right_child=3 6 -4 5 -6 -7 -8
leaf_value=0.023659148883549797 0.016233999288397277 0.031280166062960739 0.074472945724242054 -0.025468692742701717 -0.014206277468107351 0.0029730537270257415 -0.0058929864654289517
leaf_weight=3889.924806766212 2872.7189720086753 318.69625654257834 492.65085841342807 4394.6412183642387 4016.4319085683674 904.85894128493965 3787.0027705188841
leaf_count=105655 101895 10691 11883 191209 172716 35087 141913
internal_value=0 0.0137229 0.0293869 -0.00981807 -0.00151242 -0.0206128 -0.00300058
internal_weight=0 8488.27 4382.58 12188.7 6889.15 5299.5 4105.7
internal_count=771049 270142 117538 500907 274611 226296 152604
is_linear=0
shrinkage=0.05


Tree=14
num_leaves=8
num_cat=0
split_feature=44 58 55 4 56 53 54
split_gain=1048.51 944.644 504.397 386.438 315.128 297.304 192.125
threshold=0.31146338311081839 14.750000000000002 6.5000000000000009 1.5000000000000002 352.50000000000006 4.5000000000000009 1.5000000000000002
decision_type=2 2 2 2 2 2 2
left_child=1 3 5 -1 -4 -2 -3
right_child=2 6 4 -5 -6 -7 -8
leaf_value=0.040280436349562188 -0.0082708682917953785 -0.0095198238498273649 0.02873725323044456 0.010087910950766582 -0.0041374643707113006 -0.027736092542176394 0.012770776762929835
leaf_weight=2783.4025325085968 4219.6946391649544 3401.4008248280734 1025.5945894178003 1712.418622545898 2513.6299564894289 3666.8281543087214 1349.362820090726
leaf_count=74554 164060 138925 34091 52389 100813 158925 47292
internal_value=0 0.0123596 -0.0102866 0.0287852 0.00539438 -0.0173236 -0.00318725
internal_weight=0 9246.58 11425.7 4495.82 3539.22 7886.52 4750.76
internal_count=771049 313160 457889 126943 134904 322985 186217
is_linear=0
shrinkage=0.05


Tree=15
num_leaves=8
num_cat=0
split_feature=9 58 52 53 58 52 58
split_gain=997.355 753.362 657.065 375.887 400.456 252.347 198.715
threshold=0.44694227344535414 9.7500000000000018 10.500000000000002 4.5000000000000009 17.750000000000004 5.5000000000000009 4.7500000000000009
decision_type=2 2 2 2 2 2 2
left_child=1 2 -1 4 -2 -3 -5
right_child=3 5 -4 6 -6 -7 -8
leaf_value=0.044051369700748327 0.010778735702853561 0.0053843324671452751 0.0046774502303988689 -0.0072697668474678186 -0.012183201480343974 -0.023487044131187514 -0.027664593390812897
leaf_weight=2546.8306607790291 3426.2998220771551 2560.813891030848 1814.3918401114643 1981.9730941429734 4256.6131792832166 1073.2075690906495 3007.9772150740027
leaf_count=61581 115307 97212 61329 78943 176818 43823 136036
internal_value=0 0.0136677 0.0276755 -0.00888342 -0.00194294 -0.00314614 -0.019567
internal_weight=0 7995.24 4361.22 12672.9 7682.91 3634.02 4989.95
internal_count=771049 263945 122910 507104 292125 141035 214979
is_linear=0
shrinkage=0.05


Tree=16
num_leaves=8
num_cat=0
split_feature=50 51 9 31 58 12 12
split_gain=953.772 529.812 525.014 383.393 349.596 146.416 122.975
threshold=115.25000000000001 1.0000000180025095e-35 0.45662576761671153 0.34540576231902093 3.7500000000000004 0.35976703065126964 0.3713122669910382
decision_type=2 2 2 2 2 2 2
left_child=2 3 4 -2 -1 -3 -4
right_child=1 5 6 -5 -6 -7 -8
leaf_value=0.061609717682156409 -0.0041638558692411887 0.027612688136200741 0.0094914667632769473 -0.022192949354882127 0.0218803289892898 -0.0033775725020127895 -0.012558280343597497
leaf_weight=763.71833449788392 8701.2111759968102 1287.1223141178489 1963.3212592434138 4459.7622210271657 2014.7088028881699 541.01116794347763 931.55787695944309
leaf_count=14948 328110 37956 66824 205136 63136 19912 35027
internal_value=0 -0.00677076 0.0172975 -0.0102745 0.0328192 0.0184447 0.00239408
internal_weight=0 14989.1 5673.31 13161 2778.43 1828.13 2894.88
internal_count=771049 591114 179935 533246 78084 57868 101851
is_linear=0
shrinkage=0.05


Tree=17
num_leaves=8
num_cat=0
split_feature=12 58 52 53 55 57 4
split_gain=901.97 905.887 665.67 279.763 181.241 165.39 142.366
threshold=0.35926114215890842 13.750000000000002 6.5000000000000009 1.5000000000000002 8.5000000000000018 406.50000000000006 1.5000000000000002
decision_type=2 2 2 2 2 2 2
left_child=1 2 -1 -3 6 -6 -2
right_child=4 3 -4 -5 5 -7 -8
leaf_value=0.034600574603498357 -0.011865589544902619 0.00061692057452869065 0.0048882878476318378 -0.021475971741915137 -0.012609087260656232 0.020211397612720356 -0.028843662809225491
leaf_weight=3532.9288962483406 2524.8240196388215 4297.2108851112425 4041.0111378282309 2148.7494229376316 1105.0544133409858 586.86640408448875 2419.9273994080722
leaf_count=90012 103177 169354 139286 94510 44796 22545 107369
internal_value=0 0.00702652 0.0187506 -0.00674989 -0.0153463 -0.00121963 -0.0201787
internal_weight=0 14019.9 7573.94 6445.96 6636.67 1691.92 4944.75
internal_count=771049 493162 229298 263864 277887 67341 210546
is_linear=0
shrinkage=0.05


Tree=18
num_leaves=8
num_cat=0
split_feature=51 44 55 47 55 30 56
split_gain=854.704 632.716 552.848 247.219 194.935 111.38 93.6748
threshold=1.0000000180025095e-35 0.33772973599795203 4.5000000000000009 0.29964074968628907 6.5000000000000009 2.5000000000000004 219.50000000000003
decision_type=2 2 2 2 2 2 2
left_child=1 2 -1 6 -3 -5 -2
right_child=3 4 -4 5 -6 -7 -8
leaf_value=-0.0032313595345064418 0.077870958611769653 -0.021722208755981711 0.022395716399661595 0.0073525430603676514 -0.0033922901870263515 0.035060700899494555 0.038795121240485259
leaf_weight=8331.7178868930787 196.73966887593269 4724.0498039331287 2814.6251620296389 1270.6279661040753 2093.551444824785 506.99876463972032 712.65211951360106
leaf_count=301840 3756 214337 90262 42080 85901 16037 16836
internal_value=0 -0.00409753 0.0032413 0.0261326 -0.0160948 0.0152705 0.0473251
internal_weight=0 17963.9 11146.3 2687.02 6817.6 1777.63 909.392
internal_count=771049 692340 392102 78709 300238 58117 20592
is_linear=0
shrinkage=0.05


Tree=19
num_leaves=8
num_cat=0
split_feature=50 9 58 43 37 53 53
split_gain=833.67 492.193 414.221 379.034 358.757 135.893 41.33
threshold=138.25000000000003 0.46226852450543532 6.7500000000000009 0.34566330366135417 0.27139486552278397 2.5000000000000004 1.5000000000000002
decision_type=2 2 2 2 2 2 2
left_child=1 2 -1 4 -2 -3 -5
right_child=3 5 -4 6 -6 -7 -8
leaf_value=0.039042993476619006 -0.0092570893168867109 0.0075861005865590636 0.0082365819446884193 -0.014118690241393958 0.01269450830920946 -0.011450116651118648 -0.027135485188590325
leaf_weight=2192.3812968432903 6871.5947669688612 2099.8858491256833 2172.7279366068542 845.86079205013812 2551.6011856142431 1692.0137318000197 2219.9425718486309
leaf_count=49420 261857 73764 77524 39438 89100 67252 112694
internal_value=0 0.0122692 0.0237145 -0.00828176 -0.00331235 -0.000908981 -0.0235499
internal_weight=0 8157.01 4365.11 12489 9423.2 3791.9 3065.8
internal_count=771049 267960 126944 503089 350957 141016 152132
is_linear=0
shrinkage=0.05


Tree=20
num_leaves=8
num_cat=0
split_feature=12 58 53 53 55 53 57
split_gain=773.258 736.112 531.065 233.229 204.688 160.072 155.151
threshold=0.35118316175301595 13.750000000000002 5.5000000000000009 1.5000000000000002 8.5000000000000018 2.5000000000000004 437.50000000000006
decision_type=2 2 2 2 2 2 2
left_child=1 2 -1 -3 5 -2 -6
right_child=4 3 -4 -5 6 -7 -8
leaf_value=0.029448771413337623 -0.0081700897536630453 0.0010100216331328355 0.0016341294601805894 -0.020081164101085056 -0.0086061846333769527 -0.025382269320393371 0.02163262614257716
leaf_weight=4191.8000938408077 2379.9056868758053 4143.3240039367229 2905.3651882223785 1916.2333077006042 1361.1620480120182 3126.8210353925824 615.03579710237682
leaf_count=107454 94443 163356 97630 86763 54549 144155 22699
internal_value=0 0.00713708 0.0180641 -0.00566192 -0.0129932 -0.0179463 0.000810973
internal_weight=0 13156.7 7097.17 6059.56 7482.92 5506.73 1976.2
internal_count=771049 455203 205084 250119 315846 238598 77248
is_linear=0
shrinkage=0.05


Tree=21
num_leaves=8
num_cat=0
split_feature=18 58 58 30 52 54 52
split_gain=733.865 805.409 440.492 322.283 289.859 193.301 171.412
threshold=0.2911972508780144 17.750000000000004 3.7500000000000004 1.5000000000000002 22.500000000000004 1.5000000000000002 12.500000000000002
decision_type=2 2 2 2 2 2 2
left_child=1 3 4 -1 -2 -3 -4
right_child=2 5 6 -5 -6 -7 -8
leaf_value=0.015996673563162526 0.023260466466492286 -0.01129016083214595 -0.010166742593019208 0.045432649643006078 -0.011239964608976147 0.010689798353151208 -0.025829874187826798
leaf_weight=4264.7370307780802 1424.2827688027173 3668.1167936064303 4951.3159152530134 1189.015083277598 1061.9405864458531 1374.285177892074 2699.9166230298579
leaf_count=124830 40750 159303 200225 32081 43958 49801 120101
internal_value=0 0.0091053 -0.00975572 0.0224214 0.0085257 -0.00529868 -0.0156965
internal_weight=0 10496.2 10137.5 5453.75 2486.22 5042.4 7651.23
internal_count=771049 366015 405034 156911 84708 209104 320326
is_linear=0
shrinkage=0.05


Tree=22
num_leaves=8
num_cat=0
split_feature=50 44 55 30 4 51 47
split_gain=706.06 427.824 352.224 313.447 251.984 251.251 177.817
threshold=142.25000000000003 0.30063477863815596 6.5000000000000009 1.0000000180025095e-35 1.5000000000000002 1.0000000180025095e-35 0.3149079662178344
decision_type=2 2 2 2 2 2 2
left_child=1 5 -3 4 -2 -1 -5
right_child=3 2 -4 6 -6 -7 -8
leaf_value=0.01746060467156112 -0.006170966746250086 -0.0079912084863647068 0.020847934205383504 0.019191696637535074 -0.023700920523316411 0.052140058281771012 -0.0045276744979317052
leaf_weight=3207.0827947575599 5120.9675053320825 3440.2677156683058 1528.2472982574254 1317.1656449828297 3418.5648560356349 623.47692711465061 1971.8206715025008
leaf_count=96038 207164 130160 47638 39967 151665 13701 84716
internal_value=0 0.0105632 0.000881728 -0.0081397 -0.0131906 0.0231173 0.00497435
internal_weight=0 8799.07 4968.52 11828.5 8539.53 3830.56 3288.99
internal_count=771049 287537 177798 483512 358829 109739 124683
is_linear=0
shrinkage=0.05


Tree=23
num_leaves=8
num_cat=0
split_feature=43 55 54 58 44 34 55
split_gain=681.433 592.136 496.088 404.451 122.846 112.195 72.4831
threshold=0.33862335515590652 6.5000000000000009 1.5000000000000002 2.2500000000000004 0.35453350168725584 0.39165356499631609 75.500000000000014
decision_type=2 2 2 2 2 2 2
left_child=1 2 -1 -3 5 -2 -6
right_child=4 3 -4 -5 6 -7 -8
leaf_value=-0.0069330425089492139 -0.016000637223350191 0.058954599154055959 0.016245308690951386 0.015136928027644901 -0.023647804359462236 0.0050583598458435845 0.024809486229374574
leaf_weight=8144.3119944948703 1540.2629686314613 632.87932615354657 3220.5708986017853 3120.890570435673 2812.5851214397699 1071.9738720059395 78.57240260951221
leaf_count=300412 70150 15526 94445 96110 144524 46463 3419
internal_value=0 0.00532351 -0.00036393 0.0225382 -0.0152232 -0.00736011 -0.0223228
internal_weight=0 15118.7 11364.9 3753.77 5503.39 2612.24 2891.16
internal_count=771049 506493 394857 111636 264556 116613 147943
is_linear=0
shrinkage=0.05


Tree=24
num_leaves=8
num_cat=0
split_feature=51 44 55 55 3 58 58
split_gain=646.504 478.092 386.051 202.281 166.326 145.838 93.2225
threshold=1.0000000180025095e-35 0.32558216564227743 4.5000000000000009 4.5000000000000009 1.5000000000000002 6.7500000000000009 3.7500000000000004
decision_type=2 2 2 2 2 2 2
left_child=1 2 -1 -3 5 -2 -6
right_child=4 3 -4 -5 6 -7 -8
leaf_value=-0.0019744433623388557 0.051538611128914058 -0.018969912873076457 0.02102421281149958 -0.0024853214228920456 0.026399100807222159 0.020632968503634525 -0.0024333357930675171
leaf_weight=7422.9244396928698 621.58890761807561 4977.0172777576372 2418.2993859313428 2972.5513791451231 439.15513408742845 993.04833682067692 771.75211919099092
leaf_count=265693 11915 234324 70823 121500 11984 29932 24878
internal_value=0 -0.00368805 0.00367861 -0.012807 0.0220541 0.0325553 0.00803637
internal_weight=0 17790.8 9841.22 7949.57 2825.54 1614.64 1210.91
internal_count=771049 692340 336516 355824 78709 41847 36862
is_linear=0
shrinkage=0.05


Tree=25
num_leaves=8
num_cat=0
split_feature=12 58 57 53 30 53 55
split_gain=627.489 558.344 426.067 253.069 145.237 118.68 65.2314
threshold=0.35926114215890842 10.750000000000002 249.50000000000003 3.5000000000000004 2.5000000000000004 4.5000000000000009 180.00000000000003
decision_type=2 2 2 2 2 2 2
left_child=1 2 -1 -3 5 -2 -6
right_child=4 3 -4 -5 6 -7 -8
leaf_value=-0.0082424940049251032 -0.0094934039065994943 0.00055714299170709183 0.021559387723358039 -0.022497510243201426 0.0028953824311948547 -0.024523375757952687 0.15619548858107268
leaf_weight=1514.500638557598 2754.9125680681318 5540.0452451240271 5753.31797422003 1515.0311049371958 1013.4323332225904 2512.8007577955723 5.9877051413059226
leaf_count=46729 113316 218924 155481 72028 40355 123992 224
internal_value=0 0.00562335 0.0153489 -0.00439618 -0.0133237 -0.0166663 0.003948
internal_weight=0 14322.9 7267.82 7055.08 6287.13 5267.71 1019.42
internal_count=771049 493162 202210 290952 277887 237308 40579
is_linear=0
shrinkage=0.05


Tree=26
num_leaves=8
num_cat=0
split_feature=56 30 54 31 55 44 58
split_gain=605.61 400.275 327.605 287.995 226.606 162.142 142.71
threshold=323.50000000000006 2.5000000000000004 1.0000000180025095e-35 0.33790693178368963 1.5000000000000002 0.26196492959590245 3.2500000000000004
decision_type=2 2 2 2 2 2 2
left_child=2 3 4 -2 -1 -4 -3
right_child=1 6 5 -5 -6 -7 -8
leaf_value=-0.010168850520711384 -0.0032962614226958345 0.031386063385345137 0.040009726734058705 -0.019066216648480044 0.019152981568723422 0.015838645042164017 0.0051382695073178605
leaf_weight=1660.9430795991793 7904.7976440861821 733.58121374063194 1160.9329548850656 4567.6631830558181 1090.7807013923302 1728.0535036232322 1757.030330710113
leaf_count=59448 290354 21752 29567 225462 32105 46893 65468
internal_value=0 -0.00541817 0.0138053 -0.0090726 0.00145703 0.0255622 0.0128788
internal_weight=0 14963.1 5640.71 12472.5 2751.72 2888.99 2490.61
internal_count=771049 603036 168013 515816 91553 76460 87220
is_linear=0
shrinkage=0.05


Tree=27
num_leaves=8
num_cat=0
split_feature=18 58 58 52 19 53 54
split_gain=584.155 617.947 354.115 301.3 284.284 134.575 113.999
threshold=0.2911972508780144 21.750000000000004 5.7500000000000009 22.500000000000004 0.22496890206318187 5.5000000000000009 1.5000000000000002
decision_type=2 2 2 2 2 2 2
left_child=1 4 3 -2 -1 -4 -3
right_child=2 6 5 -5 -6 -7 -8
leaf_value=0.025975919596969033 0.011291641900321616 -0.011940827598169477 -0.011180964214546271 -0.015589441528254392 0.0042354979748551085 -0.027329052311905258 0.0061240758302691422
leaf_weight=3991.5217497516423 2857.334674664773 3047.3770635873079 3308.7343300431967 1639.8386180242524 2412.8900250634179 2116.6553295226768 1223.2353382287547
leaf_count=110726 86497 135691 140386 70951 76712 107200 42886
internal_value=0 0.00796463 -0.00888632 0.0014885 0.0177871 -0.0174848 -0.00676626
internal_weight=0 10675 9922.56 4497.17 6404.41 5425.39 4270.61
internal_count=771049 366015 405034 157448 187438 247586 178577
is_linear=0
shrinkage=0.05


Tree=28
num_leaves=8
num_cat=0
split_feature=15 58 55 5 58 54 52
split_gain=554.104 579.888 376.863 319.465 279.034 127.367 126.519
threshold=0.30416891432116111 22.750000000000004 4.5000000000000009 1.5000000000000002 2.2500000000000004 1.5000000000000002 12.500000000000002
decision_type=2 2 2 2 2 2 2
left_child=1 3 6 -1 -4 -3 -2
right_child=2 5 4 -5 -6 -7 -8
leaf_value=0.023190108961501848 -0.011887967265302174 -0.012538755365610849 0.030727270176993105 -0.0018032452471383625 -0.0033237193844785073 0.0068192123986090137 -0.027769394578318687
leaf_weight=4959.2897021137178 3829.0057457014918 2978.187512692064 734.07103737723082 1722.3443448254839 3313.6819169241935 1188.0473813936114 1866.1423634300008
leaf_count=141004 156858 134544 23819 59115 124544 41603 89562
internal_value=0 0.00762062 -0.00880661 0.0167482 0.00285758 -0.00701831 -0.0170958
internal_weight=0 10847.9 9742.9 6681.63 4047.75 4166.23 5695.15
internal_count=771049 376266 394783 200119 148363 176147 246420
is_linear=0
shrinkage=0.05


Tree=29
num_leaves=8
num_cat=0
split_feature=50 9 58 43 37 55 38
split_gain=531.28 320.602 277.705 245.439 227.862 69.7447 40.7239
threshold=142.25000000000003 0.47463649685209891 2.2500000000000004 0.34850504122469161 0.27139486552278397 9.5000000000000018 1.0000000180025095e-35
decision_type=2 2 2 2 2 2 2
left_child=1 2 -1 4 -2 -3 -5
right_child=3 5 -4 6 -6 -7 -8
leaf_value=0.043732369419496382 -0.0084496135297009237 -0.0069112218216461421 0.011663532416946357 -0.023656685572656808 0.0090472790463239309 0.013137730339116289 -0.0037900246159522978
leaf_weight=779.56360685545951 6526.4994158642367 2702.2810918912292 5008.3233385393396 2157.4231383642182 2601.7760274112225 515.73573404178023 293.4445068417117
leaf_count=14097 259618 105630 150589 120120 87909 17221 15865
internal_value=0 0.00895625 0.0159897 -0.00723513 -0.00346214 -0.00369499 -0.0212805
internal_weight=0 9005.9 5787.89 11579.1 9128.28 3218.02 2450.87
internal_count=771049 287537 164686 483512 347527 122851 135985
is_linear=0
shrinkage=0.05


Tree=30
num_leaves=8
num_cat=0
split_feature=12 55 54 58 55 15 57
split_gain=512.347 421.086 403.47 258.421 125.241 140.857 93.053
threshold=0.35926114215890842 4.5000000000000009 1.5000000000000002 2.2500000000000004 24.500000000000004 0.30291340660657035 437.50000000000006
decision_type=2 2 2 2 2 2 2
left_child=1 2 -1 -3 5 -2 -6
right_child=4 3 -4 -5 6 -7 -8
leaf_value=-0.0069996858006927945 -0.0041028843966174856 0.045466621514617306 0.014865371665771605 0.012603928174396237 -0.002445688319720456 -0.020876487604988475 0.040686326262189612
leaf_weight=7171.3719348395243 1958.4185840412974 717.53934335894883 2988.1339082811028 3582.4250807240605 527.38947751000524 3469.7425470752642 162.86954314634204
leaf_count=279722 81252 15920 86733 110787 21181 169929 5525
internal_value=0 0.00498359 -0.000567862 0.0180971 -0.0122759 -0.0148266 0.00777563
internal_weight=0 14459.5 10159.5 4299.96 6118.42 5428.16 690.259
internal_count=771049 493162 366455 126707 277887 251181 26706
is_linear=0
shrinkage=0.05


Tree=31
num_leaves=8
num_cat=0
split_feature=51 18 58 55 18 51 55
split_gain=499.867 378.872 329.669 240.52 127.401 105.739 78.6647
threshold=1.0000000180025095e-35 0.2911972508780144 22.750000000000004 8.5000000000000018 1.0000000180025095e-35 4.5000000000000009 22.500000000000004
decision_type=2 2 2 2 2 2 2
left_child=1 2 -1 -3 5 -2 -6
right_child=4 3 -4 -5 6 -7 -8
leaf_value=0.011288331360664089 0.024147146338321917 -0.016607164951519798 -0.0080562454578965575 0.0017544863546145564 0.0043949157864919212 0.062443926677409993 0.033784658765315854
leaf_weight=5590.9097430817783 1120.6674408148974 5842.8736472157761 3632.5947758033872 2566.5862844446674 1329.5741589562967 214.63818581216037 273.8345818631351
leaf_count=170263 27097 267521 158935 95621 39492 4778 7342
internal_value=0 -0.00332853 0.0036696 -0.0110036 0.0189417 0.0303451 0.00943211
internal_weight=0 17633 9223.5 8409.46 2938.71 1335.31 1603.41
internal_count=771049 692340 329198 363142 78709 31875 46834
is_linear=0
shrinkage=0.05


Tree=32
num_leaves=8
num_cat=0
split_feature=44 42 30 15 53 57 50
split_gain=478.069 385.206 285.627 284.107 174.363 150.308 90.3545
threshold=0.30722878631257139 1.5000000000000002 1.0000000180025095e-35 0.25897924892987462 6.5000000000000009 294.50000000000006 88.250000000000014
decision_type=2 2 2 2 2 2 2
left_child=1 6 4 -3 -2 -4 -1
right_child=2 3 5 -5 -6 -7 -8
leaf_value=0.011207413978893665 -0.006540370725018123 0.027215901366711388 -0.010051404315478307 0.0050484608097318018 -0.022015429413812446 0.011914250553485051 -0.0086498744536651819
leaf_weight=714.8182329274714 4710.801697332412 2901.252269146964 1160.9760229177773 2880.5816763341427 2966.8411777606234 2361.2334698271006 2868.8655287502334
leaf_count=20588 194983 79429 44891 84627 147866 87125 111540
internal_value=0 0.00819231 -0.00711468 0.0161746 -0.0125224 0.00467322 -0.00468703
internal_weight=0 9365.52 11199.9 5781.83 7677.64 3522.21 3583.68
internal_count=771049 296184 474865 164056 342849 132016 132128
is_linear=0
shrinkage=0.05


Tree=33
num_leaves=8
num_cat=0
split_feature=53 58 58 57 52 15 58
split_gain=450.064 605.069 342.842 270.134 200.137 158.178 48.5285
threshold=5.5000000000000009 17.750000000000004 4.2500000000000009 249.50000000000003 29.500000000000004 0.31055295819819295 12.250000000000002
decision_type=2 2 2 2 2 2 2
left_child=1 3 4 -1 -2 -3 -4
right_child=2 5 6 -5 -6 -7 -8
leaf_value=-0.009262887708736291 0.010913878949724421 -0.0023501513787641745 -0.016539830859469102 0.017941593923473526 -0.016199415465711433 -0.021381349027430014 -0.028400416966243649
leaf_weight=1055.3712454494089 1988.6788402432576 4697.6203003516421 2238.7400007098913 6714.4111011531204 1033.4964971821755 1421.5516683934256 1409.8686821740121
leaf_count=30316 61582 196637 99031 188004 45985 69781 79713
internal_value=0 0.00498501 -0.0108153 0.0142457 0.00163963 -0.00677408 -0.0211294
internal_weight=0 13889 6670.78 7769.78 3022.18 6119.17 3648.61
internal_count=771049 484738 286311 218320 107567 266418 178744
is_linear=0
shrinkage=0.05


Tree=34
num_leaves=8
num_cat=0
split_feature=9 53 55 43 57 55 52
split_gain=439.083 254.784 243.088 215.055 156.07 99.004 94.044
threshold=0.43714306840846151 9.5000000000000018 3.5000000000000004 0.30371597912718556 235.50000000000003 27.500000000000004 12.500000000000002
decision_type=2 2 2 2 2 2 2
left_child=3 2 -2 4 -1 -3 -5
right_child=1 5 -4 6 -6 -7 -8
leaf_value=-0.0074388522213535884 -0.0063084737978976978 -0.022509632142743739 0.01089877381236156 0.0052236950121210841 0.020887334798315702 0.0026519850253915195 -0.014830932218262691
leaf_weight=560.18776775430888 7846.5244432305917 2449.0585035569966 2778.4650568980724 1959.4044787250459 3662.5190803967416 464.93495040759444 831.96237707044929
leaf_count=13272 321241 126473 97339 69527 90782 18729 33686
internal_value=0 -0.00540085 -0.00180813 0.0100118 0.0171287 -0.0184955 -0.000756725
internal_weight=0 13539 10625 7014.07 4222.71 2913.99 2791.37
internal_count=771049 563782 418580 207267 104054 145202 103213
is_linear=0
shrinkage=0.05


Tree=35
num_leaves=8
num_cat=0
split_feature=12 58 5 55 52 14 57
split_gain=420.461 349.338 380.355 141.75 151.076 118.214 81.8534
threshold=0.35118316175301595 22.750000000000004 1.5000000000000002 30.500000000000004 10.500000000000002 0.34366847413274515 437.50000000000006
decision_type=2 2 2 2 2 2 2
left_child=1 2 -1 4 -2 -3 -5
right_child=3 5 -4 6 -6 -7 -8
leaf_value=0.016968103793333016 -0.0063586540803847293 -0.0022183792726970064 -0.0043288470295319839 0.0028266531435145311 -0.022286402430873622 -0.021600728000180345 0.046171002242542031
leaf_weight=6529.9735187878832 3954.4094537179917 2889.1423318888992 3087.1492242570966 478.1669622734189 2387.8720228597522 1080.1729774177074 140.10784945450723
leaf_count=178198 168832 117276 105761 18743 123915 53968 4356
internal_value=0 0.00498141 0.0101319 -0.0101301 -0.012358 -0.00749703 0.0127077
internal_weight=0 13586.4 9617.12 6960.56 6342.28 3969.32 618.275
internal_count=771049 455203 283959 315846 292747 171244 23099
is_linear=0
shrinkage=0.05


Tree=36
num_leaves=8
num_cat=0
split_feature=50 30 46 30 4 58 58
split_gain=409.123 256.472 234.635 199.362 198.516 70.085 69.7691
threshold=142.25000000000003 3.5000000000000004 8.5000000000000018 7.5000000000000009 1.5000000000000002 2.7500000000000004 3.2500000000000004
decision_type=2 2 2 2 2 2 2
left_child=1 2 -1 4 -2 -3 -5
right_child=3 5 -4 6 -6 -7 -8
leaf_value=0.0027174553220217523 -0.0027076775558644438 0.052361165150907663 0.045045552971839105 0.034838812600500965 -0.016724785523340439 0.022971140067785993 0.0058643072089650744
leaf_weight=7658.5197088280693 6180.8109933231026 262.02480546291918 341.02845293469727 315.50942886527628 4271.1339738471434 905.27459116932005 606.23688368313015
leaf_count=246605 251085 4905 10505 8876 201210 25522 22341
internal_value=0 0.00772392 0.00452735 -0.0064706 -0.00843675 0.0296075 0.0158092
internal_weight=0 9166.85 7999.55 11373.7 10451.9 1167.3 921.746
internal_count=771049 287537 257110 483512 452295 30427 31217
is_linear=0
shrinkage=0.05


Tree=37
num_leaves=8
num_cat=0
split_feature=51 15 34 55 44 40 58
split_gain=401.931 310.969 265.158 218.584 99.6334 82.8007 73.0653
threshold=1.0000000180025095e-35 0.30538383703420174 0.32686983233961503 10.500000000000002 0.27154630215420045 0.42654448052697252 4.7500000000000009
decision_type=2 2 2 2 2 2 2
left_child=1 2 -1 -3 5 -2 -6
right_child=4 3 -4 -5 6 -7 -8
leaf_value=-0.0036946234777506318 0.038708586992959065 -0.015370899500099431 0.013407955756114368 0.0030290233152171549 0.021768999107059116 0.0014187758286049942 0.0030247846381567271
leaf_weight=5699.6808728976175 698.21633721515536 5814.8722710702568 3760.958808157593 2233.723999128677 890.62038554158062 189.23108303360641 1247.9516811296344
leaf_count=217838 13492 270137 122317 82048 20885 5210 39122
internal_value=0 -0.00304096 0.00310499 -0.0102646 0.0166907 0.0307678 0.0108374
internal_weight=0 17509.2 9460.64 8048.6 3026.02 887.447 2138.57
internal_count=771049 692340 340155 352185 78709 18702 60007
is_linear=0
shrinkage=0.05


Tree=38
num_leaves=8
num_cat=0
split_feature=43 37 54 58 31 46 29
split_gain=385.254 347.822 259.021 174.911 66.1753 50.7646 30.5364
threshold=0.34850504122469161 0.27139486552278397 1.5000000000000002 2.7500000000000004 0.37154980533914861 6.5000000000000009 1.5000000000000002
decision_type=2 2 2 2 2 2 2
left_child=1 2 -1 -3 5 -2 -6
right_child=4 3 -4 -5 6 -7 -8
leaf_value=-0.0062188522160044821 -0.01084365982527649 0.035784943459735555 0.010086861334680326 0.010178888033427667 -0.025536647819440858 0.017469093614745624 -0.0099119929625860609
leaf_weight=8408.9983055489138 1918.983799607493 796.19076617620885 3427.4199355356395 4091.878194199875 1299.8990956991911 171.65583797730505 414.02875393349677
leaf_count=325320 97882 16544 97505 126433 75149 8530 23686
internal_value=0 0.00313712 -0.00149682 0.0143562 -0.0144887 -0.00851175 -0.0217702
internal_weight=0 16724.5 11836.4 4888.07 3804.57 2090.64 1713.93
internal_count=771049 565802 422825 142977 205247 106412 98835
is_linear=0
shrinkage=0.05


Tree=39
num_leaves=8
num_cat=0
split_feature=4 58 14 57 55 58 57
split_gain=377.786 502.764 255.978 212.729 181.271 100.972 64.9252
threshold=2.5000000000000004 9.2500000000000018 0.38501502996792697 249.50000000000003 9.5000000000000018 2.2500000000000004 316.50000000000006
decision_type=2 2 2 2 2 2 2
left_child=1 3 -3 -1 6 -6 -2
right_child=4 2 -4 -5 5 -7 -8
leaf_value=-0.0059454118834523124 -0.027034473358968216 0.0021978922528874483 -0.016187640668138655 0.01851122279313399 0.020702673241356488 -0.0055349391107500437 -0.012966849709514713
leaf_weight=1063.2344387201592 1239.0989854848012 5610.2026340533048 2856.2650170568377 5416.4832569370046 494.74943317752331 1407.5157131161541 2435.0683905975893
leaf_count=30589 60756 224586 139946 135689 15778 53799 109906
internal_value=0 0.00401663 -0.00400587 0.0144979 -0.0112321 0.00129635 -0.0177172
internal_weight=0 14946.2 8466.47 6479.72 5576.43 1902.27 3674.17
internal_count=771049 530810 364532 166278 240239 69577 170662
is_linear=0
shrinkage=0.05


Tree=40
num_leaves=8
num_cat=0
split_feature=9 19 58 58 56 1 34
split_gain=353.7 317.682 309.47 238.198 81.2621 65.8806 64.9125
threshold=0.48118930095497842 0.22496890206318187 22.750000000000004 3.7500000000000004 342.50000000000006 102.50000000000001 0.35396627835360722
decision_type=2 2 2 2 2 2 2
left_child=1 2 -1 -3 6 -6 -2
right_child=4 3 -4 -5 5 -7 -8
leaf_value=0.017137784069366849 -0.009118768944553296 0.011772005369269813 -0.0035266670349139552 -0.010973355426318636 -0.016712122099231588 0.0015792355091537574 0.0079273278000194999
leaf_weight=5675.1003426937386 1425.1656372817233 1586.8179921060801 2660.8432092247531 4183.9841920789331 3494.2470357678831 572.77880462445319 917.03538922313601
leaf_count=154906 56303 40910 114624 167830 177164 26681 32631
internal_value=0 0.00429954 0.010542 -0.00471803 -0.00986458 -0.0141363 -0.00244422
internal_weight=0 14106.7 8335.94 5770.8 6409.23 4067.03 2342.2
internal_count=771049 478270 269530 208740 292779 203845 88934
is_linear=0
shrinkage=0.05


Tree=41
num_leaves=8
num_cat=0
split_feature=8 58 57 14 58 48 52
split_gain=347.558 370.643 311.488 263.012 35.3591 52.025 23.6328
threshold=1.0000000180025095e-35 13.750000000000002 311.50000000000006 0.34236740197104842 3.7500000000000004 284.76401879650894 10.500000000000002
decision_type=2 2 2 2 2 2 2
left_child=1 2 -1 -3 5 -2 -6
right_child=4 3 -4 -5 6 -7 -8
leaf_value=-0.0052569368247698811 -0.027741922676809163 0.0015837266628330818 0.013228188049137935 -0.016939917927795946 -0.019311508709244904 0.0031698825226631681 -0.033432546115192661
leaf_weight=3229.3204131377861 248.86653921753168 4405.5952037395909 7739.1831288393587 3390.2841727212071 608.78069550078362 298.58660708554089 588.57005039323121
leaf_count=110041 11468 180720 220455 177698 27711 10802 32154
internal_value=0 0.00186182 0.00778586 -0.006473 -0.0214622 -0.0109073 -0.026275
internal_weight=0 18764.4 10968.5 7795.88 1744.8 547.453 1197.35
internal_count=771049 688914 330496 358418 82135 22270 59865
is_linear=0
shrinkage=0.05


Tree=42
num_leaves=8
num_cat=0
split_feature=4 58 14 0 55 58 56
split_gain=334.929 394.829 220.573 188.143 166.872 87.8542 58.9322
threshold=2.5000000000000004 9.2500000000000018 0.38501502996792697 1.5000000000000002 8.5000000000000018 2.2500000000000004 353.50000000000006
decision_type=2 2 2 2 2 2 2
left_child=1 3 -3 -1 6 -6 -2
right_child=4 2 -4 -5 5 -7 -8
leaf_value=-0.022887254693136641 -0.0088422499046846587 0.0022306779459191984 -0.015020661091177504 0.014843605887323663 0.01834496852740309 -0.005420315344293841 -0.022306139852674798
leaf_weight=347.85986055620015 1296.1592798158526 5606.2023985665292 2766.4151714602485 6283.0323272319511 524.89720000978559 1491.6235755402595 2187.1993089113384
leaf_count=6340 53061 224586 139946 159938 16425 57784 112969
internal_value=0 0.00374772 -0.00347049 0.0128611 -0.0106752 0.000771777 -0.0173002
internal_weight=0 15003.5 8372.62 6630.89 5499.88 2016.52 3483.36
internal_count=771049 530810 364532 166278 240239 74209 166030
is_linear=0
shrinkage=0.05


Tree=43
num_leaves=8
num_cat=0
split_feature=53 58 58 15 52 14 44
split_gain=327.591 379.574 269.471 216.852 148.716 103.249 41.5766
threshold=5.5000000000000009 22.250000000000004 4.2500000000000009 0.27348998260212182 29.500000000000004 0.34366847413274515 0.35404429916826413
decision_type=2 2 2 2 2 2 2
left_child=1 3 4 -1 -2 -3 -4
right_child=2 5 6 -5 -6 -7 -8
leaf_value=0.017405888025207258 0.0091183005912286261 -0.0028996356001257345 -0.01493924183505066 0.0021600129755916229 -0.01451829854497582 -0.019561356620520665 -0.026456401123897872
leaf_weight=4801.1420060172677 2040.1709559289739 3442.8181440979242 2193.4276712276042 4535.6326295938343 986.38698977138847 1273.0378590486944 1224.489328019321
leaf_count=121831 61582 144647 99929 150513 45985 67747 78815
internal_value=0 0.00416099 -0.00945288 0.0100007 0.00141263 -0.00740063 -0.0190719
internal_weight=0 14052.6 6444.47 9336.77 3026.56 4715.86 3417.92
internal_count=771049 484738 286311 272344 107567 212394 178744
is_linear=0
shrinkage=0.05


Tree=44
num_leaves=8
num_cat=0
split_feature=37 54 54 46 8 39 50
split_gain=316.176 300.759 371.754 260.877 148.668 154.57 35.3781
threshold=0.17729398385407938 1.5000000000000002 2.5000000000000004 10.500000000000002 1.0000000180025095e-35 0.28247920937250642 98.250000000000014
decision_type=2 2 2 2 2 2 2
left_child=1 3 -3 -1 5 -2 -6
right_child=4 2 -4 -5 6 -7 -8
leaf_value=-0.010335941393328538 0.0086835069239189645 0.023110896028632748 -0.0080050268057195138 0.025724192240157082 0.020265898525678422 0.033098023198758507 -0.018024246310403398
leaf_weight=10013.493201375939 4743.0772066982463 1951.4450290873647 1887.5091766007245 527.06500603631139 66.90544171910733 750.22630383726209 550.08719741273671
leaf_count=436374 149731 46115 71341 20300 1914 21157 24117
internal_value=0 -0.00416675 0.00781394 -0.00853054 0.00940923 0.0120232 -0.0138461
internal_weight=0 14379.5 3838.95 10540.6 6110.3 5493.3 616.993
internal_count=771049 574130 117456 456674 196919 170888 26031
is_linear=0
shrinkage=0.05


Tree=45
num_leaves=8
num_cat=0
split_feature=5 58 57 55 15 10 58
split_gain=307.156 311.723 278.614 165.902 132.783 83.8866 74.8355
threshold=1.5000000000000002 17.750000000000004 263.50000000000006 22.500000000000004 0.31055295819819295 0.31305861592475404 2.2500000000000004
decision_type=2 2 2 2 2 2 2
left_child=1 2 -1 5 -3 -2 -5
right_child=3 4 -4 6 -6 -7 -8
leaf_value=-0.01015630902979084 -0.0094262815678376691 -0.0011711923891995419 0.013437863364600894 0.028127435850411182 -0.018942072929389056 -0.023838553886056671 -0.00099862353352452526
leaf_weight=1501.4026750260964 3052.629381868057 4531.4339769743383 7488.7162591982633 317.95431130938232 1367.68633293733 1509.5306205702946 714.52826579846442
leaf_count=49695 118241 195724 210800 9635 75580 85840 25534
internal_value=0 0.0036368 0.00949681 -0.0101036 -0.00529381 -0.0141992 0.00798932
internal_weight=0 14889.2 8990.12 5594.64 5899.12 4562.16 1032.48
internal_count=771049 531799 260495 239250 271304 204081 35169
is_linear=0
shrinkage=0.05


Tree=46
num_leaves=8
num_cat=0
split_feature=12 51 55 57 58 55 51
split_gain=299.602 244.529 216.204 96.2304 123.483 56.3933 52.0402
threshold=0.35926114215890842 1.5000000000000002 1.5000000000000002 400.50000000000006 13.750000000000002 38.500000000000007 4.5000000000000009
decision_type=2 2 2 2 2 2 2
left_child=1 2 -1 5 -5 -2 -3
right_child=3 6 -4 4 -6 -7 -8
leaf_value=-0.0037023006897879684 -0.020516772003472128 0.018173223863686288 0.0090468942787384331 0.0048559997149582703 -0.014179024664986665 0.0030484772518189307 0.040677890629948581
leaf_weight=7737.2179873278365 2050.2416966101155 777.50995839294046 5830.28069540672 1745.3626005733386 1662.866430635564 289.46359544806182 385.28680651821196
leaf_count=293433 104832 16439 175621 69168 92298 11589 7669
internal_value=0 0.00366343 0.0017766 -0.00979504 -0.00443258 -0.0176013 0.0256586
internal_weight=0 14730.3 13567.5 5747.93 3408.23 2339.71 1162.8
internal_count=771049 493162 469054 277887 161466 116421 24108
is_linear=0
shrinkage=0.05


Tree=47
num_leaves=8
num_cat=0
split_feature=18 58 58 57 44 19 56
split_gain=293.145 228.69 210.706 171.977 157.385 94.5271 63.5276
threshold=0.2911972508780144 29.250000000000004 5.7500000000000009 244.50000000000003 0.28116794630116121 0.28780723775257339 162.50000000000003
decision_type=2 2 2 2 2 2 2
left_child=1 4 3 -2 -1 -4 -3
right_child=2 6 5 -5 -6 -7 -8
leaf_value=0.018750130590835235 -0.013589540237914883 0.019242445617341179 -0.0075874918483043357 0.0076616927257038454 0.0043208510225793643 -0.021579389614067506 -0.0081640954106320541
leaf_weight=3068.6877512633801 1366.8007872086018 227.33671704679728 2725.9272687891498 3130.8428821079433 4918.7737024677917 2167.9469210756943 2866.1642306456342
leaf_count=70332 58018 7637 126941 99430 159729 120645 128317
internal_value=0 0.00539621 -0.00661033 0.00120201 0.00986606 -0.0137889 -0.00614446
internal_weight=0 11081 9391.52 4497.64 7987.46 4893.87 3093.5
internal_count=771049 366015 405034 157448 230061 247586 135954
is_linear=0
shrinkage=0.05


Tree=48
num_leaves=8
num_cat=0
split_feature=8 39 54 23 58 48 52
split_gain=286.301 283.514 233.691 65.2334 31.7082 44.6339 22.0165
threshold=1.0000000180025095e-35 0.039590722509135756 1.5000000000000002 0.38767844279239266 3.7500000000000004 284.76401879650894 10.500000000000002
decision_type=2 2 2 2 2 2 2
left_child=1 2 -1 -3 5 -2 -6
right_child=4 3 -4 -5 6 -7 -8
leaf_value=-0.0036934059849826118 -0.026225026923976415 0.026615161500097403 0.0092253168635020536 -0.011893034224525062 -0.01793457482920037 0.0028599760299364732 -0.031971237562507242
leaf_weight=12551.281796043739 234.2739422917366 1277.7422078885138 4853.4009112594649 119.76447961386293 583.98397231847048 299.83540618605912 545.18539926130325
leaf_count=509484 11468 36717 137710 5003 27711 10802 32154
internal_value=0 0.00164974 -9.0619e-05 0.0233089 -0.0199866 -0.00992261 -0.024734
internal_weight=0 18802.2 17404.7 1397.51 1663.28 534.109 1129.17
internal_count=771049 688914 647194 41720 82135 22270 59865
is_linear=0
shrinkage=0.05


Tree=49
num_leaves=8
num_cat=0
split_feature=15 42 44 55 58 52 54
split_gain=271.752 226.763 251.463 222.747 157.3 92.4142 81.3388
threshold=0.30416891432116111 1.5000000000000002 0.27872305955376503 4.5000000000000009 3.2500000000000004 12.500000000000002 1.5000000000000002
decision_type=2 2 2 2 2 2 2
left_child=1 6 -3 5 -5 -2 -1
right_child=3 2 -4 4 -6 -7 -8
leaf_value=-0.0091612090051525485 -0.0089218113776686828 0.023386654480342259 0.0037043345710892194 0.014902349644831621 -0.0053751088911861908 -0.02345235250885833 0.0062301151760857107
leaf_weight=2780.2379568582401 3555.3667870331556 2458.483130665496 4771.6472701830789 1532.5815920494497 2540.2739986423403 1581.3398905321956 1240.7647239146754
leaf_count=117667 156858 60048 160702 45997 102366 89562 37849
internal_value=0 0.00510618 0.0103993 -0.00647566 0.00225691 -0.0133987 -0.00441152
internal_weight=0 11251.1 7230.13 9209.56 4072.86 5136.71 4021
internal_count=771049 376266 220750 394783 148363 246420 155516
is_linear=0
shrinkage=0.05


Tree=50
num_leaves=8
num_cat=0
split_feature=53 55 54 58 58 52 58
split_gain=264.521 286.096 219.826 144.681 134.138 93.0022 28.0938
threshold=9.5000000000000018 8.5000000000000018 1.0000000180025095e-35 4.2500000000000009 3.7500000000000004 29.500000000000004 9.2500000000000018
decision_type=2 2 2 2 2 2 2
left_child=1 2 -1 5 -3 -2 -5
right_child=3 4 -4 6 -6 -7 -8
leaf_value=-0.0072843112454502035 0.005773870255489956 0.030978496355765751 0.0056422697103578369 -0.016314837222509312 0.0090867782822140926 -0.015483911867806406 -0.028626718425310782
leaf_weight=6304.9949015295133 1299.0123750017956 1027.6271191053092 6873.1262875702232 1096.0414845049381 2192.7151554720476 850.57132145669311 810.35644493531436
leaf_count=259728 41775 18637 231848 54993 68858 41494 53716
internal_value=0 0.00272265 -0.000542461 -0.0115367 0.01608 -0.00264094 -0.0215605
internal_weight=0 16398.5 13178.1 4055.98 3220.34 2149.58 1906.4
internal_count=771049 579071 491576 191978 87495 83269 108709
is_linear=0
shrinkage=0.05


Tree=51
num_leaves=8
num_cat=0
split_feature=30 52 58 58 45 57 56
split_gain=257.623 253.35 240.949 134.185 77.4313 88.4931 28.3996
threshold=4.5000000000000009 7.5000000000000009 22.250000000000004 6.7500000000000009 1.5000000000000002 263.50000000000006 144.50000000000003
decision_type=2 2 2 2 2 2 2
left_child=1 2 -1 -3 6 -6 -2
right_child=4 3 -4 -5 5 -7 -8
leaf_value=0.00767942014031988 0.048916740078739293 -0.0045429301033114737 -0.0071642451686615028 -0.019600036832882861 0.0014839274521088271 0.025671315691538174 -0.0050910056515174459
leaf_weight=7341.9280730877072 24.625133285298944 3866.3629842707887 4354.6097894329578 2396.8138320045546 509.31439334806055 1468.8950364273041 485.55162701569498
leaf_count=210380 437 152155 205811 130324 16650 38553 16739
internal_value=0 -0.00219265 0.002153 -0.0103072 0.0149707 0.0194479 -0.00239357
internal_weight=0 17959.7 11696.5 6263.18 2488.39 1978.21 510.177
internal_count=771049 698670 416191 282479 72379 55203 17176
is_linear=0
shrinkage=0.05


Tree=52
num_leaves=8
num_cat=0
split_feature=8 34 5 54 57 55 58
split_gain=254.83 254.495 204.566 202.087 29.1926 40.6589 13.3655
threshold=1.0000000180025095e-35 0.31133652274064416 1.5000000000000002 1.0000000180025095e-35 305.50000000000006 6.5000000000000009 3.2500000000000004
decision_type=2 2 2 2 2 2 2
left_child=1 3 -3 -1 6 -6 -2
right_child=4 2 -4 -5 5 -7 -8
leaf_value=-0.012327037956067731 -0.019361882882764473 0.012350294813847588 -0.0029561870076143964 0.0026023184711413999 -0.020682251702553101 0.0013094213525845504 -0.033730196156667655
leaf_weight=4311.2328943768516 304.58873510081321 6429.1909297853708 3304.1804031096399 4777.9224824039266 642.96859462931752 311.83419454470277 359.65589876286685
leaf_count=191901 14632 197845 128552 170616 34190 11827 21486
internal_value=0 0.00153655 0.00715444 -0.00447966 -0.0191296 -0.013506 -0.0271806
internal_weight=0 18822.5 9733.37 9089.16 1619.05 954.803 664.245
internal_count=771049 688914 326397 362517 82135 46017 36118
is_linear=0
shrinkage=0.05


Tree=53
num_leaves=8
num_cat=0
split_feature=31 51 46 35 30 45 53
split_gain=249.835 195.303 184.458 61.3377 59.5431 46.6655 46.3327
threshold=0.3669288825228379 1.0000000180025095e-35 5.5000000000000009 0.39647798456016281 10.500000000000002 9.5000000000000018 12.500000000000002
decision_type=2 2 2 2 2 2 2
left_child=1 2 -1 -3 6 -6 -2
right_child=4 3 -4 -5 5 -7 -8
leaf_value=-0.0017109922653781859 -0.010602059737704351 0.011555633549373447 0.017951528580602266 0.032309792367181199 -0.012701634090627873 0.031049588302672532 -0.024734131367265905
leaf_weight=12804.642141323537 2644.3134482572787 2262.9596447991207 1314.2862031105906 422.15189161524177 108.3525134595111 137.05469666142017 743.39804977504537
leaf_count=475812 130633 50863 46045 10701 4177 4596 48222
internal_value=0 0.00247155 0.000120471 0.0148294 -0.0119865 0.0117593 -0.0137096
internal_weight=0 16804 14118.9 2685.11 3633.12 245.407 3387.71
internal_count=771049 583421 521857 61564 187628 8773 178855
is_linear=0
shrinkage=0.05


Tree=54
num_leaves=8
num_cat=0
split_feature=4 58 46 14 55 10 57
split_gain=242.426 230.353 162.059 154.43 126.168 66.3217 50.7575
threshold=2.5000000000000004 13.750000000000002 8.5000000000000018 0.33263735309658887 9.5000000000000018 0.30799963948525005 316.50000000000006
decision_type=2 2 2 2 2 2 2
left_child=1 2 -1 -3 6 -6 -2
right_child=4 3 -4 -5 5 -7 -8
leaf_value=0.006926588539858375 -0.023890085646636004 0.0024987927840989348 0.035079128028242292 -0.012737695930528259 0.0082945837934940824 -0.010916498943542303 -0.010826823024962764
leaf_weight=7637.9519065027125 1099.4110639160499 4173.4899028511718 546.95715616177768 2763.4165699481964 1184.0914764804766 722.54671413172036 2304.9107559598051
leaf_count=194937 60756 171624 14244 150005 36723 32854 109906
internal_value=0 0.0031312 0.00881194 -0.00357184 -0.00928534 0.00101237 -0.0150513
internal_weight=0 15121.8 8184.91 6936.91 5310.96 1906.64 3404.32
internal_count=771049 530810 209181 321629 240239 69577 170662
is_linear=0
shrinkage=0.05


Tree=55
num_leaves=8
num_cat=0
split_feature=50 46 44 31 39 55 30
split_gain=233.449 179.637 176.91 114.374 102.934 51.4031 31.5079
threshold=155.25000000000003 5.5000000000000009 0.28227613176982025 0.36021612963177213 0.28140721831677712 7.5000000000000009 5.5000000000000009
decision_type=2 2 2 2 2 2 2
left_child=1 2 -1 4 -2 -3 -5
right_child=3 5 -4 6 -6 -7 -8
leaf_value=0.011522776507540329 -0.0044742490315552606 0.013607092347000442 -0.0020794863523535463 -0.018743655433076434 0.020808148149036591 0.03839337546587316 0.00031239220262649223
leaf_weight=3808.8555768989027 6906.4283705772832 390.03967788489535 6415.2480769106187 1778.6608637780882 426.52056581061333 454.25771835353225 246.98958432208747
leaf_count=100310 278633 14324 231390 110221 14114 11726 10331
internal_value=0 0.00482026 0.00298849 -0.00590725 -0.00300106 0.0269725 -0.0164211
internal_weight=0 11068.4 10224.1 9358.6 7332.95 844.297 2025.65
internal_count=771049 357750 331700 413299 292747 26050 120552
is_linear=0
shrinkage=0.05


Tree=56
num_leaves=8
num_cat=0
split_feature=9 52 58 58 55 32 56
split_gain=228.897 234.936 246.659 233.101 49.6333 39.3267 37.9521
threshold=0.49912471749126025 4.5000000000000009 23.750000000000004 5.2500000000000009 32.500000000000007 0.46956724013736006 312.50000000000006
decision_type=2 2 2 2 2 2 2
left_child=1 2 -1 -3 5 -2 -6
right_child=4 3 -4 -5 6 -7 -8
leaf_value=0.014885358363350821 -0.023432175536253111 0.0045618098236740161 -0.0029073271918151253 -0.012584902922618707 0.056444253644102972 -0.0098700933257577419 0.0024154812259971972
leaf_weight=5328.8498098952696 643.44729629997164 4157.8136340212077 3069.2456094389781 3786.1046295859851 36.635541304945946 3160.9644068321213 239.10832264646888
leaf_count=133474 32245 120319 140130 178147 898 156070 9766
internal_value=0 0.00255289 0.00838311 -0.00361094 -0.0106846 -0.0121694 0.00977181
internal_weight=0 16342 8398.1 7943.92 4080.16 3804.41 275.744
internal_count=771049 572070 273604 298466 198979 188315 10664
is_linear=0
shrinkage=0.05


Tree=57
num_leaves=8
num_cat=0
split_feature=8 37 46 32 57 55 29
split_gain=223.081 223.159 179.63 102.78 27.6675 36.0779 13.2374
threshold=1.0000000180025095e-35 0.28154251998445717 5.5000000000000009 0.31966474414840601 305.50000000000006 6.5000000000000009 5.5000000000000009
decision_type=2 2 2 2 2 2 2
left_child=1 2 -1 -3 6 -6 -2
right_child=4 3 -4 -5 5 -7 -8
leaf_value=-0.0038568300819022414 -0.030608521318439733 -0.0081432287254275607 0.016726320204786711 0.012500586665302427 -0.019624004657641771 0.0011978306386817212 -0.014312286749234611
leaf_weight=12195.478007548954 464.58640405861661 688.86681854259223 1159.8772628074512 4798.2836152445525 621.8128440878354 312.2182108014822 174.00468559982255
leaf_count=481173 26410 23823 42160 141758 34190 11827 9708
internal_value=0 0.00141978 -0.00206812 0.00990791 -0.0181762 -0.0126701 -0.0261974
internal_weight=0 18842.5 13355.4 5487.15 1572.62 934.031 638.591
internal_count=771049 688914 523333 165581 82135 46017 36118
is_linear=0
shrinkage=0.05


Tree=58
num_leaves=8
num_cat=0
split_feature=5 45 9 55 54 10 58
split_gain=222.633 209.543 196.531 126.035 92.4164 64.679 58.7384
threshold=1.5000000000000002 1.5000000000000002 0.49162297494328672 22.500000000000004 1.0000000180025095e-35 0.31305861592475404 2.2500000000000004
decision_type=2 2 2 2 2 2 2
left_child=1 4 -3 5 -1 -2 -5
right_child=3 2 -4 6 -6 -7 -8
leaf_value=-0.01513147041475732 -0.0083597660710689435 0.01011764255357717 -0.0052409077542850116 0.024047060378644864 0.00078419418600039661 -0.021433162285766739 -0.001313177170853953
leaf_weight=1869.8318966114894 2972.5552635653876 8602.1999794589356 2747.605810128618 333.8238772470504 1779.6275734952651 1388.5180122028105 717.5474485931918
leaf_count=81467 118241 266546 122569 9635 61217 85840 25534
internal_value=0 0.0030484 0.00639945 -0.00878037 -0.00737224 -0.0125262 0.00675422
internal_weight=0 14999.3 11349.8 5412.44 3649.46 4361.07 1051.37
internal_count=771049 531799 389115 239250 142684 204081 35169
is_linear=0
shrinkage=0.05


Tree=59
num_leaves=8
num_cat=0
split_feature=15 58 40 44 52 52 50
split_gain=215.452 176.027 173.222 150.701 126.946 93.8445 52.8324
threshold=0.30416891432116111 3.7500000000000004 0.43723465384153343 0.27872305955376503 35.500000000000007 13.500000000000002 151.75000000000003
decision_type=2 2 2 2 2 2 2
left_child=2 4 3 -1 -2 -3 -4
right_child=1 5 6 -5 -6 -7 -8
leaf_value=0.015828715852078571 0.010972894265934213 -0.0063619094640859969 0.001392909040399273 0.0024910803267632949 -0.015942067036605251 -0.019587352903835037 -0.013331929810576218
leaf_weight=3512.5248428462073 2033.6438998226076 4576.8006365639158 1053.1069415584207 5332.8506284309551 557.37254450283945 1897.3882204066031 1443.5124942008406
leaf_count=90061 54994 203724 39366 182035 27907 108158 64804
internal_value=0 -0.00583305 0.00450602 0.00778869 0.0051791 -0.0102403 -0.00712273
internal_weight=0 9065.21 11342 8845.38 2591.02 6474.19 2496.62
internal_count=771049 394783 376266 272096 82901 311882 104170
is_linear=0
shrinkage=0.05


Tree=60
num_leaves=8
num_cat=0
split_feature=51 44 34 52 51 50 12
split_gain=205.298 173.993 147.853 74.4096 65.6169 45.4051 37.9548
threshold=1.0000000180025095e-35 0.35404429916826413 0.32686983233961503 10.500000000000002 4.5000000000000009 84.250000000000014 0.33514193847854462
decision_type=2 2 2 2 2 2 2
left_child=1 2 -1 -3 5 -2 -6
right_child=4 3 -4 -5 6 -7 -8
leaf_value=-0.0046336832695567758 0.021389325748624038 -0.0061826403957503358 0.0060039067439830512 -0.02021994389542546 0.037654566412692804 0.0052045524853403255 0.0083941269051985429
leaf_weight=6700.7795317405835 539.15236392430961 2609.6099174614064 6371.5757826352492 1479.4385059857741 337.09904200956225 2197.3900988260284 165.90684935823083
leaf_count=263174 9365 129630 204323 95213 6053 59026 4265
internal_value=0 -0.00226474 0.00055123 -0.0112651 0.0114571 0.00839992 0.0280394
internal_weight=0 17161.4 13072.4 4089.05 3239.55 2736.54 503.006
internal_count=771049 692340 467497 224843 78709 68391 10318
is_linear=0
shrinkage=0.05


Tree=61
num_leaves=8
num_cat=0
split_feature=57 58 53 34 55 8 49
split_gain=203.488 223.143 187.076 173.056 71.5398 40.1355 40.0555
threshold=244.50000000000003 13.250000000000002 1.5000000000000002 0.31133652274064416 13.500000000000002 1.0000000180025095e-35 14.500000000000002
decision_type=2 2 2 2 2 2 2
left_child=4 3 -3 -2 6 -6 -1
right_child=1 2 -4 -5 5 -7 -8
leaf_value=-0.02048873325538049 -0.002000499942465794 0.00098420619760530219 -0.015616931786954606 0.011655817169015956 0.0029028460016138798 -0.021758680306366452 0.021413238031396775
leaf_weight=1651.5383667405695 3619.4140575537458 5051.8039011908695 2554.3285460597835 6458.7127810390666 793.92979373876005 207.19833567552269 58.294272182509303
leaf_count=74267 107940 216425 153807 180048 26690 10173 1699
internal_value=0 0.00187259 -0.00459219 0.00675164 -0.0128362 -0.00221784 -0.0190485
internal_weight=0 17684.3 7606.13 10078.1 2710.96 1001.13 1709.83
internal_count=771049 658220 370232 287988 112829 36863 75966
is_linear=0
shrinkage=0.05


Tree=62
num_leaves=8
num_cat=0
split_feature=56 29 45 30 46 47 15
split_gain=200.471 232.22 147.587 118.827 101.41 84.8534 39.8679
threshold=353.50000000000006 1.5000000000000002 1.5000000000000002 7.5000000000000009 10.500000000000002 1.0000000180025095e-35 0.33089732051602733
decision_type=2 2 2 2 2 2 2
left_child=1 2 -1 4 -2 -3 -5
right_child=3 5 -4 6 -6 -7 -8
leaf_value=-0.0089884907849072607 -0.0089751076985888634 0.012067367700222037 0.0051005612640802403 0.021181960283210059 0.013318067263377115 0.034424934304381115 0.0008926008976485382
leaf_weight=2546.6667379331775 7687.9239927167073 1061.6003277502023 6873.0918504782021 482.36254043970257 545.50459287548438 708.03701032232493 485.29700912395492
leaf_count=98179 353231 34663 215604 12606 20177 19848 16741
internal_value=0 0.00441391 0.00129098 -0.00554851 -0.00749664 0.0210271 0.0110179
internal_weight=0 11189.4 9419.76 9201.09 8233.43 1769.64 967.66
internal_count=771049 368294 313783 402755 373408 54511 29347
is_linear=0
shrinkage=0.05


Tree=63
num_leaves=8
num_cat=0
split_feature=19 42 15 58 28 58 53
split_gain=196.323 166.384 194.632 157.429 100.043 68.6207 62.3019
threshold=0.26913767214444057 1.5000000000000002 0.25897924892987462 5.7500000000000009 1.5000000000000002 1.0000000180025095e-35 8.5000000000000018
decision_type=2 2 2 2 2 2 2
left_child=1 5 -3 4 -2 -1 -5
right_child=3 2 -4 6 -6 -7 -8
leaf_value=-0.031090524945944206 -0.0083570478464900528 0.015656365440037765 0.00050152833317791592 -0.0093595795352481269 0.0074269507254741312 -0.0028770426320827228 -0.02330275442447631
leaf_weight=226.97729428298771 1806.357656580396 4070.960526377894 4416.6254967604764 2471.3713432932273 2257.2849591001868 3950.3828071812168 1186.3945413352922
leaf_count=3928 65663 111612 158002 116329 73994 163726 77795
internal_value=0 0.00375112 0.00777134 -0.00636355 0.000410367 -0.0044171 -0.0138872
internal_weight=0 12664.9 8487.59 7721.41 4063.64 4177.36 3657.77
internal_count=771049 437268 269614 333781 139657 167654 194124
is_linear=0
shrinkage=0.05


Tree=64
num_leaves=8
num_cat=0
split_feature=4 58 57 55 14 44 57
split_gain=190.853 166.265 163.366 99.3871 90.439 53.7531 41.0001
threshold=2.5000000000000004 23.750000000000004 311.50000000000006 5.5000000000000009 0.34532624202348722 0.37104613356099514 325.50000000000006
decision_type=2 2 2 2 2 2 2
left_child=1 2 -1 6 -3 -5 -2
right_child=3 4 -4 5 -6 -7 -8
leaf_value=-0.0060715441415943793 -0.023989464811102618 -0.001314354188908295 0.0090720283089348926 0.0030044217775101892 -0.017947100380425903 -0.01503821346735543 -0.010776632866505764
leaf_weight=2235.5446478053927 845.3347732424736 3102.7819422394969 8744.8695438201539 1888.1589714358561 1108.6117282886989 527.23223653668538 1929.4891379722394
leaf_count=68945 51129 133866 260119 64019 67880 27924 97167
internal_value=0 0.00274931 0.00598862 -0.00835549 -0.005696 -0.000938523 -0.014809
internal_weight=0 15191.8 10980.4 5190.22 4211.39 2415.39 2774.82
internal_count=771049 530810 329064 240239 201746 91943 148296
is_linear=0
shrinkage=0.05


Tree=65
num_leaves=8
num_cat=0
split_feature=8 39 35 22 58 48 57
split_gain=184.889 189.527 151.85 55.3141 25.6946 34.3859 18.1522
threshold=1.0000000180025095e-35 0.28140721831677712 0.29746330124560899 0.46220947962194209 3.7500000000000004 284.76401879650894 294.50000000000006
decision_type=2 2 2 2 2 2 2
left_child=1 2 -1 -3 5 -2 -6
right_child=4 3 -4 -5 6 -7 -8
leaf_value=-0.0027802559032559107 -0.023146314997648045 0.023622106974668832 0.007782042242798869 -0.017022160254619695 -0.03173802764259006 0.0032858734493601046 -0.017053137977968907
leaf_weight=13071.390300289262 209.04251581244171 1103.4367994810455 4599.3001253702678 89.874149648472667 303.25038643786684 296.54749293671921 704.5614415560849
leaf_count=484763 11468 30188 170032 3931 20654 10802 39211
internal_value=0 0.00127206 -3.08324e-05 0.0205493 -0.0168861 -0.00766696 -0.0214989
internal_weight=0 18864 17670.7 1193.31 1513.4 505.59 1007.81
internal_count=771049 688914 654795 34119 82135 22270 59865
is_linear=0
shrinkage=0.05


Tree=66
num_leaves=8
num_cat=0
split_feature=6 34 54 58 55 57 48
split_gain=183.016 185.652 167.109 127.865 84.2614 62.883 25.3817
threshold=1.0000000180025095e-35 0.32686983233961503 1.0000000180025095e-35 2.2500000000000004 6.5000000000000009 430.50000000000006 1080.6627081792378
decision_type=2 2 2 2 2 2 2
left_child=1 2 -1 -3 6 -6 -2
right_child=4 3 -4 -5 5 -7 -8
leaf_value=-0.010267881956999663 -0.026506902373298571 0.023242636577508378 0.0036153636126048344 0.0051570011656769483 -0.0084177804799160233 0.011222473574421139 -0.013706151944177056
leaf_weight=4030.6218453012407 545.80422112019733 1144.4601517128758 4686.9234733604826 6664.3662764402106 1376.646898583509 577.79899499099702 1348.0879221009091
leaf_count=185266 32415 22486 166300 228865 53928 17945 63844
internal_value=0 0.00221143 -0.0028041 0.00781027 -0.00989419 -0.0026087 -0.0174073
internal_weight=0 16526.4 8717.55 7808.83 3848.34 1954.45 1893.89
internal_count=771049 602917 351566 251351 168132 71873 96259
is_linear=0
shrinkage=0.05


Tree=67
num_leaves=8
num_cat=0
split_feature=53 42 58 44 52 58 23
split_gain=180.28 163.563 161.337 157.935 74.974 69.4661 31.8696
threshold=5.5000000000000009 3.5000000000000004 4.2500000000000009 0.25947410562048773 29.500000000000004 1.0000000180025095e-35 0.36681542592307476
decision_type=2 2 2 2 2 2 2
left_child=1 5 4 -3 -2 -1 -4
right_child=2 3 6 -5 -6 -7 -8
leaf_value=-0.029370766982533943 0.0060105666163395221 0.020142205979246031 -0.013608300444727082 0.0037641421100051914 -0.011163847604141013 -0.0022915656719576043 -0.030292166663133072
leaf_weight=246.34683948196471 2134.4914650912397 1898.5007185619324 2745.2017434351146 6542.5654284022748 903.662529789377 5579.3101280084811 319.59726589452475
leaf_count=4383 61582 43072 155685 209723 45985 227560 23059
internal_value=0 0.00300249 -0.00726525 0.00744972 0.00090025 -0.0034415 -0.0153574
internal_weight=0 14266.7 6102.95 8441.07 3038.15 5825.66 3064.8
internal_count=771049 484738 286311 252795 107567 231943 178744
is_linear=0
shrinkage=0.05


Tree=68
num_leaves=8
num_cat=0
split_feature=12 37 5 57 1 20 55
split_gain=174.329 143.569 122.527 60.6485 72.1155 60.5446 46.2496
threshold=0.36771614047877582 0.29756475200157945 3.5000000000000004 456.50000000000006 72.500000000000014 0.28350753389367395 11.500000000000002
decision_type=2 2 2 2 2 2 2
left_child=1 2 -1 6 -5 -3 -2
right_child=3 5 -4 4 -6 -7 -8
leaf_value=0.0012732747219622014 -0.020540796928874568 0.012239973426710737 -0.014800187679711321 -0.006510464824739404 0.019970859467501541 -0.0035292803383081533 -0.0051196803153529466
leaf_weight=9835.8302168827504 1336.6413008873351 3923.0248353267089 1347.131393218413 2145.6236043656245 291.09315382130444 719.97836338123307 765.15402035554871
leaf_count=346932 80675 104947 60376 110860 11274 21613 34372
internal_value=0 0.00240462 -0.000664131 -0.00871037 -0.00334008 0.00979444 -0.0149319
internal_weight=0 15826 11183 4538.51 2436.72 4643 2101.8
internal_count=771049 533868 407308 237181 122134 126560 115047
is_linear=0
shrinkage=0.05


Tree=69
num_leaves=8
num_cat=0
split_feature=21 37 46 32 55 58 57
split_gain=169.746 171.315 153.246 79.7038 37.0297 23.696 17.9867
threshold=0.49875181219209713 0.28154251998445717 4.5000000000000009 0.31966474414840601 198.50000000000003 2.7500000000000004 169.50000000000003
decision_type=2 2 2 2 2 2 2
left_child=1 2 -1 -3 5 -2 -6
right_child=4 3 -4 -5 6 -7 -8
leaf_value=-0.00367939307091413 -0.0037547092799698149 -0.0075015684256036887 0.014007672125945048 0.010813468243968139 0.015085940411181026 -0.019650564065085502 0.18037772068203911
leaf_weight=11903.610335869249 290.26957598421723 675.4093572627753 1364.10739775002 4890.9531875653192 3.5317699620500198 1230.0707670710981 2.4515103399753571
leaf_count=475863 12172 23520 50046 141257 142 67972 77
internal_value=0 0.00122883 -0.00186 0.00859022 -0.0161026 -0.0166201 0.0989423
internal_weight=0 18834.1 13267.7 5566.36 1526.32 1520.34 5.98328
internal_count=771049 690686 525909 164777 80363 80144 219
is_linear=0
shrinkage=0.05


Tree=70
num_leaves=8
num_cat=0
split_feature=56 29 43 39 45 47 38
split_gain=169.703 143.226 114.981 115.538 114.57 45.5002 36.1252
threshold=342.50000000000006 3.5000000000000004 0.36046064924593008 0.30007105828641673 8.5000000000000018 0.22676581494894807 1.0000000180025095e-35
decision_type=2 2 2 2 2 2 2
left_child=1 4 3 -2 -1 -3 -4
right_child=2 5 6 -5 -6 -7 -8
leaf_value=-0.0019932884839092614 -0.0032398956611748029 0.016833880346954239 -0.019170503069969067 0.01698952086662367 0.011018983483799302 0.041564547357381694 0.0029271393233883951
leaf_weight=4087.096687764395 10209.4556164979 540.18949180096388 1379.9874287503771 757.25054988032207 2884.9199170190841 284.82532038073987 213.26965869031847
leaf_count=131165 408083 14955 96234 23170 77205 6681 13556
internal_value=0 0.00572474 -0.00366576 -0.00184163 0.00339181 0.0254118 -0.0162126
internal_weight=0 7797.03 12560 10966.7 6972.02 825.015 1593.26
internal_count=771049 230006 541043 431253 208370 21636 109790
is_linear=0
shrinkage=0.05


Tree=71
num_leaves=8
num_cat=0
split_feature=15 58 35 0 4 52 9
split_gain=168.057 150.193 144.605 100.349 94.8559 85.6404 64.0684
threshold=0.27348998260212182 3.7500000000000004 0.29746330124560899 1.5000000000000002 4.5000000000000009 5.5000000000000009 0.49162297494328672
decision_type=2 2 2 2 2 2 2
left_child=2 4 3 -1 -2 -3 -4
right_child=1 5 6 -5 -6 -7 -8
leaf_value=-0.008085575307666874 0.011605038734435087 -0.0022814347948524366 0.019898309912722248 0.0046151992349369678 -0.0068354013951673551 -0.013441963724331622 -0.0038423552620854015
leaf_weight=2079.086204576306 1866.4201240553521 3000.2233563577756 1768.4596977382898 6162.6207511280663 1112.1749110263772 4025.2877330915071 338.20803497219458
leaf_count=83312 43833 125059 51327 194936 46128 211826 14628
internal_value=0 -0.00468819 0.00439964 0.00141066 0.0047196 -0.0086769 0.0160869
internal_weight=0 10004.1 10348.4 8241.71 2978.6 7025.51 2106.67
internal_count=771049 426846 344203 278248 89961 336885 65955
is_linear=0
shrinkage=0.05


Tree=72
num_leaves=8
num_cat=0
split_feature=57 47 39 1 46 55 20
split_gain=164.423 164.022 150.869 53.7266 32.5894 20.184 18.0106
threshold=194.50000000000003 0.37617956928126045 0.28140721831677712 269.50000000000006 1.5000000000000002 11.500000000000002 0.34037487776409314
decision_type=2 2 2 2 2 2 2
left_child=3 2 -2 5 -3 -1 -5
right_child=1 4 -4 6 -6 -7 -8
leaf_value=-0.021459562424951888 0.0015088067103021892 -0.01715679352308187 0.020973570682667645 0.038811321987035477 0.0027235911059620681 -0.01005422366626931 -0.016365525459783599
leaf_weight=972.31847052415833 16003.457009824924 1339.4891968904994 1060.5548883802257 59.058217315003276 243.30642697960138 650.03694665292278 18.989912593271583
leaf_count=45728 582234 74476 27749 2171 12518 25331 842
internal_value=0 0.00129126 0.00271973 -0.0149458 -0.014101 -0.0168987 0.025349
internal_weight=0 18646.8 17064 1700.4 1582.8 1622.36 78.0481
internal_count=771049 696977 609983 74072 86994 71059 3013
is_linear=0
shrinkage=0.05


Tree=73
num_leaves=8
num_cat=0
split_feature=18 55 9 32 57 52 41
split_gain=160.98 133.149 119.921 101.149 88.0952 65.4976 27.1859
threshold=0.26542441275336959 4.5000000000000009 0.49912471749126025 0.31966474414840601 521.50000000000011 16.500000000000004 129.16269841269843
decision_type=2 2 2 2 2 2 2
left_child=2 5 3 -1 -3 -2 -4
right_child=1 4 6 -5 -6 -7 -8
leaf_value=-0.0043204984285399655 -0.0071570339327354281 -0.0023657093465886949 -0.0020617882075569167 0.0092643470832114109 0.014006740150241753 -0.020724065900551043 -0.01421177863765148
leaf_weight=1698.7375649241731 4188.2775793583132 3281.4196716458537 1071.7091986113228 7073.3685834049247 1094.945102491416 1129.3239018209279 806.67147428682074
leaf_count=63030 193285 122010 42571 205531 34450 74413 35759
internal_value=0 -0.00472641 0.00417834 0.00663342 0.00173286 -0.0100417 -0.00728439
internal_weight=0 9693.97 10650.5 8772.11 4376.36 5317.6 1878.38
internal_count=771049 424158 346891 268561 156460 267698 78330
is_linear=0
shrinkage=0.05


Tree=74
num_leaves=8
num_cat=0
split_feature=53 58 42 15 57 50 54
split_gain=155.902 188.872 148.323 127.549 104.476 71.2682 43.5137
threshold=2.5000000000000004 5.2500000000000009 3.5000000000000004 0.19931973443472692 235.50000000000003 152.25000000000003 1.0000000180025095e-35
decision_type=2 2 2 2 2 2 2
left_child=2 4 5 -4 -2 -1 -3
right_child=1 6 3 -5 -6 -7 -8
leaf_value=0.0036827836477754264 -0.010560149811211663 -0.017381727747551732 0.016882830544914778 0.0019934362960777794 0.0059210577790710416 -0.0080707597420597195 -0.0073597566015962401
leaf_weight=2597.3707812922075 1285.4769850275479 2196.6416209735908 2909.4713863478974 2844.271362724714 3806.3986313333735 2559.9497488406487 2140.5571604887955
leaf_count=87129 56977 130467 72902 88946 110996 113965 109667
internal_value=0 -0.00477215 0.00400559 0.00952412 0.00175901 -0.00215178 -0.0124384
internal_weight=0 9429.07 10911.1 5753.74 5091.88 5157.32 4337.2
internal_count=771049 408107 362942 161848 167973 201094 240134
is_linear=0
shrinkage=0.05


Tree=75
num_leaves=8
num_cat=0
split_feature=6 34 54 57 55 57 23
split_gain=151.165 145.859 142.134 104.017 73.4139 39.9514 29.9274
threshold=1.0000000180025095e-35 0.32686983233961503 1.0000000180025095e-35 720.50000000000011 11.500000000000002 430.50000000000006 0.32742540024851025
decision_type=2 2 2 2 2 2 2
left_child=1 2 -1 -3 6 -6 -2
right_child=4 3 -4 -5 5 -7 -8
leaf_value=-0.0094753964753753837 -0.012400429514879619 0.0035565182999143896 0.0033865455300411181 0.016730485285231168 -0.0054567796320122396 0.012965163382171449 -0.029113446726093513
leaf_weight=3954.1712683415972 1996.8971743364818 5900.3071130136959 4700.0831217169762 2007.7196993138641 1059.4353715325706 406.36651102174073 309.35102458391339
leaf_count=185266 94001 185842 166300 65509 40730 11622 21779
internal_value=0 0.00199469 -0.00249055 0.00690287 -0.00909481 -0.000344279 -0.0146539
internal_weight=0 16562.3 8654.25 7908.03 3772.05 1465.8 2306.25
internal_count=771049 602917 351566 251351 168132 52352 115780
is_linear=0
shrinkage=0.05


Tree=76
num_leaves=8
num_cat=0
split_feature=5 32 57 54 58 55 17
split_gain=148.671 147.442 124.698 65.7904 61.0672 35.2927 22.0888
threshold=3.5000000000000004 0.31966474414840601 311.50000000000006 1.0000000180025095e-35 4.7500000000000009 24.500000000000004 0.33909669742969295
decision_type=2 2 2 2 2 2 2
left_child=1 3 -3 -1 5 -2 -6
right_child=4 2 -4 -5 6 -7 -8
leaf_value=-0.016560568783453709 -0.008531367362934663 -0.0059576114020314019 0.0059205392712545386 -0.0010743603943186321 -0.012682564416118876 0.007709598042225603 -0.025443095134162836
leaf_weight=1389.1103045619093 1102.6959742726758 2713.2429491439834 11884.764323965181 1353.9616982927546 831.09455881547183 479.07335825730115 577.09053264092654
leaf_count=66208 45281 100018 413989 48343 44388 14976 37846
internal_value=0 0.00171392 0.00371256 -0.00891986 -0.0103567 -0.00361067 -0.0179263
internal_weight=0 17341.1 14598 2743.07 2989.95 1581.77 1408.19
internal_count=771049 628558 514007 114551 142491 60257 82234
is_linear=0
shrinkage=0.05


Tree=77
num_leaves=8
num_cat=0
split_feature=8 30 35 32 58 48 57
split_gain=144.159 136.156 149.473 41.5275 22.3053 26.7594 15.2711
threshold=1.0000000180025095e-35 4.5000000000000009 0.29746330124560899 0.34883964858482036 3.7500000000000004 284.76401879650894 294.50000000000006
decision_type=2 2 2 2 2 2 2
left_child=1 2 -1 -3 5 -2 -6
right_child=4 3 -4 -5 6 -7 -8
leaf_value=-0.0034352297740217193 -0.021008789923364739 -0.0028564335917378521 0.0072500272951863459 0.015088548269669958 -0.029696036775868007 0.002782619761028414 -0.015669861579663633
leaf_weight=11980.094479291234 194.43950093444437 383.30586335342377 4501.9845441794023 2018.2862161537632 274.74785157153383 298.50609088782221 677.16850742977113
leaf_count=458692 11468 12342 167289 50591 20654 10802 39211
internal_value=0 0.00110456 -0.000516351 0.0122244 -0.0152767 -0.0066253 -0.0197451
internal_weight=0 18883.7 16482.1 2401.59 1444.86 492.946 951.916
internal_count=771049 688914 625981 62933 82135 22270 59865
is_linear=0
shrinkage=0.05


Tree=78
num_leaves=8
num_cat=0
split_feature=22 39 52 57 1 56 58
split_gain=142.443 146.548 137.116 42.3555 24.2658 13.5247 11.8476
threshold=0.46413056742478281 0.28140721831677712 4.5000000000000009 612.50000000000011 170.50000000000003 249.50000000000003 4.7500000000000009
decision_type=2 2 2 2 2 2 2
left_child=1 2 -1 -3 6 -6 -2
right_child=4 3 -4 -5 5 -7 -8
leaf_value=0.0036093158766820721 -0.015707685081447206 0.011344149840253032 -0.0051350950871601499 0.031352133240868205 0.11466418377874997 0.0011665155700938752 -0.02790688320026409
leaf_weight=9976.9991493811831 379.0936932368204 933.41155182151124 8139.3353386558592 369.36329879518598 1.7008916214108456 94.011429134756327 431.67029545316473
leaf_count=343179 19207 27046 338530 9403 42 4523 29119
internal_value=0 0.000845728 -0.000319453 0.0170365 -0.0194213 0.00434823 -0.0222292
internal_weight=0 19419.1 18116.3 1302.77 906.476 95.7123 810.764
internal_count=771049 718158 681709 36449 52891 4565 48326
is_linear=0
shrinkage=0.05


Tree=79
num_leaves=8
num_cat=0
split_feature=51 46 23 51 1 35 49
split_gain=141.067 121.052 123.44 52.3871 44.7984 36.3756 30.0997
threshold=1.0000000180025095e-35 10.500000000000002 0.36681542592307476 4.5000000000000009 65.500000000000014 0.40284629373387376 16.500000000000004
decision_type=2 2 2 2 2 2 2
left_child=1 2 -1 5 -3 -2 -5
right_child=3 4 -4 6 -6 -7 -8
leaf_value=-0.0018023842504309795 0.0041345285525299959 0.0007223112914400391 -0.020321366044310014 0.020348920815067891 0.024003852492650607 0.01965932280773831 0.065855868126246594
leaf_weight=15130.223242596257 2353.1807031235658 317.93844103300944 955.7594101713039 488.90610555093735 589.4948472562246 448.5831810622476 38.566468181088567
leaf_count=604830 55988 12736 57429 9566 17345 12403 752
internal_value=0 -0.00190124 -0.0029039 0.00935269 0.0158564 0.00662629 0.0237945
internal_weight=0 16993.4 16086 3329.24 907.433 2801.76 527.473
internal_count=771049 692340 662259 78709 30081 68391 10318
is_linear=0
shrinkage=0.05


Tree=80
num_leaves=8
num_cat=0
split_feature=20 31 46 58 34 55 57
split_gain=139.65 143.925 126.283 45.1585 34.5461 26.9586 25.3971
threshold=0.28116624811030139 0.39324595319594907 5.5000000000000009 3.2500000000000004 0.31640217122228675 5.5000000000000009 600.50000000000011
decision_type=2 2 2 2 2 2 2
left_child=1 2 -1 5 -3 -2 -5
right_child=3 4 -4 6 -6 -7 -8
leaf_value=0.0016883589491212031 -0.014530968842878744 -0.019517798601820933 0.018036995051388144 -0.019180806438169953 -0.005431986243261102 0.0054749394793702083 -0.0058949829995284895
leaf_weight=14745.450853843242 246.49281311035156 827.47728844732046 1283.0874844589271 1267.5739935548045 919.46146443812177 525.88976384606212 503.69129410991445
leaf_count=524924 9949 50584 40908 61726 44969 15716 22273
internal_value=0 0.00151258 0.00299811 -0.011011 -0.0121114 -0.000920141 -0.0154082
internal_weight=0 17775.5 16028.5 2543.65 1746.94 772.383 1771.27
internal_count=771049 661385 565832 109664 95553 25665 83999
is_linear=0
shrinkage=0.05


Tree=81
num_leaves=8
num_cat=0
split_feature=47 20 37 30 32 44 55
split_gain=134.32 140.433 117.651 50.0335 28.5549 20.4481 17.6806
threshold=0.37617956928126045 1.0000000180025095e-35 0.29756475200157945 12.500000000000002 0.42738002919687584 0.37415874806561039 20.500000000000004
decision_type=2 2 2 2 2 2 2
left_child=1 2 -1 -3 6 -6 -2
right_child=4 3 -4 -5 5 -7 -8
leaf_value=0.0003598021825325121 -0.027886561871645472 -0.010710879148023288 0.010013182394350399 0.013213222742343468 -0.0042806519013835059 -0.016848442634705113 0.019791129466209274
leaf_weight=11270.446890749969 368.88935089763254 2730.5974757433869 4383.0947576295584 236.70382141228765 716.28945503337309 590.84586859866977 19.839738880284131
leaf_count=435106 21024 110027 121777 6045 35341 40998 731
internal_value=0 0.00117267 0.00306328 -0.00879863 -0.0135218 -0.00997003 -0.0254087
internal_weight=0 18620.8 15653.5 2967.3 1695.86 1307.14 388.729
internal_count=771049 672955 556883 116072 98094 76339 21755
is_linear=0
shrinkage=0.05


Tree=82
num_leaves=8
num_cat=0
split_feature=56 29 21 55 45 13 1
split_gain=132.703 111.203 96.8496 94.7133 94.0385 39.8951 26.1156
threshold=342.50000000000006 3.5000000000000004 0.5105528537391596 8.5000000000000018 11.500000000000002 0.23512454437908478 244.50000000000003
decision_type=2 2 2 2 2 2 2
left_child=1 4 3 -2 -1 -3 -4
right_child=2 5 6 -5 -6 -7 -8
leaf_value=-0.0011175423828017634 -0.0048939226576916964 0.04289471883881503 -0.020737035249848365 0.0051335685197307444 0.011195288753688122 0.016406617645265544 0.020148319620916143
leaf_weight=4700.06782573089 8228.6008090153337 179.76899279654026 874.16153483884409 3297.8897331212647 2313.1422530948184 679.81977199902758 40.116489165928215
leaf_count=147998 378942 4615 53858 106493 60372 17021 1750
internal_value=0 0.00502652 -0.00326801 -0.00202472 0.00294457 0.0219896 -0.018923
internal_weight=0 7872.8 12440.8 11526.5 7013.21 859.589 914.278
internal_count=771049 230006 541043 485435 208370 21636 55608
is_linear=0
shrinkage=0.05


Tree=83
num_leaves=8
num_cat=0
split_feature=19 9 58 32 28 23 1
split_gain=130.791 112.993 110.683 104.525 62.5105 59.2041 30.6298
threshold=0.22496890206318187 0.49912471749126025 3.7500000000000004 0.31966474414840601 1.5000000000000002 0.35415563045888881 30.500000000000004
decision_type=2 2 2 2 2 2 2
left_child=1 3 4 -1 -2 -4 -3
right_child=2 6 5 -5 -6 -7 -8
leaf_value=-0.0052486096711270684 -0.0057876176033256023 -0.011180188805248204 -0.0075535956939882676 0.0078339900128215206 0.010283045096507206 -0.026330355123871885 0.00063275748541684513
leaf_weight=1872.2008699458092 1035.6480615544133 1467.146619101055 4887.8916087588295 8259.2964887605049 1452.8205648730509 458.52843759628013 876.09109165100381
leaf_count=72810 35087 65063 233728 249429 42551 31834 40547
internal_value=0 0.00312769 -0.00511471 0.00541618 0.00359514 -0.00916858 -0.00676517
internal_weight=0 12474.7 7834.89 10131.5 2488.47 5346.42 2343.24
internal_count=771049 427849 343200 322239 77638 265562 105610
is_linear=0
shrinkage=0.05


Tree=84
num_leaves=8
num_cat=0
split_feature=57 10 39 1 54 37 38
split_gain=129.655 125.583 115.462 45.1367 25.5283 19.6089 13.8256
threshold=191.50000000000003 0.35091123673617997 0.28140721831677712 269.50000000000006 1.5000000000000002 0.37683982328451454 0.5409696404891351
decision_type=2 2 2 2 2 2 2
left_child=3 2 -2 5 -3 -1 -5
right_child=1 4 -4 6 -6 -7 -8
leaf_value=-0.019982570205507619 0.0012650641046042827 -0.014978782913450787 0.017768982268098758 0.014031849814611336 0.0018085319069313596 -0.0077181399627340363 0.073515976109905859
leaf_weight=982.26969070965424 15994.959287552629 1354.789285141509 1133.9651630143635 67.178308158181608 271.63458178704605 490.26382811879739 10.6031411527656
leaf_count=46561 579184 80402 28815 2494 12341 20807 445
internal_value=0 0.00109766 0.00235863 -0.0139431 -0.0121757 -0.0159073 0.0229709
internal_weight=0 18755.3 17128.9 1550.31 1626.42 1472.53 77.7814
internal_count=771049 700742 607999 70307 92743 67368 2939
is_linear=0
shrinkage=0.05


Tree=85
num_leaves=8
num_cat=0
split_feature=6 34 54 57 55 57 54
split_gain=125.535 119.889 110.307 80.1046 62.4884 41.1112 21.3745
threshold=1.0000000180025095e-35 0.35878499110242945 1.0000000180025095e-35 720.50000000000011 5.5000000000000009 430.50000000000006 3.5000000000000004
decision_type=2 2 2 2 2 2 2
left_child=1 2 -1 -3 6 -6 -2
right_child=4 3 -4 -5 5 -7 -8
leaf_value=-0.0079643080003849037 -0.017010703636196348 0.0035113802044813148 0.002931917932397503 0.015492133237010826 -0.007334856317275245 0.0079015963695162027 0.0067857678624937637
leaf_weight=4177.5342594017275 1559.8778154547326 5297.5845403554849 5228.8534047878347 1893.417815241497 1399.3280713683926 646.46287988033146 99.922317086253315
leaf_count=193845 86281 170308 177269 61495 57447 19858 4546
internal_value=0 0.0018079 -0.00190761 0.00666767 -0.00836942 -0.00251868 -0.0155749
internal_weight=0 16597.4 9406.39 7191 3705.59 2045.79 1659.8
internal_count=771049 602917 371114 231803 168132 77305 90827
is_linear=0
shrinkage=0.05


Tree=86
num_leaves=8
num_cat=0
split_feature=5 45 57 18 55 58 54
split_gain=120.718 120.54 106.408 75.9692 52.0998 36.0558 32.6684
threshold=3.5000000000000004 1.5000000000000002 720.50000000000011 0.40609142178154217 6.5000000000000009 2.2500000000000004 1.0000000180025095e-35
decision_type=2 2 2 2 2 2 2
left_child=1 3 -3 -1 6 -6 -2
right_child=4 2 -4 -5 5 -7 -8
leaf_value=-0.0034959622901036061 -0.023824573937742094 0.00073563382796791371 0.010266885680107533 -0.023953142757112786 0.0096585797048799344 -0.0077044706335541238 -0.0086783900357094435
leaf_weight=3285.0741002112627 715.02651058509946 9290.3581542358734 4275.2068352540955 525.66867586178705 411.56116014625877 1085.5545779634267 711.63576393574476
leaf_count=127662 45779 315829 154329 30738 12850 45117 38745
internal_value=0 0.00153275 0.00373996 -0.00632345 -0.00944692 -0.00292806 -0.0162809
internal_weight=0 17376.3 13565.6 3810.74 2923.78 1497.12 1426.66
internal_count=771049 628558 470158 158400 142491 57967 84524
is_linear=0
shrinkage=0.05


Tree=87
num_leaves=8
num_cat=0
split_feature=8 35 30 56 50 30 57
split_gain=118.363 111.546 116.005 98.6548 19.9619 23.8535 14.0881
threshold=1.0000000180025095e-35 0.29746330124560899 4.5000000000000009 352.50000000000006 101.25000000000001 6.5000000000000009 294.50000000000006
decision_type=2 2 2 2 2 2 2
left_child=1 2 -1 -3 5 -2 -6
right_child=4 3 -4 -5 6 -7 -8
leaf_value=-0.0031849732646551882 -0.0058613650646028945 0.015651683335289494 0.0097062431577684752 0.0013682864701908663 -0.023249444180824447 0.046571471469180691 -0.012124319235071242
leaf_weight=11910.691413212102 172.7576067186892 2102.3320385352708 2043.7121275044046 2843.4033077247441 470.47230243473314 23.785612900741398 730.95777176972479
leaf_count=458692 6651 59753 53115 117354 33686 517 41281
internal_value=0 0.000990454 -0.00129641 0.00744181 -0.0140818 0.000687676 -0.0164966
internal_weight=0 18900.1 13954.4 4945.74 1397.97 196.543 1201.43
internal_count=771049 688914 511807 177107 82135 7168 74967
is_linear=0
shrinkage=0.05


Tree=88
num_leaves=8
num_cat=0
split_feature=15 58 0 44 52 52 58
split_gain=117.004 117.579 107.967 96.4937 79.7168 63.2597 50.1372
threshold=0.27348998260212182 5.2500000000000009 1.0000000180025095e-35 0.28227613176982025 27.500000000000004 10.500000000000002 2.7500000000000004
decision_type=2 2 2 2 2 2 2
left_child=2 4 6 -4 -2 -3 -1
right_child=1 5 3 -5 -6 -7 -8
leaf_value=-0.030279263283145997 0.0047601681984876971 -0.0059085920466425005 0.011913221649413578 0.0012704533131558489 -0.010522608487557181 -0.018579308556947071 -0.0044088300426239407
leaf_weight=210.95243011042476 3902.3247022340074 3462.6381850168109 3811.5483231497929 4825.8053816864267 1090.9877763688564 1376.6630731131881 1613.9901594230905
leaf_count=3609 107015 167800 99499 171096 59061 92970 69999
internal_value=0 -0.00396307 0.00363308 0.0059678 0.0014196 -0.0095162 -0.00741424
internal_weight=0 9832.61 10462.3 8637.35 4993.31 4839.3 1824.94
internal_count=771049 426846 344203 270595 166076 260770 73608
is_linear=0
shrinkage=0.05


Tree=89
num_leaves=8
num_cat=0
split_feature=7 46 37 58 55 10 38
split_gain=115.398 124.818 129.679 61.8001 28.2693 20.5037 14.167
threshold=4.5000000000000009 2.5000000000000004 0.28154251998445717 2.2500000000000004 66.500000000000014 0.26222823924504579 0.53156868862532525
decision_type=2 2 2 2 2 2 2
left_child=1 2 -1 -3 6 -6 -2
right_child=4 3 -4 -5 5 -7 -8
leaf_value=-0.0037549405545514985 -0.018847444814958966 0.027004661648393932 0.0058246263016193791 0.0072685569396309675 0.10088549647914818 0.0080103864162148208 0.013941415490255113
leaf_weight=11410.974920853041 985.53496467880905 482.35552699724212 5115.8155128369108 2219.4906633947976 6.1532925898209205 36.40274391323328 33.394996628165245
leaf_count=471299 44087 11734 153597 87210 140 1252 1730
internal_value=0 0.000839582 -0.000789443 0.0108007 -0.0160876 0.0234474 -0.0177602
internal_weight=0 19228.6 16526.8 2701.85 1061.49 42.556 1018.93
internal_count=771049 723840 624896 98944 47209 1392 45817
is_linear=0
shrinkage=0.05


Tree=90
num_leaves=8
num_cat=0
split_feature=22 39 4 7 58 38 29
split_gain=115.329 109.392 114.439 32.4338 21.185 19.6112 14.26
threshold=0.46413056742478281 0.28140721831677712 1.5000000000000002 3.5000000000000004 2.2500000000000004 0.44126719563230754 1.5000000000000002
decision_type=2 2 2 2 2 2 2
left_child=1 2 -1 -3 5 -2 -6
right_child=4 3 -4 -5 6 -7 -8
leaf_value=0.002442716345789582 -0.012421234212369599 0.017234497932317145 -0.0060994296093036561 -0.0074418335396450944 -0.027019864794343054 0.02421489539318343 -0.011271674037441943
leaf_weight=12328.120356742293 144.71321735531092 1196.9646953761112 5748.1461396606173 149.25029553519562 460.50999412476085 47.762194489594549 211.94056220515631
leaf_count=421060 6800 31253 260649 5196 30323 2219 13549
internal_value=0 0.000750546 -0.000273823 0.0144952 -0.0178991 -0.00325192 -0.0220805
internal_weight=0 19422.5 18076.3 1346.21 864.926 192.475 672.451
internal_count=771049 718158 681709 36449 52891 9019 43872
is_linear=0
shrinkage=0.05


Tree=91
num_leaves=8
num_cat=0
split_feature=57 58 58 14 55 49 43
split_gain=111.503 138.065 110.082 108.232 63.1477 60.8995 37.4896
threshold=311.50000000000006 17.750000000000004 1.0000000180025095e-35 0.34236740197104842 10.500000000000002 4.5000000000000009 0.29666504004573863
decision_type=2 2 2 2 2 2 2
left_child=4 2 -2 -3 5 -1 -6
right_child=1 3 -4 -5 6 -7 -8
